{"learner":{"attributes":{"best_iteration":"3","best_score":"0.02316567130314725"},"feature_names":[],"feature_types":[],"gradient_booster":{"model":{"gbtree_model_param":{"num_parallel_tree":"1","num_trees":"104"},"iteration_indptr":[0,1,2,3,4,5,6,7,8,9,10,11,12,13,14,15,16,17,18,19,20,21,22,23,24,25,26,27,28,29,30,31,32,33,34,35,36,37,38,39,40,41,42,43,44,45,46,47,48,49,50,51,52,53,54,55,56,57,58,59,60,61,62,63,64,65,66,67,68,69,70,71,72,73,74,75,76,77,78,79,80,81,82,83,84,85,86,87,88,89,90,91,92,93,94,95,96,97,98,99,100,101,102,103,104],"tree_info":[0,0,0,0,0,0,0,0,0,0,0,0,0,0,0,0,0,0,0,0,0,0,0,0,0,0,0,0,0,0,0,0,0,0,0,0,0,0,0,0,0,0,0,0,0,0,0,0,0,0,0,0,0,0,0,0,0,0,0,0,0,0,0,0,0,0,0,0,0,0,0,0,0,0,0,0,0,0,0,0,0,0,0,0,0,0,0,0,0,0,0,0,0,0,0,0,0,0,0,0,0,0,0,0],"trees":[{"base_weights":[1.3151335E-3,-6.914727E-3,2.0618713E0,-2.4372274E-2,3.8818013E-2,-3.7031133E-2,6.339673E-3,-3.6788632E-3,1.4993333E-2,-4.1248823E-6,7.7168E-4],"categories":[],"categories_nodes":[],"categories_segments":[],"categories_sizes":[],"default_left":[0,0,0,0,0,0,0,0,0,0,0],"id":0,"left_children":[1,3,-1,5,-1,7,-1,-1,9,-1,-1],"loss_changes":[6.4412866E3,2.595067E2,0E0,3.5528282E1,0E0,3.2570663E1,0E0,0E0,4.692173E-2,0E0,0E0],"parents":[2147483647,0,0,1,1,3,3,5,5,8,8],"right_children":[2,4,-1,6,-1,8,-1,-1,10,-1,-1],"split_conditions":[1E1,9E0,2.0618713E0,3E0,3.8818013E-2,3.5723896E0,6.339673E-3,-3.6788632E-3,3.6614268E0,-4.1248823E-6,7.7168E-4],"split_indices":[1,1,0,1,0,0,0,0,0,0,0],"split_type":[0,0,0,0,0,0,0,0,0,0,0],"sum_hessian":[1.8978434E4,1.8975646E4,2.7873077E0,1.8562889E4,4.1275876E2,1.7129215E4,1.4336725E3,1.006109E4,7.068126E3,2.005794E2,6.8675464E3],"tree_param":{"num_deleted":"0","num_feature":"3","num_nodes":"11","size_leaf_vector":"1"}},{"base_weights":[-2.9647863E-3,-1.0624234E-2,6.9487805E0,-2.6867187E-2,3.4474637E-2,1.7345391E-1,3.658732E-1,-4.0964894E-2,7.0264162E-3,-7.642029E-2,4.580707E-4,-3.8326879E-3,-2.9335085E-3],"categories":[],"categories_nodes":[],"categories_segments":[],"categories_sizes":[],"default_left":[0,0,0,0,0,0,0,0,0,0,0,0,0],"id":1,"left_children":[1,3,5,7,-1,-1,-1,9,-1,11,-1,-1,-1],"loss_changes":[1.01096027E3,2.1568927E2,2.9099243E1,4.3748886E1,0E0,0E0,0E0,3.0386356E1,0E0,3.7002563E-2,0E0,0E0,0E0],"parents":[2147483647,0,0,1,1,2,2,3,3,7,7,9,9],"right_children":[2,4,6,8,-1,-1,-1,10,-1,12,-1,-1,-1],"split_conditions":[1E1,9E0,4.7203298E0,3E0,3.4474637E-2,1.7345391E-1,3.658732E-1,3.5723896E0,7.0264162E-3,3.5120087E0,4.580707E-4,-3.8326879E-3,-2.9335085E-3],"split_indices":[1,1,0,1,0,0,0,0,0,0,0,0,0],"split_type":[0,0,0,0,0,0,0,0,0,0,0,0,0],"sum_hessian":[1.898402E4,1.8964123E4,1.989624E1,1.8535066E4,4.2905823E2,1.0346045E0,1.8861637E1,1.7096027E4,1.4390372E3,1.0013057E4,7.082972E3,9.879792E3,1.3326396E2],"tree_param":{"num_deleted":"0","num_feature":"3","num_nodes":"13","size_leaf_vector":"1"}},{"base_weights":[-1.5733867E-3,-8.722579E-3,5.0421157E0,-2.3866007E-2,3.1119777E-2,1.2583482E-1,2.8217947E-1,-3.8222935E-2,7.2578746E-3,-3.7981595E-3,7.5279846E-4],"categories":[],"categories_nodes":[],"categories_segments":[],"categories_sizes":[],"default_left":[0,0,0,0,0,0,0,0,0,0,0],"id":2,"left_children":[1,3,5,7,-1,-1,-1,9,-1,-1,-1],"loss_changes":[6.8497235E2,1.813084E2,2.856018E1,4.496086E1,0E0,0E0,0E0,3.4336918E1,0E0,0E0,0E0],"parents":[2147483647,0,0,1,1,2,2,3,3,7,7],"right_children":[2,4,6,8,-1,-1,-1,10,-1,-1,-1],"split_conditions":[1E1,9E0,4.8877606E0,3E0,3.1119777E-2,1.2583482E-1,2.8217947E-1,3.5723896E0,7.2578746E-3,-3.7981595E-3,7.5279846E-4],"split_indices":[1,1,0,1,0,0,0,0,0,0,0],"split_type":[0,0,0,0,0,0,0,0,0,0,0],"sum_hessian":[1.8994025E4,1.8968137E4,2.5888172E1,1.852461E4,4.435284E2,5.78046E0,2.0107712E1,1.7075023E4,1.4495858E3,9.994772E3,7.08025E3],"tree_param":{"num_deleted":"0","num_feature":"3","num_nodes":"11","size_leaf_vector":"1"}},{"base_weights":[1.2584785E-3,-5.4624663E-3,1.9891553E-1,-2.0442246E-2,2.9913649E-2,-1.5667068E-3,1.0624551E-1,1.4445769E-2,1.8727843E-3],"categories":[],"categories_nodes":[],"categories_segments":[],"categories_sizes":[],"default_left":[0,0,0,0,0,0,0,0,0],"id":3,"left_children":[1,3,-1,5,-1,-1,7,-1,-1],"loss_changes":[5.0770764E2,1.7150476E2,0E0,2.5536781E1,0E0,0E0,7.572008E1,0E0,0E0],"parents":[2147483647,0,0,1,1,3,3,6,6],"right_children":[2,4,-1,6,-1,-1,8,-1,-1],"split_conditions":[1E1,9E0,1.9891553E-1,3E0,2.9913649E-2,-1.5667068E-3,7E0,1.4445769E-2,1.8727843E-3],"split_indices":[1,1,0,1,0,0,2,0,0],"split_type":[0,0,0,0,0,0,0,0,0],"sum_hessian":[1.8992436E4,1.896139E4,3.104482E1,1.8503258E4,4.5813348E2,1.7039086E4,1.4641707E3,4.1467447E2,1.0494961E3],"tree_param":{"num_deleted":"0","num_feature":"3","num_nodes":"9","size_leaf_vector":"1"}},{"base_weights":[-1.2100618E-3,-6.7360443E-4,7.885455E-4],"categories":[],"categories_nodes":[],"categories_segments":[],"categories_sizes":[],"default_left":[0,0,0],"id":4,"left_children":[1,-1,-1],"loss_changes":[3.951102E0,0E0,0E0],"parents":[2147483647,0,0],"right_children":[2,-1,-1],"split_conditions":[3.5723896E0,-6.7360443E-4,7.885455E-4],"split_indices":[0,0,0],"split_type":[0,0,0],"sum_hessian":[1.897349E4,1.1017741E4,7.955748E3],"tree_param":{"num_deleted":"0","num_feature":"3","num_nodes":"3","size_leaf_vector":"1"}},{"base_weights":[5.0083017E-3,-4.0182393E-4,1.1507663E-3],"categories":[],"categories_nodes":[],"categories_segments":[],"categories_sizes":[],"default_left":[0,0,0],"id":5,"left_children":[1,-1,-1],"loss_changes":[4.4576097E0,0E0,0E0],"parents":[2147483647,0,0],"right_children":[2,-1,-1],"split_conditions":[3.5723896E0,-4.0182393E-4,1.1507663E-3],"split_indices":[0,0,0],"split_type":[0,0,0],"sum_hessian":[1.8975031E4,1.1003992E4,7.971039E3],"tree_param":{"num_deleted":"0","num_feature":"3","num_nodes":"3","size_leaf_vector":"1"}},{"base_weights":[-2.4912518E-3,-8.720596E-3,1.6178586E-1,-2.3897598E-2,2.9260809E-2,-1.8089584E-3,1.18110806E-1,1.4032965E-2,2.048291E-3],"categories":[],"categories_nodes":[],"categories_segments":[],"categories_sizes":[],"default_left":[0,0,0,0,0,0,0,0,0],"id":6,"left_children":[1,3,-1,5,-1,-1,7,-1,-1],"loss_changes":[3.829443E2,1.7080727E2,0E0,3.222808E1,0E0,0E0,7.464168E1,0E0,0E0],"parents":[2147483647,0,0,1,1,3,3,6,6],"right_children":[2,4,-1,6,-1,-1,8,-1,-1],"split_conditions":[1E1,9E0,1.6178586E-1,3E0,2.9260809E-2,-1.8089584E-3,7E0,1.4032965E-2,2.048291E-3],"split_indices":[1,1,0,1,0,0,2,0,0],"split_type":[0,0,0,0,0,0,0,0,0],"sum_hessian":[1.8981633E4,1.8946184E4,3.5449482E1,1.8475047E4,4.7113727E2,1.7005107E4,1.4699381E3,4.200437E2,1.0498944E3],"tree_param":{"num_deleted":"0","num_feature":"3","num_nodes":"9","size_leaf_vector":"1"}},{"base_weights":[-7.698525E-5,-5.904097E-3,2.9403868E0,-1.7747233E-2,2.2341823E-2,7.336207E-2,1.5471068E-1,-2.9809346E-2,6.052342E-3,-2.9581247E-3,1.129195E-2,-6.9291965E-4,6.013681E-4],"categories":[],"categories_nodes":[],"categories_segments":[],"categories_sizes":[],"default_left":[0,0,0,0,0,0,0,0,0,0,0,0,0],"id":7,"left_children":[1,3,5,7,-1,-1,-1,9,-1,-1,11,-1,-1],"loss_changes":[3.2492868E2,1.01486626E2,1.1545715E1,3.088246E1,0E0,0E0,0E0,2.0474789E1,0E0,0E0,1.3095438E-1,0E0,0E0],"parents":[2147483647,0,0,1,1,2,2,3,3,7,7,10,10],"right_children":[2,4,6,8,-1,-1,-1,10,-1,-1,12,-1,-1],"split_conditions":[1E1,9E0,4.7203298E0,3E0,2.2341823E-2,7.336207E-2,1.5471068E-1,3.5723896E0,6.052342E-3,-2.9581247E-3,3.6614268E0,-6.9291965E-4,6.013681E-4],"split_indices":[1,1,0,1,0,0,0,0,0,0,0,0,0],"split_type":[0,0,0,0,0,0,0,0,0,0,0,0,0],"sum_hessian":[1.8961502E4,1.8924996E4,3.6505642E1,1.8443498E4,4.8149838E2,1.5818628E0,3.492378E1,1.696952E4,1.4739772E3,9.899322E3,7.070198E3,2.0035652E2,6.869842E3],"tree_param":{"num_deleted":"0","num_feature":"3","num_nodes":"13","size_leaf_vector":"1"}},{"base_weights":[6.4610207E-4,-5.234339E-3,1.24560535E-1,-1.827018E-2,2.4080679E-2,-1.5203062E-3,1.20092906E-1,1.1583584E-2,2.2421696E-3],"categories":[],"categories_nodes":[],"categories_segments":[],"categories_sizes":[],"default_left":[0,0,0,0,0,0,0,0,0],"id":8,"left_children":[1,3,-1,5,-1,-1,7,-1,-1],"loss_changes":[2.7801535E2,1.20199745E2,0E0,3.0976429E1,0E0,0E0,5.4989693E1,0E0,0E0],"parents":[2147483647,0,0,1,1,3,3,6,6],"right_children":[2,4,-1,6,-1,-1,8,-1,-1],"split_conditions":[1E1,9E0,1.24560535E-1,3E0,2.4080679E-2,-1.5203062E-3,7E0,1.1583584E-2,2.2421696E-3],"split_indices":[1,1,0,1,0,0,2,0,0],"split_type":[0,0,0,0,0,0,0,0,0],"sum_hessian":[1.8980943E4,1.893723E4,4.3714558E1,1.8444326E4,4.9290283E2,1.695773E4,1.4865967E3,4.310256E2,1.055571E3],"tree_param":{"num_deleted":"0","num_feature":"3","num_nodes":"9","size_leaf_vector":"1"}},{"base_weights":[1.9197298E-3,-3.6016242E-3,2.261206E0,-1.6050233E-2,2.2410437E-2,5.644011E-2,2.5588446E0,-2.6860423E-2,5.334747E-3,9.2191175E-2,1.3666704E-1,-5.419836E-2,6.58234E-4,-2.739728E-3,-1.2218724E-3],"categories":[],"categories_nodes":[],"categories_segments":[],"categories_sizes":[],"default_left":[0,0,0,0,0,0,0,0,0,0,0,0,0,0,0],"id":9,"left_children":[1,3,5,7,-1,-1,9,11,-1,-1,-1,13,-1,-1,-1],"loss_changes":[2.367906E2,1.0651282E2,1.7088043E1,2.4456985E1,0E0,0E0,5.1148987E-1,1.8535002E1,0E0,0E0,0E0,1.7723656E-1,0E0,0E0,0E0],"parents":[2147483647,0,0,1,1,2,2,3,3,6,6,7,7,11,11],"right_children":[2,4,6,8,-1,-1,10,12,-1,-1,-1,14,-1,-1,-1],"split_conditions":[1E1,9E0,4.86683E0,3E0,2.2410437E-2,5.644011E-2,4.967157E0,3.6614268E0,5.334747E-3,9.2191175E-2,1.3666704E-1,3.5723896E0,6.58234E-4,-2.739728E-3,-1.2218724E-3],"split_indices":[1,1,0,1,0,0,0,0,0,0,0,0,0,0,0],"split_type":[0,0,0,0,0,0,0,0,0,0,0,0,0,0,0],"sum_hessian":[1.8980596E4,1.8935318E4,4.527665E1,1.8428527E4,5.067917E2,8.279703E0,3.699695E1,1.693761E4,1.4909174E3,8.502382E0,2.8494564E1,1.006361E4,6.873999E3,9.865142E3,1.9846881E2],"tree_param":{"num_deleted":"0","num_feature":"3","num_nodes":"15","size_leaf_vector":"1"}},{"base_weights":[1.42557E-3,-7.654315E-6,1.7722652E-4],"categories":[],"categories_nodes":[],"categories_segments":[],"categories_sizes":[],"default_left":[0,0,0],"id":10,"left_children":[1,-1,-1],"loss_changes":[6.3489795E-2,0E0,0E0],"parents":[2147483647,0,0],"right_children":[2,-1,-1],"split_conditions":[3.5424128E0,-7.654315E-6,1.7722652E-4],"split_indices":[0,0,0],"split_type":[0,0,0],"sum_hessian":[1.8978719E4,1.0876497E4,8.102221E3],"tree_param":{"num_deleted":"0","num_feature":"3","num_nodes":"3","size_leaf_vector":"1"}},{"base_weights":[7.411716E-4,-4.147326E-3,9.388553E-2,-1.5223389E-2,1.9438026E-2,-2.5576007E-2,1.0933492E-1,-1.2851681E-3,-5.3341715E-5,9.338429E-3,2.093973E-3],"categories":[],"categories_nodes":[],"categories_segments":[],"categories_sizes":[],"default_left":[0,0,0,0,0,0,0,0,0,0,0],"id":11,"left_children":[1,3,-1,5,-1,7,9,-1,-1,-1,-1],"loss_changes":[1.7419574E2,8.241116E1,0E0,2.3752104E1,0E0,5.3050995E-2,4.4145638E1,0E0,0E0,0E0,0E0],"parents":[2147483647,0,0,1,1,3,3,5,5,6,6],"right_children":[2,4,-1,6,-1,8,10,-1,-1,-1,-1],"split_conditions":[1E1,9E0,9.388553E-2,4E0,1.9438026E-2,3E0,7E0,-1.2851681E-3,-5.3341715E-5,9.338429E-3,2.093973E-3],"split_indices":[1,1,0,1,0,1,2,0,0,0,0],"split_type":[0,0,0,0,0,0,0,0,0,0,0],"sum_hessian":[1.8982902E4,1.8934586E4,4.8316643E1,1.8416389E4,5.181963E2,1.700391E4,1.4124789E3,1.6915963E4,8.7947624E1,3.4801532E2,1.0644636E3],"tree_param":{"num_deleted":"0","num_feature":"3","num_nodes":"11","size_leaf_vector":"1"}},{"base_weights":[-4.9389587E-3,-9.925846E-3,9.1774546E-2,-2.0853449E-2,1.8502772E-2,-1.5059722E-3,8.3325095E-2,8.730049E-3,1.3301413E-3],"categories":[],"categories_nodes":[],"categories_segments":[],"categories_sizes":[],"default_left":[0,0,0,0,0,0,0,0,0],"id":12,"left_children":[1,3,-1,5,-1,-1,7,-1,-1],"loss_changes":[1.7413716E2,7.857323E1,0E0,1.7757652E1,0E0,0E0,4.7600067E1,0E0,0E0],"parents":[2147483647,0,0,1,1,3,3,6,6],"right_children":[2,4,-1,6,-1,-1,8,-1,-1],"split_conditions":[1E1,9E0,9.1774546E-2,3E0,1.8502772E-2,-1.5059722E-3,7E0,8.730049E-3,1.3301413E-3],"split_indices":[1,1,0,1,0,0,2,0,0],"split_type":[0,0,0,0,0,0,0,0,0],"sum_hessian":[1.8970305E4,1.8920033E4,5.027172E1,1.8392055E4,5.2797845E2,1.6890469E4,1.501585E3,4.3793826E2,1.0636466E3],"tree_param":{"num_deleted":"0","num_feature":"3","num_nodes":"9","size_leaf_vector":"1"}},{"base_weights":[3.209468E-3,-1.255399E-2,4.912902E-1,-2.2413297E-2,4.870351E-3,1.9449662E-2,1.5075045E0,-5.203571E-2,1.8834515E-2,4.7412444E-2,8.68115E-2,-2.6148146E-3,-1.6324306E-3,8.719797E-5,9.580494E-4],"categories":[],"categories_nodes":[],"categories_segments":[],"categories_sizes":[],"default_left":[0,0,0,0,0,0,0,0,0,0,0,0,0,0,0],"id":13,"left_children":[1,3,5,7,-1,-1,9,11,13,-1,-1,-1,-1,-1,-1],"loss_changes":[1.4586414E2,1.9913063E1,6.1074295E1,2.0595703E1,0E0,0E0,1.0015129E1,4.7855377E-2,3.9279938E-2,0E0,0E0,0E0,0E0,0E0,0E0],"parents":[2147483647,0,0,1,1,2,2,3,3,6,6,7,7,8,8],"right_children":[2,4,6,8,-1,-1,10,12,14,-1,-1,-1,-1,-1,-1],"split_conditions":[9E0,3E0,1E1,3.5723896E0,4.870351E-3,1.9449662E-2,4.86683E0,3.5120087E0,3.632454E0,4.7412444E-2,8.68115E-2,-2.6148146E-3,-1.6324306E-3,8.719797E-5,9.580494E-4],"split_indices":[1,1,1,0,0,0,0,0,0,0,0,0,0,0,0],"split_type":[0,0,0,0,0,0,0,0,0,0,0,0,0,0,0],"sum_hessian":[1.8956756E4,1.8364611E4,5.9214435E2,1.6854227E4,1.510385E3,5.3924426E2,5.290011E1,9.809327E3,7.0449004E3,9.171761E0,4.3728348E1,9.677554E3,1.317729E2,1.321718E2,6.9127285E3],"tree_param":{"num_deleted":"0","num_feature":"3","num_nodes":"15","size_leaf_vector":"1"}},{"base_weights":[-1.0429887E-3,-2.4273735E-4,2.0591282E-4],"categories":[],"categories_nodes":[],"categories_segments":[],"categories_sizes":[],"default_left":[0,0,0],"id":14,"left_children":[1,-1,-1],"loss_changes":[3.7332183E-1,0E0,0E0],"parents":[2147483647,0,0],"right_children":[2,-1,-1],"split_conditions":[3.5723896E0,-2.4273735E-4,2.0591282E-4],"split_indices":[0,0,0],"split_type":[0,0,0],"sum_hessian":[1.8973936E4,1.0913786E4,8.0601494E3],"tree_param":{"num_deleted":"0","num_feature":"3","num_nodes":"3","size_leaf_vector":"1"}},{"base_weights":[-4.7202054E-3,-1.9667873E-2,4.4988877E-1,-1.4528855E-3,8.446206E-2,1.745493E-2,7.200604E-2,1.0755523E-2,1.3851089E-3],"categories":[],"categories_nodes":[],"categories_segments":[],"categories_sizes":[],"default_left":[0,0,0,0,0,0,0,0,0],"id":15,"left_children":[1,3,5,-1,7,-1,-1,-1,-1],"loss_changes":[1.2888345E2,1.7956493E1,5.975688E1,0E0,5.2832153E1,0E0,0E0,0E0,0E0],"parents":[2147483647,0,0,1,1,2,2,4,4],"right_children":[2,4,6,-1,8,-1,-1,-1,-1],"split_conditions":[9E0,3E0,1E1,-1.4528855E-3,7E0,1.745493E-2,7.200604E-2,1.0755523E-2,1.3851089E-3],"split_indices":[1,1,1,0,2,0,0,0,0],"split_type":[0,0,0,0,0,0,0,0,0],"sum_hessian":[1.8964135E4,1.8361365E4,6.0277E2,1.6843258E4,1.5181067E3,5.4831287E2,5.4457146E1,4.449222E2,1.0731844E3],"tree_param":{"num_deleted":"0","num_feature":"3","num_nodes":"9","size_leaf_vector":"1"}},{"base_weights":[-2.8207962E-4,-4.498526E-3,1.4677988E0,-1.4270086E-2,1.5842587E-2,3.700153E-2,8.2544096E-2,-2.0982068E-2,5.9736E-2,-4.5540128E-2,7.3885766E-4,1.7155275E-3,3.065883E-3,-2.3023167E-3,-1.0331877E-3],"categories":[],"categories_nodes":[],"categories_segments":[],"categories_sizes":[],"default_left":[0,0,0,0,0,0,0,0,0,0,0,0,0,0,0],"id":16,"left_children":[1,3,5,7,-1,-1,-1,9,11,13,-1,-1,-1,-1,-1],"loss_changes":[1.1736875E2,5.937238E1,6.0134583E0,9.115916E0,0E0,0E0,0E0,1.4775427E1,5.9267044E-2,1.2465286E-1,0E0,0E0,0E0,0E0,0E0],"parents":[2147483647,0,0,1,1,2,2,3,3,7,7,8,8,9,9],"right_children":[2,4,6,8,-1,-1,-1,10,12,14,-1,-1,-1,-1,-1],"split_conditions":[1E1,9E0,4.8877606E0,3E0,1.5842587E-2,3.700153E-2,8.2544096E-2,3.6614268E0,4E0,3.5723896E0,7.3885766E-4,1.7155275E-3,3.065883E-3,-2.3023167E-3,-1.0331877E-3],"split_indices":[1,1,0,1,0,0,0,0,1,0,0,0,0,0,0],"split_type":[0,0,0,0,0,0,0,0,0,0,0,0,0,0,0],"sum_hessian":[1.8958701E4,1.89054E4,5.330089E1,1.834842E4,5.569798E2,1.1727056E1,4.1573837E1,1.6823344E4,1.5250767E3,9.973591E3,6.849753E3,9.0644394E1,1.4344323E3,9.773853E3,1.997383E2],"tree_param":{"num_deleted":"0","num_feature":"3","num_nodes":"15","size_leaf_vector":"1"}},{"base_weights":[-1.4805843E-3],"categories":[],"categories_nodes":[],"categories_segments":[],"categories_sizes":[],"default_left":[0],"id":17,"left_children":[-1],"loss_changes":[0E0],"parents":[2147483647],"right_children":[-1],"split_conditions":[-7.4029216E-5],"split_indices":[0],"split_type":[0],"sum_hessian":[1.8964867E4],"tree_param":{"num_deleted":"0","num_feature":"3","num_nodes":"1","size_leaf_vector":"1"}},{"base_weights":[4.2914054E-3,-4.194577E-5,1.42371E0,-1.9862076E-2,1.5896787E-1,3.5591703E-2,8.316386E-2,-4.2073157E-2,1.0807217E-2,1.03722714E-1,1.5364607E-2,-2.1134166E-3,-1.3715964E-3,-2.4127027E-4,5.630193E-4,3.9954786E-3,5.257509E-3],"categories":[],"categories_nodes":[],"categories_segments":[],"categories_sizes":[],"default_left":[0,0,0,0,0,0,0,0,0,0,0,0,0,0,0,0,0],"id":18,"left_children":[1,3,5,7,9,-1,-1,11,13,15,-1,-1,-1,-1,-1,-1,-1],"loss_changes":[1.16588524E2,5.956263E1,1.1974121E1,1.1447687E1,1.713203E1,0E0,0E0,2.6691437E-2,5.0062776E-2,4.3525696E-2,0E0,0E0,0E0,0E0,0E0,0E0,0E0],"parents":[2147483647,0,0,1,1,2,2,3,3,4,4,7,7,8,8,9,9],"right_children":[2,4,6,8,10,-1,-1,12,14,16,-1,-1,-1,-1,-1,-1,-1],"split_conditions":[1E1,3E0,4.8877606E0,3.5723896E0,9E0,3.5591703E-2,8.316386E-2,3.5120087E0,3.6614268E0,4E0,1.5364607E-2,-2.1134166E-3,-1.3715964E-3,-2.4127027E-4,5.630193E-4,3.9954786E-3,5.257509E-3],"split_indices":[1,1,0,0,1,0,0,0,0,1,0,0,0,0,0,0,0],"split_type":[0,0,0,0,0,0,0,0,0,0,0,0,0,0,0,0,0],"sum_hessian":[1.895389E4,1.88972E4,5.6691395E1,1.6803557E4,2.0936414E3,1.1607739E1,4.5083652E1,9.745427E3,7.0581304E3,1.5267021E3,5.669393E2,9.615364E3,1.3006238E2,1.9857004E2,6.8595605E3,8.956428E1,1.4371378E3],"tree_param":{"num_deleted":"0","num_feature":"3","num_nodes":"17","size_leaf_vector":"1"}},{"base_weights":[3.59738E-3,-8.647948E-3,3.57759E-1,-1.6892131E-2,8.72634E-2,1.36944875E-2,5.909598E-2,-8.5553125E-4,1.1652769E-3,8.727777E-3,1.7592817E-3],"categories":[],"categories_nodes":[],"categories_segments":[],"categories_sizes":[],"default_left":[0,0,0,0,0,0,0,0,0,0,0],"id":19,"left_children":[1,3,5,7,9,-1,-1,-1,-1,-1,-1],"loss_changes":[8.22124E1,1.4490116E1,4.3467453E1,1.4860249E-1,4.1718838E1,0E0,0E0,0E0,0E0,0E0,0E0],"parents":[2147483647,0,0,1,1,2,2,3,3,4,4],"right_children":[2,4,6,8,10,-1,-1,-1,-1,-1,-1],"split_conditions":[9E0,4E0,1E1,3E0,7E0,1.36944875E-2,5.909598E-2,-8.5553125E-4,1.1652769E-3,8.727777E-3,1.7592817E-3],"split_indices":[1,1,1,1,2,0,0,0,0,0,0],"split_type":[0,0,0,0,0,0,0,0,0,0,0],"sum_hessian":[1.8955105E4,1.8322568E4,6.3253705E2,1.6873049E4,1.4495208E3,5.753227E2,5.7214367E1,1.6782402E4,9.0646034E1,3.639861E2,1.0855347E3],"tree_param":{"num_deleted":"0","num_feature":"3","num_nodes":"11","size_leaf_vector":"1"}},{"base_weights":[-3.3364235E-4,-4.02092E-3,5.6941956E-2,-1.2181136E-2,1.2624191E-2,-9.909541E-4,7.096388E-2,6.007567E-3,1.2786201E-3],"categories":[],"categories_nodes":[],"categories_segments":[],"categories_sizes":[],"default_left":[0,0,0,0,0,0,0,0,0],"id":20,"left_children":[1,3,-1,5,-1,-1,7,-1,-1],"loss_changes":[7.964658E1,3.9563705E1,0E0,1.1634644E1,0E0,0E0,3.036402E1,0E0,0E0],"parents":[2147483647,0,0,1,1,3,3,6,6],"right_children":[2,4,-1,6,-1,-1,8,-1,-1],"split_conditions":[1E1,9E0,5.6941956E-2,3E0,1.2624191E-2,-9.909541E-4,7E0,6.007567E-3,1.2786201E-3],"split_indices":[1,1,0,1,0,0,2,0,0],"split_type":[0,0,0,0,0,0,0,0,0],"sum_hessian":[1.8959367E4,1.889919E4,6.0176483E1,1.8317408E4,5.817814E2,1.6776986E4,1.5404219E3,4.5522232E2,1.0851995E3],"tree_param":{"num_deleted":"0","num_feature":"3","num_nodes":"9","size_leaf_vector":"1"}},{"base_weights":[-5.5553176E-4,-1.2173549E-2,3.2631087E-1,-1.9263886E-2,3.499778E-3,1.2559846E-2,1.055861E0,-4.2686127E-2,7.464944E-4,3.2676447E-2,1.3355776E0,-4.321226E-2,-6.9390604E-4,5.9190404E-2,8.562157E-2,-2.162976E-3,-1.7788437E-3],"categories":[],"categories_nodes":[],"categories_segments":[],"categories_sizes":[],"default_left":[0,0,0,0,0,0,0,0,0,0,0,0,0,0,0,0,0],"id":21,"left_children":[1,3,5,7,-1,-1,9,11,-1,-1,13,15,-1,-1,-1,-1,-1],"loss_changes":[7.197862E1,1.06650305E1,3.538565E1,1.3495914E1,0E0,0E0,9.707443E0,2.2703552E-1,0E0,0E0,4.2126465E-1,2.0389557E-3,0E0,0E0,0E0,0E0,0E0],"parents":[2147483647,0,0,1,1,2,2,3,3,6,6,7,7,10,10,11,11],"right_children":[2,4,6,8,-1,-1,10,12,-1,-1,14,16,-1,-1,-1,-1,-1],"split_conditions":[9E0,4E0,1E1,3.6614268E0,3.499778E-3,1.2559846E-2,4.943242E0,3E0,7.464944E-4,3.2676447E-2,5.0859456E0,3.632454E0,-6.9390604E-4,5.9190404E-2,8.562157E-2,-2.162976E-3,-1.7788437E-3],"split_indices":[1,1,1,0,0,0,0,1,0,0,0,0,0,0,0,0,0],"split_type":[0,0,0,0,0,0,0,0,0,0,0,0,0,0,0,0,0],"sum_hessian":[1.895197E4,1.83024E4,6.495709E2,1.684925E4,1.4531489E3,5.901535E2,5.9417446E1,9.999494E3,6.849757E3,1.7608349E1,4.1809097E1,9.908042E3,9.1452446E1,3.2757885E1,9.051215E0,9.842462E3,6.557959E1],"tree_param":{"num_deleted":"0","num_feature":"3","num_nodes":"17","size_leaf_vector":"1"}},{"base_weights":[-1.300367E-3],"categories":[],"categories_nodes":[],"categories_segments":[],"categories_sizes":[],"default_left":[0],"id":22,"left_children":[-1],"loss_changes":[0E0],"parents":[2147483647],"right_children":[-1],"split_conditions":[-6.501835E-5],"split_indices":[0],"split_type":[0],"sum_hessian":[1.8951486E4],"tree_param":{"num_deleted":"0","num_feature":"3","num_nodes":"1","size_leaf_vector":"1"}},{"base_weights":[-3.5172615E-3,-6.6198893E-3,4.8161827E-2,-1.8885879E-2,9.388248E-2,-9.586811E-4,1.6647263E-3,2.3915416E-2,3.74983E-2,1.874915E-3,9.298816E-3],"categories":[],"categories_nodes":[],"categories_segments":[],"categories_sizes":[],"default_left":[0,0,0,0,0,0,0,0,0,0,0],"id":23,"left_children":[1,3,-1,5,7,-1,-1,-1,9,-1,-1],"loss_changes":[5.6831196E1,2.3282831E1,0E0,2.5336313E-1,7.3917564E1,0E0,0E0,0E0,1.1297836E1,0E0,0E0],"parents":[2147483647,0,0,1,1,3,3,4,4,8,8],"right_children":[2,4,-1,6,8,-1,-1,-1,10,-1,-1],"split_conditions":[1E1,4E0,4.8161827E-2,3E0,7E0,-9.586811E-4,1.6647263E-3,2.3915416E-2,9E0,1.874915E-3,9.298816E-3],"split_indices":[1,1,0,1,2,0,0,0,1,0,0],"split_type":[0,0,0,0,0,0,0,0,0,0,0],"sum_hessian":[1.894391E4,1.8884299E4,5.961271E1,1.6830947E4,2.0533506E3,1.6739273E4,9.167458E1,3.6759457E2,1.685756E3,1.0877726E3,5.9798346E2],"tree_param":{"num_deleted":"0","num_feature":"3","num_nodes":"11","size_leaf_vector":"1"}},{"base_weights":[3.6650377E-3,-7.153203E-3,3.006883E-1,-6.198512E-4,4.905577E-2,1.209342E-2,4.339676E-2,7.338377E-3,9.164686E-4],"categories":[],"categories_nodes":[],"categories_segments":[],"categories_sizes":[],"default_left":[0,0,0,0,0,0,0,0,0],"id":24,"left_children":[1,3,5,-1,7,-1,-1,-1,-1],"loss_changes":[6.090256E1,5.390912E0,2.2013672E1,0E0,3.46925E1,0E0,0E0,0E0,0E0],"parents":[2147483647,0,0,1,1,2,2,4,4],"right_children":[2,4,6,-1,8,-1,-1,-1,-1],"split_conditions":[9E0,3E0,1E1,-6.198512E-4,7E0,1.209342E-2,4.339676E-2,7.338377E-3,9.164686E-4],"split_indices":[1,1,1,0,2,0,0,0,0],"split_type":[0,0,0,0,0,0,0,0,0],"sum_hessian":[1.8951791E4,1.8286725E4,6.6506683E2,1.6727014E4,1.5597095E3,6.038752E2,6.1191635E1,4.679194E2,1.09179E3],"tree_param":{"num_deleted":"0","num_feature":"3","num_nodes":"9","size_leaf_vector":"1"}},{"base_weights":[3.5941554E-3,6.352895E-4,4.4720106E-2,-5.6252335E-3,9.440002E-3,-5.0726265E-4,4.270818E-2,4.5793704E-3,8.140732E-4],"categories":[],"categories_nodes":[],"categories_segments":[],"categories_sizes":[],"default_left":[0,0,0,0,0,0,0,0,0],"id":25,"left_children":[1,3,-1,5,-1,-1,7,-1,-1],"loss_changes":[4.994164E1,2.2249018E1,0E0,3.9937859E0,0E0,0E0,2.0595894E1,0E0,0E0],"parents":[2147483647,0,0,1,1,3,3,6,6],"right_children":[2,4,-1,6,-1,-1,8,-1,-1],"split_conditions":[1E1,9E0,4.4720106E-2,3E0,9.440002E-3,-5.0726265E-4,7E0,4.5793704E-3,8.140732E-4],"split_indices":[1,1,0,1,0,0,2,0,0],"split_type":[0,0,0,0,0,0,0,0,0],"sum_hessian":[1.8946783E4,1.8885057E4,6.1727E1,1.8277893E4,6.071628E2,1.6715492E4,1.5624006E3,4.718171E2,1.0905835E3],"tree_param":{"num_deleted":"0","num_feature":"3","num_nodes":"9","size_leaf_vector":"1"}},{"base_weights":[-2.5208767E-3,-1.1835099E-2,2.5069645E-1,-8.622023E-4,4.5704763E-2,1.0026806E-2,3.9652646E-2,5.9715337E-3,7.1151793E-4],"categories":[],"categories_nodes":[],"categories_segments":[],"categories_sizes":[],"default_left":[0,0,0,0,0,0,0,0,0],"id":26,"left_children":[1,3,5,-1,7,-1,-1,-1,-1],"loss_changes":[4.4652504E1,5.6839914E0,1.8114239E1,0E0,2.7002213E1,0E0,0E0,0E0,0E0],"parents":[2147483647,0,0,1,1,2,2,4,4],"right_children":[2,4,6,-1,8,-1,-1,-1,-1],"split_conditions":[9E0,3E0,1E1,-8.622023E-4,7E0,1.0026806E-2,3.9652646E-2,5.9715337E-3,7.1151793E-4],"split_indices":[1,1,1,0,2,0,0,0,0],"split_type":[0,0,0,0,0,0,0,0,0],"sum_hessian":[1.8930146E4,1.8259453E4,6.7069354E2,1.6691129E4,1.5683241E3,6.151688E2,5.552472E1,4.7287485E2,1.0954492E3],"tree_param":{"num_deleted":"0","num_feature":"3","num_nodes":"9","size_leaf_vector":"1"}},{"base_weights":[-1.3870617E-3,-3.9848895E-3,8.1133854E-1,-9.943008E-3,8.575203E-3,2.0183843E-2,9.5108366E-1,-1.4236688E-2,3.5634745E-2,3.8170893E-2,5.3426635E-2,-1.8242026E-3,5.349514E-4,8.606542E-4,1.8397439E-3],"categories":[],"categories_nodes":[],"categories_segments":[],"categories_sizes":[],"default_left":[0,0,0,0,0,0,0,0,0,0,0,0,0,0,0],"id":27,"left_children":[1,3,5,7,-1,-1,9,11,13,-1,-1,-1,-1,-1,-1],"loss_changes":[4.0001263E1,1.9747751E1,4.89909E0,3.575095E0,0E0,0E0,2.9453278E-1,1.1131669E1,3.298211E-2,0E0,0E0,0E0,0E0,0E0,0E0],"parents":[2147483647,0,0,1,1,2,2,3,3,6,6,7,7,8,8],"right_children":[2,4,6,8,-1,-1,10,12,14,-1,-1,-1,-1,-1,-1],"split_conditions":[1E1,9E0,4.86683E0,3E0,8.575203E-3,2.0183843E-2,5.0229316E0,3.5723896E0,4E0,3.8170893E-2,5.3426635E-2,-1.8242026E-3,5.349514E-4,8.606542E-4,1.8397439E-3],"split_indices":[1,1,0,1,0,0,0,0,1,0,0,0,0,0,0],"split_type":[0,0,0,0,0,0,0,0,0,0,0,0,0,0,0],"sum_hessian":[1.8943549E4,1.8884182E4,5.9367043E1,1.8265E4,6.1918146E2,9.994573E0,4.9372467E1,1.6693104E4,1.5718961E3,2.189214E1,2.7480328E1,9.661922E3,7.0311826E3,9.40663E1,1.4778298E3],"tree_param":{"num_deleted":"0","num_feature":"3","num_nodes":"15","size_leaf_vector":"1"}},{"base_weights":[-4.7974875E-3,-7.303833E-3,7.725668E-1,-1.2669623E-2,7.461626E-3,3.8263148E-1,5.7784732E-2,-1.6416486E-2,2.7022682E-2,1.9131575E-2,3.1852268E-2,-1.9094696E-3,2.651549E-4,1.0143972E-3,1.3715322E-3],"categories":[],"categories_nodes":[],"categories_segments":[],"categories_sizes":[],"default_left":[0,0,0,0,0,0,0,0,0,0,0,0,0,0,0],"id":28,"left_children":[1,3,5,7,-1,9,-1,11,13,-1,-1,-1,-1,-1,-1],"loss_changes":[3.6914555E1,1.5863213E1,8.971317E0,2.7159386E0,0E0,7.6999426E-1,0E0,1.038553E1,3.7716627E-3,0E0,0E0,0E0,0E0,0E0,0E0],"parents":[2147483647,0,0,1,1,2,2,3,3,5,5,7,7,8,8],"right_children":[2,4,6,8,-1,10,-1,12,14,-1,-1,-1,-1,-1,-1],"split_conditions":[1E1,9E0,5.006612E0,3E0,7.461626E-3,4.934803E0,5.7784732E-2,3.5723896E0,4E0,1.9131575E-2,3.1852268E-2,-1.9094696E-3,2.651549E-4,1.0143972E-3,1.3715322E-3],"split_indices":[1,1,0,1,0,0,0,0,1,0,0,0,0,0,0],"split_type":[0,0,0,0,0,0,0,0,0,0,0,0,0,0,0],"sum_hessian":[1.8942736E4,1.8882846E4,5.9890682E1,1.8257916E4,6.2493005E2,3.014216E1,2.9748524E1,1.6683607E4,1.5743081E3,1.6900795E1,1.32413645E1,9.650296E3,7.033312E3,9.2815506E1,1.4814926E3],"tree_param":{"num_deleted":"0","num_feature":"3","num_nodes":"15","size_leaf_vector":"1"}},{"base_weights":[-3.6610826E-3,-6.096517E-3,7.390028E-1,-1.6566915E-2,7.682766E-2,1.8322658E-2,4.462413E-2,-3.6642294E-2,6.28299E-4,2.3669607E-3,7.299915E-3,-1.8415725E-3,-8.2679885E-4],"categories":[],"categories_nodes":[],"categories_segments":[],"categories_sizes":[],"default_left":[0,0,0,0,0,0,0,0,0,0,0,0,0],"id":29,"left_children":[1,3,5,7,9,-1,-1,11,-1,-1,-1,-1,-1],"loss_changes":[3.4245243E1,1.6385263E1,4.6179924E0,9.799953E0,4.308548E0,0E0,0E0,3.711891E-2,0E0,0E0,0E0,0E0,0E0],"parents":[2147483647,0,0,1,1,2,2,3,3,4,4,7,7],"right_children":[2,4,6,8,10,-1,-1,12,-1,-1,-1,-1,-1],"split_conditions":[1E1,4E0,4.8877606E0,3.6614268E0,9E0,1.8322658E-2,4.462413E-2,3E0,6.28299E-4,2.3669607E-3,7.299915E-3,-1.8415725E-3,-8.2679885E-4],"split_indices":[1,1,0,0,1,0,0,1,0,0,0,0,0],"split_type":[0,0,0,0,0,0,0,0,0,0,0,0,0],"sum_hessian":[1.8930037E4,1.886915E4,6.0886246E1,1.6754455E4,2.1146963E3,1.367035E1,4.7215897E1,9.919028E3,6.835427E3,1.4838105E3,6.308857E2,9.825758E3,9.327009E1],"tree_param":{"num_deleted":"0","num_feature":"3","num_nodes":"13","size_leaf_vector":"1"}},{"base_weights":[4.0592696E-3],"categories":[],"categories_nodes":[],"categories_segments":[],"categories_sizes":[],"default_left":[0],"id":30,"left_children":[-1],"loss_changes":[0E0],"parents":[2147483647],"right_children":[-1],"split_conditions":[2.0296348E-4],"split_indices":[0],"split_type":[0],"sum_hessian":[1.8923184E4],"tree_param":{"num_deleted":"0","num_feature":"3","num_nodes":"1","size_leaf_vector":"1"}},{"base_weights":[-7.231456E-3],"categories":[],"categories_nodes":[],"categories_segments":[],"categories_sizes":[],"default_left":[0],"id":31,"left_children":[-1],"loss_changes":[0E0],"parents":[2147483647],"right_children":[-1],"split_conditions":[-3.615728E-4],"split_indices":[0],"split_type":[0],"sum_hessian":[1.8927354E4],"tree_param":{"num_deleted":"0","num_feature":"3","num_nodes":"1","size_leaf_vector":"1"}},{"base_weights":[-3.4707387E-3,-1.1199619E-2,1.9882625E-1,-1.5344799E-2,1.7773239E-3,7.7687106E-3,6.5595526E-1,-1.891763E-3,5.05042E-4,2.0283237E-2,8.291423E-1,3.6659416E-2,5.567048E-2],"categories":[],"categories_nodes":[],"categories_segments":[],"categories_sizes":[],"default_left":[0,0,0,0,0,0,0,0,0,0,0,0,0],"id":32,"left_children":[1,3,5,7,-1,-1,9,-1,-1,-1,11,-1,-1],"loss_changes":[2.9575596E1,3.5309353E0,1.3724857E1,1.145621E1,0E0,0E0,4.699375E0,0E0,0E0,0E0,4.9624252E-1,0E0,0E0],"parents":[2147483647,0,0,1,1,2,2,3,3,6,6,10,10],"right_children":[2,4,6,8,-1,-1,10,-1,-1,-1,12,-1,-1],"split_conditions":[9E0,4E0,1E1,3.5723896E0,1.7773239E-3,7.7687106E-3,4.86683E0,-1.891763E-3,5.05042E-4,2.0283237E-2,5.0859456E0,3.6659416E-2,5.567048E-2],"split_indices":[1,1,1,0,0,0,0,0,0,0,0,0,0],"split_type":[0,0,0,0,0,0,0,0,0,0,0,0,0],"sum_hessian":[1.8913496E4,1.8218396E4,6.951003E2,1.6735094E4,1.4833019E3,6.3598694E2,5.9113358E1,9.700425E3,7.034669E3,1.1991983E1,4.7121372E1,3.790562E1,9.215753E0],"tree_param":{"num_deleted":"0","num_feature":"3","num_nodes":"13","size_leaf_vector":"1"}},{"base_weights":[-1.5809714E-3,-3.633332E-3,6.0664487E-1,-1.3318569E-2,7.268555E-2,1.5075289E-2,7.011047E-1,-3.4481965E-2,7.895275E-4,2.5816956E-3,6.078118E-3,3.13873E-2,4.9484238E-2,-1.7362082E-3,-4.6728537E-4],"categories":[],"categories_nodes":[],"categories_segments":[],"categories_sizes":[],"default_left":[0,0,0,0,0,0,0,0,0,0,0,0,0,0,0],"id":33,"left_children":[1,3,5,7,9,-1,11,13,-1,-1,-1,-1,-1,-1,-1],"loss_changes":[2.3606916E1,1.3931969E1,3.5674152E0,1.0304149E1,2.1777163E0,0E0,6.4881325E-1,5.876541E-2,0E0,0E0,0E0,0E0,0E0,0E0,0E0],"parents":[2147483647,0,0,1,1,2,2,3,3,4,4,6,6,7,7],"right_children":[2,4,6,8,10,-1,12,14,-1,-1,-1,-1,-1,-1,-1],"split_conditions":[1E1,4E0,4.7203298E0,3.5723896E0,9E0,1.5075289E-2,5.0859456E0,3E0,7.895275E-4,2.5816956E-3,6.078118E-3,3.13873E-2,4.9484238E-2,-1.7362082E-3,-4.6728537E-4],"split_indices":[1,1,0,0,1,0,0,1,0,0,0,0,0,0,0],"split_type":[0,0,0,0,0,0,0,0,0,0,0,0,0,0,0],"sum_hessian":[1.8908506E4,1.8845906E4,6.2598457E1,1.6724332E4,2.121574E3,3.603448E0,5.899501E1,9.683726E3,7.0406074E3,1.4843212E3,6.3725275E2,4.956946E1,9.42555E0,9.591132E3,9.2593864E1],"tree_param":{"num_deleted":"0","num_feature":"3","num_nodes":"15","size_leaf_vector":"1"}},{"base_weights":[9.992984E-3,7.695143E-3,7.457206E-1,2.7365335E-3,7.3877126E-3,1.8835394E-2,8.92514E-1,-1.1673267E-3,2.3223583E-3,3.5009984E-2,4.957592E-2,-9.6745614E-4,1.1319959E-3],"categories":[],"categories_nodes":[],"categories_segments":[],"categories_sizes":[],"default_left":[0,0,0,0,0,0,0,0,0,0,0,0,0],"id":34,"left_children":[1,3,5,7,-1,-1,9,11,-1,-1,-1,-1,-1],"loss_changes":[3.1955069E1,1.3089034E1,4.2060623E0,3.1063704E0,0E0,0E0,1.9038773E-1,7.9105105E0,0E0,0E0,0E0,0E0,0E0],"parents":[2147483647,0,0,1,1,2,2,3,3,6,6,7,7],"right_children":[2,4,6,8,-1,-1,10,12,-1,-1,-1,-1,-1],"split_conditions":[1E1,9E0,4.86683E0,4E0,7.3877126E-3,1.8835394E-2,5.006612E0,3.6614268E0,2.3223583E-3,3.5009984E-2,4.957592E-2,-9.6745614E-4,1.1319959E-3],"split_indices":[1,1,0,1,0,0,0,0,0,0,0,0,0],"split_type":[0,0,0,0,0,0,0,0,0,0,0,0,0],"sum_hessian":[1.8904178E4,1.8846326E4,5.78508E1,1.8202896E4,6.434302E2,1.2387984E1,4.5462814E1,1.6711354E4,1.4915421E3,1.8193905E1,2.7268911E1,9.858643E3,6.8527114E3],"tree_param":{"num_deleted":"0","num_feature":"3","num_nodes":"13","size_leaf_vector":"1"}},{"base_weights":[1.8363739E-3],"categories":[],"categories_nodes":[],"categories_segments":[],"categories_sizes":[],"default_left":[0],"id":35,"left_children":[-1],"loss_changes":[0E0],"parents":[2147483647],"right_children":[-1],"split_conditions":[9.18187E-5],"split_indices":[0],"split_type":[0],"sum_hessian":[1.891457E4],"tree_param":{"num_deleted":"0","num_feature":"3","num_nodes":"1","size_leaf_vector":"1"}},{"base_weights":[-6.30385E-4],"categories":[],"categories_nodes":[],"categories_segments":[],"categories_sizes":[],"default_left":[0],"id":36,"left_children":[-1],"loss_changes":[0E0],"parents":[2147483647],"right_children":[-1],"split_conditions":[-3.1519252E-5],"split_indices":[0],"split_type":[0],"sum_hessian":[1.891666E4],"tree_param":{"num_deleted":"0","num_feature":"3","num_nodes":"1","size_leaf_vector":"1"}},{"base_weights":[-2.6596114E-3,-4.662816E-3,5.988201E-1,-1.4159033E-2,6.937932E-2,3.8467076E-1,4.225659E-2,-2.7170826E-2,1.8178386E-4,2.6198E-3,5.422725E-3,1.4853932E-2,2.5030686E-2,-1.3803884E-3,-5.8837875E-4],"categories":[],"categories_nodes":[],"categories_segments":[],"categories_sizes":[],"default_left":[0,0,0,0,0,0,0,0,0,0,0,0,0,0,0],"id":37,"left_children":[1,3,5,7,9,11,-1,13,-1,-1,-1,-1,-1,-1,-1],"loss_changes":[2.2785805E1,1.3252735E1,2.986063E0,3.868099E0,1.4162092E0,1.0034289E0,0E0,1.0824251E-1,0E0,0E0,0E0,0E0,0E0,0E0,0E0],"parents":[2147483647,0,0,1,1,2,2,3,3,4,4,5,5,7,7],"right_children":[2,4,6,8,10,12,-1,14,-1,-1,-1,-1,-1,-1,-1],"split_conditions":[1E1,4E0,5.0229316E0,3.5723896E0,9E0,4.7203298E0,4.225659E-2,3E0,1.8178386E-4,2.6198E-3,5.422725E-3,1.4853932E-2,2.5030686E-2,-1.3803884E-3,-5.8837875E-4],"split_indices":[1,1,0,0,1,0,0,1,0,0,0,0,0,0,0],"split_type":[0,0,0,0,0,0,0,0,0,0,0,0,0,0,0],"sum_hessian":[1.890784E4,1.8846066E4,6.177383E1,1.6704459E4,2.1416086E3,3.441464E1,2.7359194E1,9.648665E3,7.0557935E3,1.4944244E3,6.471841E2,2.503358E0,3.191128E1,9.555592E3,9.307261E1],"tree_param":{"num_deleted":"0","num_feature":"3","num_nodes":"15","size_leaf_vector":"1"}},{"base_weights":[-6.993823E-3,-8.733575E-3,2.661619E-2,-8.2725397E-4,4.927497E-2,1.3089756E-2,8.1824727E-4],"categories":[],"categories_nodes":[],"categories_segments":[],"categories_sizes":[],"default_left":[0,0,0,0,0,0,0],"id":38,"left_children":[1,3,-1,-1,5,-1,-1],"loss_changes":[1.7749016E1,8.543197E0,0E0,0E0,5.005171E1,0E0,0E0],"parents":[2147483647,0,0,1,1,4,4],"right_children":[2,4,-1,-1,6,-1,-1],"split_conditions":[1E1,3E0,2.661619E-2,-8.2725397E-4,7E0,1.3089756E-2,8.1824727E-4],"split_indices":[1,1,0,0,2,0,0],"split_type":[0,0,0,0,0,0,0],"sum_hessian":[1.8910607E4,1.8850781E4,5.9825798E1,1.6614207E4,2.2365752E3,4.8021393E2,1.7563613E3],"tree_param":{"num_deleted":"0","num_feature":"3","num_nodes":"7","size_leaf_vector":"1"}},{"base_weights":[-1.9979829E-3],"categories":[],"categories_nodes":[],"categories_segments":[],"categories_sizes":[],"default_left":[0],"id":39,"left_children":[-1],"loss_changes":[0E0],"parents":[2147483647],"right_children":[-1],"split_conditions":[-9.9899145E-5],"split_indices":[0],"split_type":[0],"sum_hessian":[1.890225E4],"tree_param":{"num_deleted":"0","num_feature":"3","num_nodes":"1","size_leaf_vector":"1"}},{"base_weights":[-6.3040736E-3],"categories":[],"categories_nodes":[],"categories_segments":[],"categories_sizes":[],"default_left":[0],"id":40,"left_children":[-1],"loss_changes":[0E0],"parents":[2147483647],"right_children":[-1],"split_conditions":[-3.1520368E-4],"split_indices":[0],"split_type":[0],"sum_hessian":[1.89083E4],"tree_param":{"num_deleted":"0","num_feature":"3","num_nodes":"1","size_leaf_vector":"1"}},{"base_weights":[1.8040087E-3,-1.9018799E-4,5.917268E-1,-8.587475E-3,6.4790525E-2,3.1227446E-1,4.5163766E-2,-1.2614701E-3,1.3437841E-2,2.2716927E-3,5.4595093E-3,1.4788414E-2,2.6304483E-2,6.127909E-4,6.7401276E-4],"categories":[],"categories_nodes":[],"categories_segments":[],"categories_sizes":[],"default_left":[0,0,0,0,0,0,0,0,0,0,0,0,0,0,0],"id":41,"left_children":[1,3,5,7,9,11,-1,-1,13,-1,-1,-1,-1,-1,-1],"loss_changes":[2.223758E1,1.0280791E1,5.2624645E0,6.11605E0,1.8480873E0,1.0872307E0,0E0,0E0,1.9478798E-4,0E0,0E0,0E0,0E0,0E0,0E0],"parents":[2147483647,0,0,1,1,2,2,3,3,4,4,5,5,8,8],"right_children":[2,4,6,8,10,12,-1,-1,14,-1,-1,-1,-1,-1,-1],"split_conditions":[1E1,4E0,5.0122786E0,3.5120087E0,9E0,4.86683E0,4.5163766E-2,-1.2614701E-3,3.632454E0,2.2716927E-3,5.4595093E-3,1.4788414E-2,2.6304483E-2,6.127909E-4,6.7401276E-4],"split_indices":[1,1,0,0,1,0,0,0,0,0,0,0,0,0,0],"split_type":[0,0,0,0,0,0,0,0,0,0,0,0,0,0,0],"sum_hessian":[1.8901627E4,1.8838943E4,6.268418E1,1.6683807E4,2.1551365E3,3.4099762E1,2.858442E1,9.503209E3,7.1805967E3,1.5022377E3,6.528989E2,1.2775177E1,2.1324585E1,2.5877795E2,6.921819E3],"tree_param":{"num_deleted":"0","num_feature":"3","num_nodes":"15","size_leaf_vector":"1"}},{"base_weights":[2.7824275E-3],"categories":[],"categories_nodes":[],"categories_segments":[],"categories_sizes":[],"default_left":[0],"id":42,"left_children":[-1],"loss_changes":[0E0],"parents":[2147483647],"right_children":[-1],"split_conditions":[1.3912137E-4],"split_indices":[0],"split_type":[0],"sum_hessian":[1.889217E4],"tree_param":{"num_deleted":"0","num_feature":"3","num_nodes":"1","size_leaf_vector":"1"}},{"base_weights":[3.7312445E-3,1.8817782E-3,5.9119606E-1,-2.1770054E-3,5.7230643E-3,1.4826946E-2,3.825935E-2,-4.211432E-3,1.0141277E-3,-1.1898424E-3,4.0177806E-4],"categories":[],"categories_nodes":[],"categories_segments":[],"categories_sizes":[],"default_left":[0,0,0,0,0,0,0,0,0,0,0],"id":43,"left_children":[1,3,5,7,-1,-1,-1,9,-1,-1,-1],"loss_changes":[2.0546669E1,8.615142E0,4.9639683E0,8.316183E-1,0E0,0E0,0E0,7.2532625E0,0E0,0E0,0E0],"parents":[2147483647,0,0,1,1,2,2,3,3,7,7],"right_children":[2,4,6,8,-1,-1,-1,10,-1,-1,-1],"split_conditions":[1E1,9E0,4.8877606E0,4E0,5.7230643E-3,1.4826946E-2,3.825935E-2,3.5723896E0,1.0141277E-3,-1.1898424E-3,4.0177806E-4],"split_indices":[1,1,0,1,0,0,0,0,0,0,0],"split_type":[0,0,0,0,0,0,0,0,0,0,0],"sum_hessian":[1.8910965E4,1.8852615E4,5.8348907E1,1.8197527E4,6.550875E2,1.288576E1,4.546315E1,1.668682E4,1.5107089E3,9.627235E3,7.0595835E3],"tree_param":{"num_deleted":"0","num_feature":"3","num_nodes":"11","size_leaf_vector":"1"}},{"base_weights":[-1.1227885E-3,-2.656344E-3,2.419012E-2,-8.8351695E-3,4.4956263E-2,-4.4602246E-4,3.0597573E-4,1.2028652E-2,9.030273E-4],"categories":[],"categories_nodes":[],"categories_segments":[],"categories_sizes":[],"default_left":[0,0,0,0,0,0,0,0,0],"id":44,"left_children":[1,3,-1,5,7,-1,-1,-1,-1],"loss_changes":[1.4048971E1,5.5404005E0,0E0,2.131331E-2,3.9552006E1,0E0,0E0,0E0,0E0],"parents":[2147483647,0,0,1,1,3,3,4,4],"right_children":[2,4,-1,6,8,-1,-1,-1,-1],"split_conditions":[1E1,4E0,2.419012E-2,3E0,7E0,-4.4602246E-4,3.0597573E-4,1.2028652E-2,9.030273E-4],"split_indices":[1,1,0,1,2,0,0,0,0],"split_type":[0,0,0,0,0,0,0,0,0],"sum_hessian":[1.8888938E4,1.883038E4,5.855577E1,1.6668125E4,2.162256E3,1.6574014E4,9.41104E1,3.9544968E2,1.7668065E3],"tree_param":{"num_deleted":"0","num_feature":"3","num_nodes":"9","size_leaf_vector":"1"}},{"base_weights":[4.7150035E-3],"categories":[],"categories_nodes":[],"categories_segments":[],"categories_sizes":[],"default_left":[0],"id":45,"left_children":[-1],"loss_changes":[0E0],"parents":[2147483647],"right_children":[-1],"split_conditions":[2.3575018E-4],"split_indices":[0],"split_type":[0],"sum_hessian":[1.889746E4],"tree_param":{"num_deleted":"0","num_feature":"3","num_nodes":"1","size_leaf_vector":"1"}},{"base_weights":[9.736925E-3,8.090561E-3,5.1880336E-1,5.0377026E-3,4.6189553E-3,3.6017644E-1,5.5413913E-2,2.957425E-3,1.3232866E-3,1.3172348E-2,2.8080335E-2,-7.628013E-4,7.355789E-4],"categories":[],"categories_nodes":[],"categories_segments":[],"categories_sizes":[],"default_left":[0,0,0,0,0,0,0,0,0,0,0,0,0],"id":46,"left_children":[1,3,5,7,-1,9,-1,11,-1,-1,-1,-1,-1],"loss_changes":[1.5830814E1,4.8458815E0,5.29455E0,8.101667E-1,0E0,1.793158E0,0E0,6.255549E0,0E0,0E0,0E0,0E0,0E0],"parents":[2147483647,0,0,1,1,2,2,3,3,5,5,7,7],"right_children":[2,4,6,8,-1,10,-1,12,-1,-1,-1,-1,-1],"split_conditions":[1E1,9E0,5.0718784E0,3E0,4.6189553E-3,4.967157E0,5.5413913E-2,3.5723896E0,1.3232866E-3,1.3172348E-2,2.8080335E-2,-7.628013E-4,7.355789E-4],"split_indices":[1,1,0,1,0,0,0,0,0,0,0,0,0],"split_type":[0,0,0,0,0,0,0,0,0,0,0,0,0],"sum_hessian":[1.8892746E4,1.8832855E4,5.989116E1,1.8175611E4,6.5724524E2,4.84613E1,1.1429858E1,1.6568268E4,1.6073439E3,2.3304142E1,2.5157158E1,9.513958E3,7.054309E3],"tree_param":{"num_deleted":"0","num_feature":"3","num_nodes":"13","size_leaf_vector":"1"}},{"base_weights":[-2.7606974E-3],"categories":[],"categories_nodes":[],"categories_segments":[],"categories_sizes":[],"default_left":[0],"id":47,"left_children":[-1],"loss_changes":[0E0],"parents":[2147483647],"right_children":[-1],"split_conditions":[-1.3803487E-4],"split_indices":[0],"split_type":[0],"sum_hessian":[1.889747E4],"tree_param":{"num_deleted":"0","num_feature":"3","num_nodes":"1","size_leaf_vector":"1"}},{"base_weights":[3.2667923E-4,-1.2918536E-3,2.4686243E-2,-4.276591E-3,4.0302626E-3,-2.7951738E-4,9.228232E-3,1.9082166E-3,9.094712E-5],"categories":[],"categories_nodes":[],"categories_segments":[],"categories_sizes":[],"default_left":[0,0,0,0,0,0,0,0,0],"id":48,"left_children":[1,3,-1,5,-1,-1,7,-1,-1],"loss_changes":[1.5093998E1,4.6054783E0,0E0,3.2256508E-1,0E0,0E0,1.041394E1,0E0,0E0],"parents":[2147483647,0,0,1,1,3,3,6,6],"right_children":[2,4,-1,6,-1,-1,8,-1,-1],"split_conditions":[1E1,9E0,2.4686243E-2,3E0,4.0302626E-3,-2.7951738E-4,7E0,1.9082166E-3,9.094712E-5],"split_indices":[1,1,0,1,0,0,2,0,0],"split_type":[0,0,0,0,0,0,0,0,0],"sum_hessian":[1.889922E4,1.8838422E4,6.0799774E1,1.8176912E4,6.615092E2,1.6565953E4,1.6109587E3,4.952343E2,1.1157244E3],"tree_param":{"num_deleted":"0","num_feature":"3","num_nodes":"9","size_leaf_vector":"1"}},{"base_weights":[-3.1900448E-3,-4.9137585E-3,5.215028E-1,-8.089352E-3,4.096416E-3,1.29147265E-2,6.4806175E-1,-1.0789098E-2,9.839352E-4,2.8048689E-2,4.4921402E-2,-1.3049531E-3,2.2224015E-4],"categories":[],"categories_nodes":[],"categories_segments":[],"categories_sizes":[],"default_left":[0,0,0,0,0,0,0,0,0,0,0,0,0],"id":49,"left_children":[1,3,5,7,-1,-1,9,11,-1,-1,-1,-1,-1],"loss_changes":[1.7088469E1,5.1936975E0,3.113451E0,1.3621546E0,0E0,0E0,5.6759834E-1,5.019206E0,0E0,0E0,0E0,0E0,0E0],"parents":[2147483647,0,0,1,1,2,2,3,3,6,6,7,7],"right_children":[2,4,6,8,-1,-1,10,12,-1,-1,-1,-1,-1],"split_conditions":[1E1,9E0,4.86683E0,3E0,4.096416E-3,1.29147265E-2,5.0859456E0,3.5723896E0,9.839352E-4,2.8048689E-2,4.4921402E-2,-1.3049531E-3,2.2224015E-4],"split_indices":[1,1,0,1,0,0,0,0,0,0,0,0,0],"split_type":[0,0,0,0,0,0,0,0,0,0,0,0,0],"sum_hessian":[1.8890555E4,1.8829686E4,6.0868397E1,1.8166297E4,6.633885E2,1.2721486E1,4.814691E1,1.6557143E4,1.6091544E3,3.812577E1,1.002114E1,9.498024E3,7.059119E3],"tree_param":{"num_deleted":"0","num_feature":"3","num_nodes":"13","size_leaf_vector":"1"}},{"base_weights":[-4.5876172E-3,-9.878852E-3,1.2744154E-1,-1.30126905E-2,1.222772E-3,4.949827E-3,4.2923054E-1,-2.7715769E-2,2.8606877E-4,1.3205677E-2,4.3488566E-2,-1.393197E-3,-6.1427575E-4],"categories":[],"categories_nodes":[],"categories_segments":[],"categories_sizes":[],"default_left":[0,0,0,0,0,0,0,0,0,0,0,0,0],"id":50,"left_children":[1,3,5,7,-1,-1,9,11,-1,-1,-1,-1,-1],"loss_changes":[1.32012825E1,1.9551501E0,6.2081146E0,5.0966144E0,0E0,0E0,7.538328E0,2.2028446E-2,0E0,0E0,0E0,0E0,0E0],"parents":[2147483647,0,0,1,1,2,2,3,3,6,6,7,7],"right_children":[2,4,6,8,-1,-1,10,12,-1,-1,-1,-1,-1],"split_conditions":[9E0,4E0,1E1,3.6614268E0,1.222772E-3,4.949827E-3,5.0229316E0,3E0,2.8606877E-4,1.3205677E-2,4.3488566E-2,-1.393197E-3,-6.1427575E-4],"split_indices":[1,1,1,0,0,0,0,1,0,0,0,0,0],"split_type":[0,0,0,0,0,0,0,0,0,0,0,0,0],"sum_hessian":[1.889404E4,1.8166902E4,7.271363E2,1.664799E4,1.5189124E3,6.6571735E2,6.1418907E1,9.783836E3,6.8641533E3,3.7039112E1,2.4379797E1,9.68998E3,9.385528E1],"tree_param":{"num_deleted":"0","num_feature":"3","num_nodes":"13","size_leaf_vector":"1"}},{"base_weights":[-4.4188346E-4],"categories":[],"categories_nodes":[],"categories_segments":[],"categories_sizes":[],"default_left":[0],"id":51,"left_children":[-1],"loss_changes":[0E0],"parents":[2147483647],"right_children":[-1],"split_conditions":[-2.2094173E-5],"split_indices":[0],"split_type":[0],"sum_hessian":[1.8892143E4],"tree_param":{"num_deleted":"0","num_feature":"3","num_nodes":"1","size_leaf_vector":"1"}},{"base_weights":[1.3301896E-3],"categories":[],"categories_nodes":[],"categories_segments":[],"categories_sizes":[],"default_left":[0],"id":52,"left_children":[-1],"loss_changes":[0E0],"parents":[2147483647],"right_children":[-1],"split_conditions":[6.6509485E-5],"split_indices":[0],"split_type":[0],"sum_hessian":[1.8883645E4],"tree_param":{"num_deleted":"0","num_feature":"3","num_nodes":"1","size_leaf_vector":"1"}},{"base_weights":[1.5668143E-3,3.0158157E-4,3.9530274E-1,-2.5073835E-3,3.8029382E-3,9.890108E-3,5.9055394E-1,-4.0171756E-3,6.983551E-4,2.463938E-2,4.034193E-2,-9.087531E-4,2.4874817E-4],"categories":[],"categories_nodes":[],"categories_segments":[],"categories_sizes":[],"default_left":[0,0,0,0,0,0,0,0,0,0,0,0,0],"id":53,"left_children":[1,3,5,7,-1,-1,9,11,-1,-1,-1,-1,-1],"loss_changes":[9.410746E0,4.00751E0,3.4920359E0,4.5172924E-1,0E0,0E0,4.1000366E-1,3.8911185E0,0E0,0E0,0E0,0E0,0E0],"parents":[2147483647,0,0,1,1,2,2,3,3,6,6,7,7],"right_children":[2,4,6,8,-1,-1,10,12,-1,-1,-1,-1,-1],"split_conditions":[1E1,9E0,4.967157E0,4E0,3.8029382E-3,9.890108E-3,5.0859456E0,3.6614268E0,6.983551E-4,2.463938E-2,4.034193E-2,-9.087531E-4,2.4874817E-4],"split_indices":[1,1,0,1,0,0,0,0,0,0,0,0,0],"split_type":[0,0,0,0,0,0,0,0,0,0,0,0,0],"sum_hessian":[1.8889963E4,1.8830453E4,5.950909E1,1.8158143E4,6.7231036E2,2.2316168E1,3.7192924E1,1.6634447E4,1.5236956E3,2.7872316E1,9.320606E0,9.769537E3,6.86491E3],"tree_param":{"num_deleted":"0","num_feature":"3","num_nodes":"13","size_leaf_vector":"1"}},{"base_weights":[-2.7133627E-3],"categories":[],"categories_nodes":[],"categories_segments":[],"categories_sizes":[],"default_left":[0],"id":54,"left_children":[-1],"loss_changes":[0E0],"parents":[2147483647],"right_children":[-1],"split_conditions":[-1.3566813E-4],"split_indices":[0],"split_type":[0],"sum_hessian":[1.8884195E4],"tree_param":{"num_deleted":"0","num_feature":"3","num_nodes":"1","size_leaf_vector":"1"}},{"base_weights":[7.396538E-4],"categories":[],"categories_nodes":[],"categories_segments":[],"categories_sizes":[],"default_left":[0],"id":55,"left_children":[-1],"loss_changes":[0E0],"parents":[2147483647],"right_children":[-1],"split_conditions":[3.6982692E-5],"split_indices":[0],"split_type":[0],"sum_hessian":[1.8880498E4],"tree_param":{"num_deleted":"0","num_feature":"3","num_nodes":"1","size_leaf_vector":"1"}},{"base_weights":[3.7135566E-3],"categories":[],"categories_nodes":[],"categories_segments":[],"categories_sizes":[],"default_left":[0],"id":56,"left_children":[-1],"loss_changes":[0E0],"parents":[2147483647],"right_children":[-1],"split_conditions":[1.8567783E-4],"split_indices":[0],"split_type":[0],"sum_hessian":[1.8879316E4],"tree_param":{"num_deleted":"0","num_feature":"3","num_nodes":"1","size_leaf_vector":"1"}},{"base_weights":[5.99588E-3,2.0172957E-3,1.04887374E-1,-2.4750238E-5,2.7794711E-2,4.29635E-3,1.6238023E-2,2.6726169E-3,6.824927E-4],"categories":[],"categories_nodes":[],"categories_segments":[],"categories_sizes":[],"default_left":[0,0,0,0,0,0,0,0,0],"id":57,"left_children":[1,3,5,-1,7,-1,-1,-1,-1],"loss_changes":[7.4282217E0,1.1754928E0,3.0161772E0,0E0,1.0840665E1,0E0,0E0,0E0,0E0],"parents":[2147483647,0,0,1,1,2,2,4,4],"right_children":[2,4,6,-1,8,-1,-1,-1,-1],"split_conditions":[9E0,3E0,1E1,-2.4750238E-5,7E0,4.29635E-3,1.6238023E-2,2.6726169E-3,6.824927E-4],"split_indices":[1,1,1,0,2,0,0,0,0],"split_type":[0,0,0,0,0,0,0,0,0],"sum_hessian":[1.8879334E4,1.815014E4,7.291927E2,1.6539191E4,1.6109501E3,6.7258435E2,5.660836E1,4.956963E2,1.1152538E3],"tree_param":{"num_deleted":"0","num_feature":"3","num_nodes":"9","size_leaf_vector":"1"}},{"base_weights":[6.147056E-5,-1.056037E-3,1.7980164E-2,-3.1493146E-3,2.7603542E-3,-2.511934E-4,1.5991567E-2,1.3014443E-3,2.7419245E-4],"categories":[],"categories_nodes":[],"categories_segments":[],"categories_sizes":[],"default_left":[0,0,0,0,0,0,0,0,0],"id":58,"left_children":[1,3,-1,5,-1,-1,7,-1,-1],"loss_changes":[7.584795E0,2.216574E0,0E0,6.511318E-1,0E0,0E0,5.697327E0,0E0,0E0],"parents":[2147483647,0,0,1,1,3,3,6,6],"right_children":[2,4,-1,6,-1,-1,8,-1,-1],"split_conditions":[1E1,9E0,1.7980164E-2,3E0,2.7603542E-3,-2.511934E-4,7E0,1.3014443E-3,2.7419245E-4],"split_indices":[1,1,0,1,0,0,2,0,0],"split_type":[0,0,0,0,0,0,0,0,0],"sum_hessian":[1.8875535E4,1.8818043E4,5.749212E1,1.814394E4,6.741039E2,1.6526191E4,1.6177478E3,4.9574402E2,1.1220038E3],"tree_param":{"num_deleted":"0","num_feature":"3","num_nodes":"9","size_leaf_vector":"1"}},{"base_weights":[-2.6233965E-3],"categories":[],"categories_nodes":[],"categories_segments":[],"categories_sizes":[],"default_left":[0],"id":59,"left_children":[-1],"loss_changes":[0E0],"parents":[2147483647],"right_children":[-1],"split_conditions":[-1.3116983E-4],"split_indices":[0],"split_type":[0],"sum_hessian":[1.887975E4],"tree_param":{"num_deleted":"0","num_feature":"3","num_nodes":"1","size_leaf_vector":"1"}},{"base_weights":[-2.9638282E-3,-3.9596176E-3,3.207657E-1,-6.3477065E-3,1.4080251E-2,2.0503867E-1,3.8485605E-2,-8.6344726E-4,1.9331361E-4,5.5158924E-4,1.0474799E-3,7.9201525E-3,3.244002E-1,1.3733958E-2,1.8629646E-2],"categories":[],"categories_nodes":[],"categories_segments":[],"categories_sizes":[],"default_left":[0,0,0,0,0,0,0,0,0,0,0,0,0,0,0],"id":60,"left_children":[1,3,5,7,9,11,-1,-1,-1,-1,-1,-1,13,-1,-1],"loss_changes":[6.086132E0,8.108145E-1,2.8501468E0,2.5355422E0,4.5844764E-2,1.0853407E0,0E0,0E0,0E0,0E0,0E0,0E0,3.1833649E-3,0E0,0E0],"parents":[2147483647,0,0,1,1,2,2,3,3,4,4,5,5,12,12],"right_children":[2,4,6,8,10,12,-1,-1,-1,-1,-1,-1,14,-1,-1],"split_conditions":[1E1,4E0,5.0718784E0,3.5723896E0,9E0,4.7203298E0,3.8485605E-2,-8.6344726E-4,1.9331361E-4,5.5158924E-4,1.0474799E-3,7.9201525E-3,5.0006466E0,1.3733958E-2,1.8629646E-2],"split_indices":[1,1,0,0,1,0,0,0,0,0,0,0,0,0,0],"split_type":[0,0,0,0,0,0,0,0,0,0,0,0,0,0,0],"sum_hessian":[1.8874604E4,1.8817707E4,5.6895363E1,1.6618434E4,2.1992734E3,4.63931E1,1.0502259E1,9.556669E3,7.0617646E3,1.5250818E3,6.741918E2,3.3537238E0,4.303938E1,2.4481314E1,1.8558065E1],"tree_param":{"num_deleted":"0","num_feature":"3","num_nodes":"15","size_leaf_vector":"1"}},{"base_weights":[5.7202936E-3,1.920299E-3,9.921453E-2,6.8507553E-4,7.6847745E-4,4.1617197E-3,2.7907035E-1,-4.89853E-4,4.0136563E-4,9.057619E-3,4.346668E-1,1.791492E-2,3.480489E-2],"categories":[],"categories_nodes":[],"categories_segments":[],"categories_sizes":[],"default_left":[0,0,0,0,0,0,0,0,0,0,0,0,0],"id":61,"left_children":[1,3,5,7,-1,-1,9,-1,-1,-1,11,-1,-1],"loss_changes":[6.7087116E0,3.0146313E-1,2.096465E0,2.140339E0,0E0,0E0,2.409204E0,0E0,0E0,0E0,6.871729E-1,0E0,0E0],"parents":[2147483647,0,0,1,1,2,2,3,3,6,6,10,10],"right_children":[2,4,6,8,-1,-1,10,-1,-1,-1,12,-1,-1],"split_conditions":[9E0,4E0,1E1,3.5723896E0,7.6847745E-4,4.1617197E-3,4.86683E0,-4.89853E-4,4.0136563E-4,9.057619E-3,5.0859456E0,1.791492E-2,3.480489E-2],"split_indices":[1,1,1,0,0,0,0,0,0,0,0,0,0],"split_type":[0,0,0,0,0,0,0,0,0,0,0,0,0],"sum_hessian":[1.888255E4,1.8146041E4,7.3650995E2,1.6620602E4,1.52544E3,6.7775446E2,5.875551E1,9.556349E3,7.0642524E3,1.2844486E1,4.5911022E1,3.7366234E1,8.544787E0],"tree_param":{"num_deleted":"0","num_feature":"3","num_nodes":"13","size_leaf_vector":"1"}},{"base_weights":[-6.903751E-3],"categories":[],"categories_nodes":[],"categories_segments":[],"categories_sizes":[],"default_left":[0],"id":62,"left_children":[-1],"loss_changes":[0E0],"parents":[2147483647],"right_children":[-1],"split_conditions":[-3.4518755E-4],"split_indices":[0],"split_type":[0],"sum_hessian":[1.889352E4],"tree_param":{"num_deleted":"0","num_feature":"3","num_nodes":"1","size_leaf_vector":"1"}},{"base_weights":[3.170545E-3,2.0741376E-3,3.6867997E-1,-3.3537704E-3,4.3019332E-2,9.268853E-3,5.008767E-1,-1.3390228E-2,9.795191E-3,1.8698548E-3,2.7795925E-3,2.2059606E-2,3.364226E-2,-6.843231E-4,-8.987594E-5,-6.1679355E-5,4.995784E-4],"categories":[],"categories_nodes":[],"categories_segments":[],"categories_sizes":[],"default_left":[0,0,0,0,0,0,0,0,0,0,0,0,0,0,0,0,0],"id":63,"left_children":[1,3,5,7,9,-1,11,13,15,-1,-1,-1,-1,-1,-1,-1,-1],"loss_changes":[7.561611E0,4.1817737E0,2.4523335E0,2.1926486E0,1.5359735E-1,0E0,1.5506649E-1,5.2227855E-2,1.5589654E-2,0E0,0E0,0E0,0E0,0E0,0E0,0E0,0E0],"parents":[2147483647,0,0,1,1,2,2,3,3,4,4,6,6,7,7,8,8],"right_children":[2,4,6,8,10,-1,12,14,16,-1,-1,-1,-1,-1,-1,-1,-1],"split_conditions":[1E1,4E0,4.86683E0,3.5120087E0,9E0,9.268853E-3,5.0859456E0,3E0,3.5723896E0,1.8698548E-3,2.7795925E-3,2.2059606E-2,3.364226E-2,-6.843231E-4,-8.987594E-5,-6.1679355E-5,4.995784E-4],"split_indices":[1,1,0,0,1,0,0,1,0,0,0,0,0,0,0,0,0],"split_type":[0,0,0,0,0,0,0,0,0,0,0,0,0,0,0,0,0],"sum_hessian":[1.8869686E4,1.8814254E4,5.5430878E1,1.6612883E4,2.2013718E3,1.2400624E1,4.303025E1,9.4215205E3,7.1913613E3,1.523887E3,6.7748486E2,3.459055E1,8.439701E0,9.327339E3,9.418214E1,1.2571653E2,7.065645E3],"tree_param":{"num_deleted":"0","num_feature":"3","num_nodes":"17","size_leaf_vector":"1"}},{"base_weights":[2.3754588E-3,-5.872063E-4,7.507523E-2,-2.1519226E-3,8.19388E-4,3.2169693E-3,1.9719009E-1,-6.617994E-4,3.5589596E-4,6.538237E-3,5.302205E-1,2.0632248E-2,3.3403948E-2],"categories":[],"categories_nodes":[],"categories_segments":[],"categories_sizes":[],"default_left":[0,0,0,0,0,0,0,0,0,0,0,0,0],"id":64,"left_children":[1,3,5,7,-1,-1,9,-1,-1,-1,11,-1,-1],"loss_changes":[4.062512E0,4.8142338E-1,9.5555925E-1,2.4727848E0,0E0,0E0,3.591552E0,0E0,0E0,0E0,1.17424965E-1,0E0,0E0],"parents":[2147483647,0,0,1,1,2,2,3,3,6,6,10,10],"right_children":[2,4,6,8,-1,-1,10,-1,-1,-1,12,-1,-1],"split_conditions":[9E0,4E0,1E1,3.5120087E0,8.19388E-4,3.2169693E-3,5.0229316E0,-6.617994E-4,3.5589596E-4,6.538237E-3,5.0859456E0,2.0632248E-2,3.3403948E-2],"split_indices":[1,1,1,0,0,0,0,0,0,0,0,0,0],"split_type":[0,0,0,0,0,0,0,0,0,0,0,0,0],"sum_hessian":[1.8860418E4,1.8122865E4,7.375521E2,1.6594127E4,1.5287383E3,6.79353E2,5.8199097E1,9.410122E3,7.1840054E3,3.4946537E1,2.325256E1,1.4704639E1,8.547919E0],"tree_param":{"num_deleted":"0","num_feature":"3","num_nodes":"13","size_leaf_vector":"1"}},{"base_weights":[-2.2357497E-3],"categories":[],"categories_nodes":[],"categories_segments":[],"categories_sizes":[],"default_left":[0],"id":65,"left_children":[-1],"loss_changes":[0E0],"parents":[2147483647],"right_children":[-1],"split_conditions":[-1.11787485E-4],"split_indices":[0],"split_type":[0],"sum_hessian":[1.8865674E4],"tree_param":{"num_deleted":"0","num_feature":"3","num_nodes":"1","size_leaf_vector":"1"}},{"base_weights":[6.3174654E-4],"categories":[],"categories_nodes":[],"categories_segments":[],"categories_sizes":[],"default_left":[0],"id":66,"left_children":[-1],"loss_changes":[0E0],"parents":[2147483647],"right_children":[-1],"split_conditions":[3.158733E-5],"split_indices":[0],"split_type":[0],"sum_hessian":[1.8866242E4],"tree_param":{"num_deleted":"0","num_feature":"3","num_nodes":"1","size_leaf_vector":"1"}},{"base_weights":[-4.738704E-3,-5.5995705E-3,2.7335656E-1,-3.5373535E-4,1.67196E-3,1.7839105E-1,4.006258E-2,6.6939252E-3,1.4131005E-2],"categories":[],"categories_nodes":[],"categories_segments":[],"categories_sizes":[],"default_left":[0,0,0,0,0,0,0,0,0],"id":67,"left_children":[1,3,5,-1,-1,7,-1,-1,-1],"loss_changes":[4.5185323E0,1.0834883E0,2.77707E0,0E0,0E0,7.50944E-1,0E0,0E0,0E0],"parents":[2147483647,0,0,1,1,2,2,5,5],"right_children":[2,4,6,-1,-1,8,-1,-1,-1],"split_conditions":[1E1,9E0,5.0859456E0,-3.5373535E-4,1.67196E-3,4.86683E0,4.006258E-2,6.6939252E-3,1.4131005E-2],"split_indices":[1,1,0,0,0,0,0,0,0],"split_type":[0,0,0,0,0,0,0,0,0],"sum_hessian":[1.8866781E4,1.8809533E4,5.7246586E1,1.8125455E4,6.8407776E2,4.965233E1,7.5942593E0,1.1363509E1,3.828882E1],"tree_param":{"num_deleted":"0","num_feature":"3","num_nodes":"9","size_leaf_vector":"1"}},{"base_weights":[1.4458671E-3],"categories":[],"categories_nodes":[],"categories_segments":[],"categories_sizes":[],"default_left":[0],"id":68,"left_children":[-1],"loss_changes":[0E0],"parents":[2147483647],"right_children":[-1],"split_conditions":[7.2293355E-5],"split_indices":[0],"split_type":[0],"sum_hessian":[1.8867764E4],"tree_param":{"num_deleted":"0","num_feature":"3","num_nodes":"1","size_leaf_vector":"1"}},{"base_weights":[-1.3728542E-3,-2.0132593E-3,2.2379875E-1,-1.7921212E-4,1.9818903E-3,5.5446373E-3,4.993148E-1,1.9334551E-2,3.2953613E-2],"categories":[],"categories_nodes":[],"categories_segments":[],"categories_sizes":[],"default_left":[0,0,0,0,0,0,0,0,0],"id":69,"left_children":[1,3,5,-1,-1,-1,7,-1,-1],"loss_changes":[2.720891E0,1.2311414E0,2.9149368E0,0E0,0E0,0E0,1.7558765E-1,0E0,0E0],"parents":[2147483647,0,0,1,1,2,2,6,6],"right_children":[2,4,6,-1,-1,-1,8,-1,-1],"split_conditions":[1E1,9E0,5.0229316E0,-1.7921212E-4,1.9818903E-3,5.5446373E-3,5.0859456E0,1.9334551E-2,3.2953613E-2],"split_indices":[1,1,0,0,0,0,0,0,0],"split_type":[0,0,0,0,0,0,0,0,0],"sum_hessian":[1.886461E4,1.8812098E4,5.251197E1,1.8129219E4,6.828788E2,2.9588377E1,2.2923592E1,1.5451366E1,7.472225E0],"tree_param":{"num_deleted":"0","num_feature":"3","num_nodes":"9","size_leaf_vector":"1"}},{"base_weights":[-4.0635685E-3,-8.042286E-3,2.3669217E-2,-1.0955137E-3,3.9067326E-4,2.1509891E-2,1.09635025E-1,5.1055005E-4,1.0993867E-3,3.2786229E-3,3.756044E-1,1.4779768E-2,2.4813276E-2],"categories":[],"categories_nodes":[],"categories_segments":[],"categories_sizes":[],"default_left":[0,0,0,0,0,0,0,0,0,0,0,0,0],"id":70,"left_children":[1,3,5,-1,-1,7,9,-1,-1,-1,11,-1,-1],"loss_changes":[2.0837522E0,4.189623E0,4.3747318E-1,0E0,0E0,1.226151E-2,2.2069893E0,0E0,0E0,0E0,8.667493E-2,0E0,0E0],"parents":[2147483647,0,0,1,1,2,2,5,5,6,6,10,10],"right_children":[2,4,6,-1,-1,8,10,-1,-1,-1,12,-1,-1],"split_conditions":[3E0,3.5723896E0,1E1,-1.0955137E-3,3.9067326E-4,4E0,5.0229316E0,5.1055005E-4,1.0993867E-3,3.2786229E-3,5.0859456E0,1.4779768E-2,2.4813276E-2],"split_indices":[1,0,1,0,0,1,0,0,0,0,0,0,0],"split_type":[0,0,0,0,0,0,0,0,0,0,0,0,0],"sum_hessian":[1.8881943E4,1.6513521E4,2.3684224E3,9.440437E3,7.073084E3,2.3116086E3,5.681375E1,9.470163E1,2.2169072E3,3.3640423E1,2.3173326E1,1.6008238E1,7.1650877E0],"tree_param":{"num_deleted":"0","num_feature":"3","num_nodes":"13","size_leaf_vector":"1"}},{"base_weights":[3.2282749E-3,2.6543776E-4,7.499258E-2,3.886587E-6,2.1691944E-3,3.291138E-3,9.091998E-3,1.8814504E-3,5.6173154E-5],"categories":[],"categories_nodes":[],"categories_segments":[],"categories_sizes":[],"default_left":[0,0,0,0,0,0,0,0,0],"id":71,"left_children":[1,3,5,-1,7,-1,-1,-1,-1],"loss_changes":[4.010871E0,6.4737657E-3,7.2081614E-1,0E0,9.984911E0,0E0,0E0,0E0,0E0],"parents":[2147483647,0,0,1,1,2,2,4,4],"right_children":[2,4,6,-1,8,-1,-1,-1,-1],"split_conditions":[9E0,3E0,1E1,3.886587E-6,7E0,3.291138E-3,9.091998E-3,1.8814504E-3,5.6173154E-5],"split_indices":[1,1,1,0,2,0,0,0,0],"split_type":[0,0,0,0,0,0,0,0,0],"sum_hessian":[1.8862596E4,1.8115682E4,7.4691425E2,1.6490771E4,1.6249111E3,6.893676E2,5.7546677E1,4.9708884E2,1.1278223E3],"tree_param":{"num_deleted":"0","num_feature":"3","num_nodes":"9","size_leaf_vector":"1"}},{"base_weights":[3.8603423E-3,-1.4036587E-3,4.0442206E-2,-8.300922E-4,9.437588E-4,1.3694713E-3,6.870655E-2,3.0662064E-3,1.5675558E-1,5.451993E-3,3.4103006E-1,1.2789934E-2,2.4757525E-2],"categories":[],"categories_nodes":[],"categories_segments":[],"categories_sizes":[],"default_left":[0,0,0,0,0,0,0,0,0,0,0,0,0],"id":72,"left_children":[1,3,5,-1,-1,-1,7,-1,9,-1,11,-1,-1],"loss_changes":[3.630292E0,5.079878E0,8.730309E-1,0E0,0E0,0E0,4.7694492E-1,0E0,1.2680483E0,0E0,2.17561E-1,0E0,0E0],"parents":[2147483647,0,0,1,1,2,2,6,6,8,8,10,10],"right_children":[2,4,6,-1,-1,-1,8,-1,10,-1,12,-1,-1],"split_conditions":[3E0,3.5723896E0,9E0,-8.300922E-4,9.437588E-4,1.3694713E-3,1E1,3.0662064E-3,5.0122786E0,5.451993E-3,5.0859456E0,1.2789934E-2,2.4757525E-2],"split_indices":[1,0,1,0,0,0,1,0,0,0,0,0,0],"split_type":[0,0,0,0,0,0,0,0,0,0,0,0,0],"sum_hessian":[1.8850809E4,1.648031E4,2.3704968E3,9.420328E3,7.0599824E3,1.6229636E3,7.475332E2,6.9127045E2,5.6262722E1,3.1058195E1,2.5204527E1,1.7942007E1,7.262521E0],"tree_param":{"num_deleted":"0","num_feature":"3","num_nodes":"13","size_leaf_vector":"1"}},{"base_weights":[-3.944952E-4],"categories":[],"categories_nodes":[],"categories_segments":[],"categories_sizes":[],"default_left":[0],"id":73,"left_children":[-1],"loss_changes":[0E0],"parents":[2147483647],"right_children":[-1],"split_conditions":[-1.9724761E-5],"split_indices":[0],"split_type":[0],"sum_hessian":[1.8873135E4],"tree_param":{"num_deleted":"0","num_feature":"3","num_nodes":"1","size_leaf_vector":"1"}},{"base_weights":[7.841392E-3,2.799613E-4,6.2253464E-2,2.5302144E-3,2.0544295E-1,6.401181E-3,2.33526E-2],"categories":[],"categories_nodes":[],"categories_segments":[],"categories_sizes":[],"default_left":[0,0,0,0,0,0,0],"id":74,"left_children":[1,-1,3,-1,5,-1,-1],"loss_changes":[2.3012562E0,0E0,1.2348399E0,0E0,2.3980632E0,0E0,0E0],"parents":[2147483647,0,0,2,2,4,4],"right_children":[2,-1,4,-1,6,-1,-1],"split_conditions":[9E0,2.799613E-4,1E1,2.5302144E-3,5.0229316E0,6.401181E-3,2.33526E-2],"split_indices":[1,0,1,0,0,0,0],"split_type":[0,0,0,0,0,0,0],"sum_hessian":[1.8864467E4,1.8118941E4,7.45527E2,6.906894E2,5.4837605E1,3.19197E1,2.2917906E1],"tree_param":{"num_deleted":"0","num_feature":"3","num_nodes":"7","size_leaf_vector":"1"}},{"base_weights":[-2.2213764E-3],"categories":[],"categories_nodes":[],"categories_segments":[],"categories_sizes":[],"default_left":[0],"id":75,"left_children":[-1],"loss_changes":[0E0],"parents":[2147483647],"right_children":[-1],"split_conditions":[-1.11068824E-4],"split_indices":[0],"split_type":[0],"sum_hessian":[1.8871852E4],"tree_param":{"num_deleted":"0","num_feature":"3","num_nodes":"1","size_leaf_vector":"1"}},{"base_weights":[1.480167E-3],"categories":[],"categories_nodes":[],"categories_segments":[],"categories_sizes":[],"default_left":[0],"id":76,"left_children":[-1],"loss_changes":[0E0],"parents":[2147483647],"right_children":[-1],"split_conditions":[7.4008356E-5],"split_indices":[0],"split_type":[0],"sum_hessian":[1.8862848E4],"tree_param":{"num_deleted":"0","num_feature":"3","num_nodes":"1","size_leaf_vector":"1"}},{"base_weights":[1.0423014E-4,-1.5702352E-3,4.0748857E-2,-1.0470949E-4,3.7333176E-3,1.6459328E-3,6.932884E-3,9.794655E-4,4.0978193E-5],"categories":[],"categories_nodes":[],"categories_segments":[],"categories_sizes":[],"default_left":[0,0,0,0,0,0,0,0,0],"id":77,"left_children":[1,3,5,-1,7,-1,-1,-1,-1],"loss_changes":[1.2845596E0,5.0381504E-2,5.679803E-1,0E0,5.3926263E0,0E0,0E0,0E0,0E0],"parents":[2147483647,0,0,1,1,2,2,4,4],"right_children":[2,4,6,-1,8,-1,-1,-1,-1],"split_conditions":[9E0,3E0,1E1,-1.0470949E-4,7E0,1.6459328E-3,6.932884E-3,9.794655E-4,4.0978193E-5],"split_indices":[1,1,1,0,2,0,0,0,0],"split_type":[0,0,0,0,0,0,0,0,0],"sum_hessian":[1.8872537E4,1.8126719E4,7.458179E2,1.6497484E4,1.6292334E3,6.918257E2,5.399216E1,5.0226187E2,1.1269716E3],"tree_param":{"num_deleted":"0","num_feature":"3","num_nodes":"9","size_leaf_vector":"1"}},{"base_weights":[-1.4445083E-3,-4.0065083E-3,6.034626E-2,-4.7852197E-3,2.2049625E-4,2.7267884E-3,1.3066077E-1,-1.0967595E-3,-9.382365E-6,4.6299133E-3,3.661341E-1,1.2694324E-2,2.6905356E-2],"categories":[],"categories_nodes":[],"categories_segments":[],"categories_sizes":[],"default_left":[0,0,0,0,0,0,0,0,0,0,0,0,0],"id":78,"left_children":[1,3,5,7,-1,-1,9,-1,-1,-1,11,-1,-1],"loss_changes":[2.9872282E0,1.1876574E-1,2.998023E-1,4.1445518E0,0E0,0E0,1.7594898E0,0E0,0E0,0E0,3.4069562E-1,0E0,0E0],"parents":[2147483647,0,0,1,1,2,2,3,3,6,6,10,10],"right_children":[2,4,6,8,-1,-1,10,-1,-1,-1,12,-1,-1],"split_conditions":[9E0,4E0,1E1,3.5723896E0,2.2049625E-4,2.7267884E-3,5.0229316E0,-1.0967595E-3,-9.382365E-6,4.6299133E-3,5.0859456E0,1.2694324E-2,2.6905356E-2],"split_indices":[1,1,1,0,0,0,0,0,0,0,0,0,0],"split_type":[0,0,0,0,0,0,0,0,0,0,0,0,0],"sum_hessian":[1.8867205E4,1.8116965E4,7.502395E2,1.6583084E4,1.5338811E3,6.94615E2,5.5624477E1,9.503276E3,7.0798076E3,3.1897755E1,2.3726723E1,1.585464E1,7.872083E0],"tree_param":{"num_deleted":"0","num_feature":"3","num_nodes":"13","size_leaf_vector":"1"}},{"base_weights":[-9.833716E-3,-1.03788525E-2,1.6752385E-1,-1.1580299E-2,1.0500071E-3,7.85725E-2,3.5988852E-2,-1.2165497E-2,-2.8220477E-4,3.928625E-3,1.0927536E-2,-1.3562554E-3,-4.452398E-4],"categories":[],"categories_nodes":[],"categories_segments":[],"categories_sizes":[],"default_left":[0,0,0,0,0,0,0,0,0,0,0,0,0],"id":79,"left_children":[1,3,5,7,-1,9,-1,11,-1,-1,-1,-1,-1],"loss_changes":[1.8257972E0,7.0935607E-1,2.983462E0,6.286454E-2,0E0,7.3798144E-1,0E0,2.9493666E0,0E0,0E0,0E0,0E0,0E0],"parents":[2147483647,0,0,1,1,2,2,3,3,5,5,7,7],"right_children":[2,4,6,8,-1,10,-1,12,-1,-1,-1,-1,-1],"split_conditions":[1E1,9E0,5.0859456E0,3E0,1.0500071E-3,4.86683E0,3.5988852E-2,3.5723896E0,-2.8220477E-4,3.928625E-3,1.0927536E-2,-1.3562554E-3,-4.452398E-4],"split_indices":[1,1,0,1,0,0,0,0,0,0,0,0,0],"split_type":[0,0,0,0,0,0,0,0,0,0,0,0,0],"sum_hessian":[1.8865148E4,1.8808281E4,5.6868816E1,1.8115309E4,6.929721E2,4.9483627E1,7.3851876E0,1.6488775E4,1.6265326E3,1.2409013E1,3.7074615E1,9.411526E3,7.0772495E3],"tree_param":{"num_deleted":"0","num_feature":"3","num_nodes":"13","size_leaf_vector":"1"}},{"base_weights":[-2.634636E-3,-4.8807063E-3,5.1611185E-2,-5.4233926E-3,2.9631832E-5,2.1617445E-3,1.5875728E-1,-8.5241545E-4,-1.20768906E-4,5.049804E-3,1.35739E-2],"categories":[],"categories_nodes":[],"categories_segments":[],"categories_sizes":[],"default_left":[0,0,0,0,0,0,0,0,0,0,0],"id":80,"left_children":[1,3,5,7,-1,-1,9,-1,-1,-1,-1],"loss_changes":[2.2962737E0,5.3754598E-2,6.656512E-1,1.9044011E0,0E0,0E0,7.70978E-1,0E0,0E0,0E0,0E0],"parents":[2147483647,0,0,1,1,2,2,3,3,6,6],"right_children":[2,4,6,8,-1,-1,10,-1,-1,-1,-1],"split_conditions":[9E0,3E0,1E1,3.6614268E0,2.9631832E-5,2.1617445E-3,4.967157E0,-8.5241545E-4,-1.20768906E-4,5.049804E-3,1.35739E-2],"split_indices":[1,1,1,0,0,0,0,0,0,0,0],"split_type":[0,0,0,0,0,0,0,0,0,0,0],"sum_hessian":[1.8843576E4,1.8095246E4,7.48331E2,1.6462941E4,1.6323049E3,6.953728E2,5.295821E1,9.588714E3,6.8742266E3,2.0886393E1,3.2071815E1],"tree_param":{"num_deleted":"0","num_feature":"3","num_nodes":"11","size_leaf_vector":"1"}},{"base_weights":[1.9854878E-3,-3.9564585E-4,5.9211347E-2,-9.6816325E-4,2.6891995E-4,2.5882013E-3,1.475273E-1,-1.3881665E-2,1.10255896E-4,4.9822833E-3,2.002233E-2,-6.975403E-4,-4.3593408E-4],"categories":[],"categories_nodes":[],"categories_segments":[],"categories_sizes":[],"default_left":[0,0,0,0,0,0,0,0,0,0,0,0,0],"id":81,"left_children":[1,3,5,7,-1,-1,9,11,-1,-1,-1,-1,-1],"loss_changes":[2.5666306E0,5.978729E-2,4.872582E-1,2.2627535E0,0E0,0E0,2.0410101E0,3.2280684E-3,0E0,0E0,0E0,0E0,0E0],"parents":[2147483647,0,0,1,1,2,2,3,3,6,6,7,7],"right_children":[2,4,6,8,-1,-1,10,12,-1,-1,-1,-1,-1],"split_conditions":[9E0,3E0,1E1,3.5723896E0,2.6891995E-4,2.5882013E-3,5.0229316E0,3.5120087E0,1.10255896E-4,4.9822833E-3,2.002233E-2,-6.975403E-4,-4.3593408E-4],"split_indices":[1,1,1,0,0,0,0,0,0,0,0,0,0],"split_type":[0,0,0,0,0,0,0,0,0,0,0,0,0],"sum_hessian":[1.8834766E4,1.8083322E4,7.5144305E2,1.6452799E4,1.6305222E3,6.944676E2,5.6975468E1,9.383035E3,7.069764E3,3.3839443E1,2.3136024E1,9.257362E3,1.2567283E2],"tree_param":{"num_deleted":"0","num_feature":"3","num_nodes":"13","size_leaf_vector":"1"}},{"base_weights":[-1.2245117E-3],"categories":[],"categories_nodes":[],"categories_segments":[],"categories_sizes":[],"default_left":[0],"id":82,"left_children":[-1],"loss_changes":[0E0],"parents":[2147483647],"right_children":[-1],"split_conditions":[-6.122558E-5],"split_indices":[0],"split_type":[0],"sum_hessian":[1.8846146E4],"tree_param":{"num_deleted":"0","num_feature":"3","num_nodes":"1","size_leaf_vector":"1"}},{"base_weights":[-2.3844314E-3,-5.7181916E-3,2.1685494E-2,-5.6451716E-4,1.06273794E-4,9.39056E-4,1.3572386E-1,3.8626248E-3,2.937008E-1,1.1804563E-2,2.3523398E-2],"categories":[],"categories_nodes":[],"categories_segments":[],"categories_sizes":[],"default_left":[0,0,0,0,0,0,0,0,0,0,0],"id":83,"left_children":[1,3,5,-1,-1,-1,7,-1,9,-1,-1],"loss_changes":[1.5109471E0,7.228491E-1,7.5615597E-1,0E0,0E0,0E0,1.8301326E0,0E0,3.301885E-1,0E0,0E0],"parents":[2147483647,0,0,1,1,2,2,6,6,8,8],"right_children":[2,4,6,-1,-1,-1,8,-1,10,-1,-1],"split_conditions":[4E0,3.6614268E0,1E1,-5.6451716E-4,1.06273794E-4,9.39056E-4,4.8877606E0,3.8626248E-3,5.0859456E0,1.1804563E-2,2.3523398E-2],"split_indices":[1,0,1,0,0,0,0,0,0,0,0],"split_type":[0,0,0,0,0,0,0,0,0,0,0],"sum_hessian":[1.8827014E4,1.6537307E4,2.2897068E3,9.668414E3,6.8688936E3,2.2339756E3,5.573108E1,1.3399941E1,4.2331135E1,3.3687702E1,8.643434E0],"tree_param":{"num_deleted":"0","num_feature":"3","num_nodes":"11","size_leaf_vector":"1"}},{"base_weights":[1.5215548E-3,-2.0111573E-3,2.5910677E-2,-5.2909093E-4,4.6762018E-4,2.4055822E-2,1.03068426E-1,2.080797E-2,1.5794811E-3,3.1781064E-3,3.293283E-1,8.6150336E-4,1.050915E-3,1.2777254E-2,2.0947674E-2],"categories":[],"categories_nodes":[],"categories_segments":[],"categories_sizes":[],"default_left":[0,0,0,0,0,0,0,0,0,0,0,0,0,0,0],"id":84,"left_children":[1,3,5,-1,-1,7,9,11,-1,-1,13,-1,-1,-1,-1],"loss_changes":[1.6223041E0,1.60194E0,3.384633E-1,0E0,0E0,5.6297302E-2,1.5882963E0,8.6408854E-4,0E0,0E0,5.0147057E-2,0E0,0E0,0E0,0E0],"parents":[2147483647,0,0,1,1,2,2,5,5,6,6,7,7,10,10],"right_children":[2,4,6,-1,-1,8,10,12,-1,-1,14,-1,-1,-1,-1],"split_conditions":[3E0,3.5723896E0,1E1,-5.2909093E-4,4.6762018E-4,9E0,5.0229316E0,4E0,1.5794811E-3,3.1781064E-3,5.0859456E0,8.6150336E-4,1.050915E-3,1.2777254E-2,2.0947674E-2],"split_indices":[1,0,1,0,0,1,0,1,0,0,0,0,0,0,0],"split_type":[0,0,0,0,0,0,0,0,0,0,0,0,0,0,0],"sum_hessian":[1.8827422E4,1.644615E4,2.381272E3,9.375215E3,7.0709355E3,2.3266514E3,5.4620453E1,1.6284023E3,6.98249E2,3.1847176E1,2.277328E1,9.501577E1,1.5333866E3,1.4602857E1,8.170423E0],"tree_param":{"num_deleted":"0","num_feature":"3","num_nodes":"15","size_leaf_vector":"1"}},{"base_weights":[1.3658726E-3],"categories":[],"categories_nodes":[],"categories_segments":[],"categories_sizes":[],"default_left":[0],"id":85,"left_children":[-1],"loss_changes":[0E0],"parents":[2147483647],"right_children":[-1],"split_conditions":[6.829363E-5],"split_indices":[0],"split_type":[0],"sum_hessian":[1.883735E4],"tree_param":{"num_deleted":"0","num_feature":"3","num_nodes":"1","size_leaf_vector":"1"}},{"base_weights":[4.8278538E-3,4.4311136E-3,6.9606947E-3,3.5495493E-3,1.3568404E-3,1.7053743E-4,5.0391736E-3,7.671589E-4,2.1124806E-4],"categories":[],"categories_nodes":[],"categories_segments":[],"categories_sizes":[],"default_left":[0,0,0,0,0,0,0,0,0],"id":86,"left_children":[1,3,-1,5,-1,-1,7,-1,-1],"loss_changes":[1.0028453E0,3.7554523E-1,0E0,3.7182271E-3,0E0,0E0,3.3053262E0,0E0,0E0],"parents":[2147483647,0,0,1,1,3,3,6,6],"right_children":[2,4,-1,6,-1,-1,8,-1,-1],"split_conditions":[1E1,9E0,6.9606947E-3,4E0,1.3568404E-3,1.7053743E-4,7E0,7.671589E-4,2.1124806E-4],"split_indices":[1,1,0,1,0,0,2,0,0],"split_type":[0,0,0,0,0,0,0,0,0],"sum_hessian":[1.881993E4,1.8765562E4,5.4367462E1,1.806532E4,7.0024243E2,1.652851E4,1.5368098E3,4.090004E2,1.1278094E3],"tree_param":{"num_deleted":"0","num_feature":"3","num_nodes":"9","size_leaf_vector":"1"}},{"base_weights":[-5.4284073E-3,-5.7353983E-3,5.0636246E-3,-3.1313702E-4,-2.0241165E-3,2.3884273E-3,-2.0717141E-4],"categories":[],"categories_nodes":[],"categories_segments":[],"categories_sizes":[],"default_left":[0,0,0,0,0,0,0],"id":87,"left_children":[1,3,-1,-1,5,-1,-1],"loss_changes":[6.1751956E-1,3.6744177E-2,0E0,0E0,1.3285045E1,0E0,0E0],"parents":[2147483647,0,0,1,1,4,4],"right_children":[2,4,-1,-1,6,-1,-1],"split_conditions":[1E1,3E0,5.0636246E-3,-3.1313702E-4,7E0,2.3884273E-3,-2.0717141E-4],"split_indices":[1,1,0,0,2,0,0],"split_type":[0,0,0,0,0,0,0],"sum_hessian":[1.8833254E4,1.8780168E4,5.3086475E1,1.644306E4,2.3371067E3,5.0331714E2,1.8337896E3],"tree_param":{"num_deleted":"0","num_feature":"3","num_nodes":"7","size_leaf_vector":"1"}},{"base_weights":[2.297061E-3],"categories":[],"categories_nodes":[],"categories_segments":[],"categories_sizes":[],"default_left":[0],"id":88,"left_children":[-1],"loss_changes":[0E0],"parents":[2147483647],"right_children":[-1],"split_conditions":[1.1485305E-4],"split_indices":[0],"split_type":[0],"sum_hessian":[1.8847812E4],"tree_param":{"num_deleted":"0","num_feature":"3","num_nodes":"1","size_leaf_vector":"1"}},{"base_weights":[3.8485054E-3,3.5106395E-3,5.808489E-3,8.132398E-5,1.678043E-2,2.9920104E-3,4.6017277E-4],"categories":[],"categories_nodes":[],"categories_segments":[],"categories_sizes":[],"default_left":[0,0,0,0,0,0,0],"id":89,"left_children":[1,3,-1,-1,5,-1,-1],"loss_changes":[7.1478474E-1,4.69778E-1,0E0,0E0,1.4214266E1,0E0,0E0],"parents":[2147483647,0,0,1,1,4,4],"right_children":[2,4,-1,-1,6,-1,-1],"split_conditions":[1E1,3E0,5.808489E-3,8.132398E-5,7E0,2.9920104E-3,4.6017277E-4],"split_indices":[1,1,0,0,2,0,0],"split_type":[0,0,0,0,0,0,0],"sum_hessian":[1.8844889E4,1.8789402E4,5.5487854E1,1.6454213E4,2.3351895E3,5.0326993E2,1.8319194E3],"tree_param":{"num_deleted":"0","num_feature":"3","num_nodes":"7","size_leaf_vector":"1"}},{"base_weights":[-2.0400043E-4,-1.1322527E-4,4.9100243E-2,1.9275732E-3,9.206945E-3],"categories":[],"categories_nodes":[],"categories_segments":[],"categories_sizes":[],"default_left":[0,0,0,0,0],"id":90,"left_children":[1,-1,3,-1,-1],"loss_changes":[1.9136697E0,0E0,1.0693115E0,0E0,0E0],"parents":[2147483647,0,0,2,2],"right_children":[2,-1,4,-1,-1],"split_conditions":[9E0,-1.1322527E-4,1E1,1.9275732E-3,9.206945E-3],"split_indices":[1,0,1,0,0],"split_type":[0,0,0,0,0],"sum_hessian":[1.8834785E4,1.808014E4,7.5464465E2,7.0115796E2,5.348668E1],"tree_param":{"num_deleted":"0","num_feature":"3","num_nodes":"5","size_leaf_vector":"1"}},{"base_weights":[8.3018176E-4,-5.3339896E-5,4.625172E-2,1.8833077E-3,7.799224E-3],"categories":[],"categories_nodes":[],"categories_segments":[],"categories_sizes":[],"default_left":[0,0,0,0,0],"id":91,"left_children":[1,-1,3,-1,-1],"loss_changes":[1.6232653E0,0E0,7.0566833E-1,0E0,0E0],"parents":[2147483647,0,0,2,2],"right_children":[2,-1,4,-1,-1],"split_conditions":[9E0,-5.3339896E-5,1E1,1.8833077E-3,7.799224E-3],"split_indices":[1,0,1,0,0],"split_type":[0,0,0,0,0],"sum_hessian":[1.8837732E4,1.8083473E4,7.5425946E2,7.007737E2,5.3485775E1],"tree_param":{"num_deleted":"0","num_feature":"3","num_nodes":"5","size_leaf_vector":"1"}},{"base_weights":[-1.8956898E-3,-1.9422888E-4,4.5665983E-2,1.7726998E-3,1.7481999E-1,5.25685E-3,1.5199988E-2],"categories":[],"categories_nodes":[],"categories_segments":[],"categories_sizes":[],"default_left":[0,0,0,0,0,0,0],"id":92,"left_children":[1,-1,3,-1,5,-1,-1],"loss_changes":[1.7827097E0,0E0,9.9149084E-1,0E0,1.4305537E0,0E0,0E0],"parents":[2147483647,0,0,2,2,4,4],"right_children":[2,-1,4,-1,6,-1,-1],"split_conditions":[9E0,-1.9422888E-4,1E1,1.7726998E-3,4.86683E0,5.25685E-3,1.5199988E-2],"split_indices":[1,0,1,0,0,0,0],"split_type":[0,0,0,0,0,0,0],"sum_hessian":[1.8842865E4,1.8087422E4,7.554439E2,7.0127014E2,5.417375E1,1.1945638E1,4.2228115E1],"tree_param":{"num_deleted":"0","num_feature":"3","num_nodes":"7","size_leaf_vector":"1"}},{"base_weights":[2.5750326E-3,8.749884E-5,1.1060508E-3],"categories":[],"categories_nodes":[],"categories_segments":[],"categories_sizes":[],"default_left":[0,0,0],"id":93,"left_children":[1,-1,-1],"loss_changes":[3.0386198E-1,0E0,0E0],"parents":[2147483647,0,0],"right_children":[2,-1,-1],"split_conditions":[9E0,8.749884E-5,1.1060508E-3],"split_indices":[1,0,0],"split_type":[0,0,0],"sum_hessian":[1.8843766E4,1.8081611E4,7.6215375E2],"tree_param":{"num_deleted":"0","num_feature":"3","num_nodes":"3","size_leaf_vector":"1"}},{"base_weights":[-1.7159198E-3,-1.5466292E-4,3.1031301E-2,1.4335468E-3,6.0238205E-2,4.445457E-2,2.041707E-2,2.2227287E-3,6.329977E-3],"categories":[],"categories_nodes":[],"categories_segments":[],"categories_sizes":[],"default_left":[0,0,0,0,0,0,0,0,0],"id":94,"left_children":[1,-1,3,-1,5,7,-1,-1,-1],"loss_changes":[8.5016835E-1,0E0,5.0721228E-2,0E0,1.0637066E0,1.3582647E-1,0E0,0E0,0E0],"parents":[2147483647,0,0,2,2,4,4,5,5],"right_children":[2,-1,4,-1,6,8,-1,-1,-1],"split_conditions":[9E0,-1.5466292E-4,1E1,1.4335468E-3,5.0859456E0,4.8877606E0,2.041707E-2,2.2227287E-3,6.329977E-3],"split_indices":[1,0,1,0,0,0,0,0,0],"split_type":[0,0,0,0,0,0,0,0,0],"sum_hessian":[1.8845936E4,1.8086143E4,7.5979236E2,7.0481415E2,5.4978172E1,4.782472E1,7.153454E0,1.4659874E1,3.3164845E1],"tree_param":{"num_deleted":"0","num_feature":"3","num_nodes":"9","size_leaf_vector":"1"}},{"base_weights":[8.1696585E-3,3.9467122E-4,7.346933E-4],"categories":[],"categories_nodes":[],"categories_segments":[],"categories_sizes":[],"default_left":[0,0,0],"id":95,"left_children":[1,-1,-1],"loss_changes":[3.3839107E-2,0E0,0E0],"parents":[2147483647,0,0],"right_children":[2,-1,-1],"split_conditions":[9E0,3.9467122E-4,7.346933E-4],"split_indices":[1,0,0],"split_type":[0,0,0],"sum_hessian":[1.8839793E4,1.807664E4,7.6315186E2],"tree_param":{"num_deleted":"0","num_feature":"3","num_nodes":"3","size_leaf_vector":"1"}},{"base_weights":[1.0909116E-4,-6.6015724E-5,5.9844404E-2,-2.6209585E-4,2.4636267E-4,1.4944597E-3,1.6789159E-1,-3.992171E-4,5.562392E-5,6.0618976E-3,1.666476E-2,-6.322055E-4,1.7831533E-5],"categories":[],"categories_nodes":[],"categories_segments":[],"categories_sizes":[],"default_left":[0,0,0,0,0,0,0,0,0,0,0,0,0],"id":96,"left_children":[1,3,5,7,-1,-1,9,11,-1,-1,-1,-1,-1],"loss_changes":[1.9722167E-1,1.8408248E-2,7.4386907E-1,3.4102623E-3,0E0,0E0,2.813977E-1,1.5749196E0,0E0,0E0,0E0,0E0,0E0],"parents":[2147483647,0,0,1,1,2,2,3,3,6,6,7,7],"right_children":[2,4,6,8,-1,-1,10,12,-1,-1,-1,-1,-1],"split_conditions":[1E1,9E0,4.8877606E0,3E0,2.4636267E-4,1.4944597E-3,5.0859456E0,3.5723896E0,5.562392E-5,6.0618976E-3,1.666476E-2,-6.322055E-4,1.7831533E-5],"split_indices":[1,1,0,1,0,0,0,0,0,0,0,0,0],"split_type":[0,0,0,0,0,0,0,0,0,0,0,0,0],"sum_hessian":[1.885335E4,1.879924E4,5.4108814E1,1.808982E4,7.094197E2,1.3406191E1,4.0702625E1,1.6449594E4,1.6402266E3,3.3099564E1,7.6030617E0,9.372595E3,7.0769995E3],"tree_param":{"num_deleted":"0","num_feature":"3","num_nodes":"13","size_leaf_vector":"1"}},{"base_weights":[1.979786E-3,1.3859256E-3,1.1206571E-2,-3.014611E-4,2.2300978E-3,-7.2036615E-5,1.1160248E-2,1.1075124E-3,2.4298788E-4],"categories":[],"categories_nodes":[],"categories_segments":[],"categories_sizes":[],"default_left":[0,0,0,0,0,0,0,0,0],"id":97,"left_children":[1,3,-1,5,-1,-1,7,-1,-1],"loss_changes":[2.4831607E0,1.3691555E0,0E0,2.3598506E-1,0E0,0E0,4.7959957E0,0E0,0E0],"parents":[2147483647,0,0,1,1,3,3,6,6],"right_children":[2,4,-1,6,-1,-1,8,-1,-1],"split_conditions":[1E1,9E0,1.1206571E-2,3E0,2.2300978E-3,-7.2036615E-5,7E0,1.1075124E-3,2.4298788E-4],"split_indices":[1,1,0,1,0,0,2,0,0],"split_type":[0,0,0,0,0,0,0,0,0],"sum_hessian":[1.8823574E4,1.8774393E4,4.9181873E1,1.8069842E4,7.04551E2,1.643692E4,1.632923E3,5.0394257E2,1.1289805E3],"tree_param":{"num_deleted":"0","num_feature":"3","num_nodes":"9","size_leaf_vector":"1"}},{"base_weights":[2.5150497E-3,8.6200576E-5,1.0623209E-3],"categories":[],"categories_nodes":[],"categories_segments":[],"categories_sizes":[],"default_left":[0,0,0],"id":98,"left_children":[1,-1,-1],"loss_changes":[2.7918756E-1,0E0,0E0],"parents":[2147483647,0,0],"right_children":[2,-1,-1],"split_conditions":[9E0,8.6200576E-5,1.0623209E-3],"split_indices":[1,0,0],"split_type":[0,0,0],"sum_hessian":[1.884356E4,1.8081076E4,7.62484E2],"tree_param":{"num_deleted":"0","num_feature":"3","num_nodes":"3","size_leaf_vector":"1"}},{"base_weights":[2.6251564E-3,1.8187007E-3,2.169222E-2,8.063583E-5,4.025264E-3,9.092972E-4,3.3850942E-3,5.8777304E-4,1.4094953E-4],"categories":[],"categories_nodes":[],"categories_segments":[],"categories_sizes":[],"default_left":[0,0,0,0,0,0,0,0,0],"id":99,"left_children":[1,3,5,-1,7,-1,-1,-1,-1],"loss_changes":[2.8975093E-1,8.212242E-3,1.22127146E-1,0E0,2.5740614E0,0E0,0E0,0E0,0E0],"parents":[2147483647,0,0,1,1,2,2,4,4],"right_children":[2,4,6,-1,8,-1,-1,-1,-1],"split_conditions":[9E0,4E0,1E1,8.063583E-5,7E0,9.092972E-4,3.3850942E-3,5.8777304E-4,1.4094953E-4],"split_indices":[1,1,1,0,2,0,0,0,0],"split_type":[0,0,0,0,0,0,0,0,0],"sum_hessian":[1.8845016E4,1.8081346E4,7.636687E2,1.6539139E4,1.5422081E3,7.10889E2,5.2779743E1,4.1146576E2,1.1307423E3],"tree_param":{"num_deleted":"0","num_feature":"3","num_nodes":"9","size_leaf_vector":"1"}},{"base_weights":[7.756599E-3,7.124145E-3,2.2779288E-2,3.4759613E-4,8.8505065E-3,1.1016842E-3,1.6076047E-3,7.4758584E-4,3.9506072E-4],"categories":[],"categories_nodes":[],"categories_segments":[],"categories_sizes":[],"default_left":[0,0,0,0,0,0,0,0,0],"id":100,"left_children":[1,3,5,-1,7,-1,-1,-1,-1],"loss_changes":[1.7896688E-1,5.3179264E-3,4.6111643E-3,0E0,2.1521313E0,0E0,0E0,0E0,0E0],"parents":[2147483647,0,0,1,1,2,2,4,4],"right_children":[2,4,6,-1,8,-1,-1,-1,-1],"split_conditions":[9E0,3E0,1E1,3.4759613E-4,7E0,1.1016842E-3,1.6076047E-3,7.4758584E-4,3.9506072E-4],"split_indices":[1,1,1,0,2,0,0,0,0],"split_type":[0,0,0,0,0,0,0,0,0],"sum_hessian":[1.8852395E4,1.809219E4,7.60206E2,1.64556E4,1.6365883E3,7.0729205E2,5.291395E1,5.0673624E2,1.1298519E3],"tree_param":{"num_deleted":"0","num_feature":"3","num_nodes":"9","size_leaf_vector":"1"}},{"base_weights":[-7.783857E-3,-4.0569948E-4,-2.027068E-7],"categories":[],"categories_nodes":[],"categories_segments":[],"categories_sizes":[],"default_left":[0,0,0],"id":101,"left_children":[1,-1,-1],"loss_changes":[4.83979E-2,0E0,0E0],"parents":[2147483647,0,0],"right_children":[2,-1,-1],"split_conditions":[9E0,-4.0569948E-4,-2.027068E-7],"split_indices":[1,0,0],"split_type":[0,0,0],"sum_hessian":[1.8842953E4,1.807587E4,7.670834E2],"tree_param":{"num_deleted":"0","num_feature":"3","num_nodes":"3","size_leaf_vector":"1"}},{"base_weights":[-7.154587E-5,-1.7682464E-3,1.1521503E-2,-7.2504617E-3,2.4383143E-4,5.078416E-4,7.2209205E-4,-3.6359325E-4,-2.839034E-4],"categories":[],"categories_nodes":[],"categories_segments":[],"categories_sizes":[],"default_left":[0,0,0,0,0,0,0,0,0],"id":102,"left_children":[1,3,5,7,-1,-1,-1,-1,-1],"loss_changes":[3.7095362E-1,6.7122865E-1,9.448767E-3,2.785921E-4,0E0,0E0,0E0,0E0,0E0],"parents":[2147483647,0,0,1,1,2,2,3,3],"right_children":[2,4,6,8,-1,-1,-1,-1,-1],"split_conditions":[3E0,3.632454E0,9E0,3.5723896E0,2.4383143E-4,5.078416E-4,7.2209205E-4,-3.6359325E-4,-2.839034E-4],"split_indices":[1,0,1,0,0,0,0,0,0],"split_type":[0,0,0,0,0,0,0,0,0],"sum_hessian":[1.8856883E4,1.6450166E4,2.4067163E3,9.502489E3,6.9476763E3,1.6432874E3,7.63429E2,9.371305E3,1.3118494E2],"tree_param":{"num_deleted":"0","num_feature":"3","num_nodes":"9","size_leaf_vector":"1"}},{"base_weights":[1.0807369E-3,-1.9543955E-5,1.7883485E-3],"categories":[],"categories_nodes":[],"categories_segments":[],"categories_sizes":[],"default_left":[0,0,0],"id":103,"left_children":[1,-1,-1],"loss_changes":[9.618659E-1,0E0,0E0],"parents":[2147483647,0,0],"right_children":[2,-1,-1],"split_conditions":[9E0,-1.9543955E-5,1.7883485E-3],"split_indices":[1,0,0],"split_type":[0,0,0],"sum_hessian":[1.8842285E4,1.8076357E4,7.6592804E2],"tree_param":{"num_deleted":"0","num_feature":"3","num_nodes":"3","size_leaf_vector":"1"}}]},"name":"gbtree"},"learner_model_param":{"base_score":"1.2005E-2","boost_from_average":"1","num_class":"0","num_feature":"3","num_target":"1"},"objective":{"name":"binary:logistic","reg_loss_param":{"scale_pos_weight":"1"}}},"version":[3,0,5]}