{"learner":{"attributes":{},"feature_names":["snr","cqi"],"feature_types":[],"gradient_booster":{"model":{"gbtree_model_param":{"num_parallel_tree":"1","num_trees":"2200"},"iteration_indptr":[0,11,22,33,44,55,66,77,88,99,110,121,132,143,154,165,176,187,198,209,220,231,242,253,264,275,286,297,308,319,330,341,352,363,374,385,396,407,418,429,440,451,462,473,484,495,506,517,528,539,550,561,572,583,594,605,616,627,638,649,660,671,682,693,704,715,726,737,748,759,770,781,792,803,814,825,836,847,858,869,880,891,902,913,924,935,946,957,968,979,990,1001,1012,1023,1034,1045,1056,1067,1078,1089,1100,1111,1122,1133,1144,1155,1166,1177,1188,1199,1210,1221,1232,1243,1254,1265,1276,1287,1298,1309,1320,1331,1342,1353,1364,1375,1386,1397,1408,1419,1430,1441,1452,1463,1474,1485,1496,1507,1518,1529,1540,1551,1562,1573,1584,1595,1606,1617,1628,1639,1650,1661,1672,1683,1694,1705,1716,1727,1738,1749,1760,1771,1782,1793,1804,1815,1826,1837,1848,1859,1870,1881,1892,1903,1914,1925,1936,1947,1958,1969,1980,1991,2002,2013,2024,2035,2046,2057,2068,2079,2090,2101,2112,2123,2134,2145,2156,2167,2178,2189,2200],"tree_info":[0,1,2,3,4,5,6,7,8,9,10,0,1,2,3,4,5,6,7,8,9,10,0,1,2,3,4,5,6,7,8,9,10,0,1,2,3,4,5,6,7,8,9,10,0,1,2,3,4,5,6,7,8,9,10,0,1,2,3,4,5,6,7,8,9,10,0,1,2,3,4,5,6,7,8,9,10,0,1,2,3,4,5,6,7,8,9,10,0,1,2,3,4,5,6,7,8,9,10,0,1,2,3,4,5,6,7,8,9,10,0,1,2,3,4,5,6,7,8,9,10,0,1,2,3,4,5,6,7,8,9,10,0,1,2,3,4,5,6,7,8,9,10,0,1,2,3,4,5,6,7,8,9,10,0,1,2,3,4,5,6,7,8,9,10,0,1,2,3,4,5,6,7,8,9,10,0,1,2,3,4,5,6,7,8,9,10,0,1,2,3,4,5,6,7,8,9,10,0,1,2,3,4,5,6,7,8,9,10,0,1,2,3,4,5,6,7,8,9,10,0,1,2,3,4,5,6,7,8,9,10,0,1,2,3,4,5,6,7,8,9,10,0,1,2,3,4,5,6,7,8,9,10,0,1,2,3,4,5,6,7,8,9,10,0,1,2,3,4,5,6,7,8,9,10,0,1,2,3,4,5,6,7,8,9,10,0,1,2,3,4,5,6,7,8,9,10,0,1,2,3,4,5,6,7,8,9,10,0,1,2,3,4,5,6,7,8,9,10,0,1,2,3,4,5,6,7,8,9,10,0,1,2,3,4,5,6,7,8,9,10,0,1,2,3,4,5,6,7,8,9,10,0,1,2,3,4,5,6,7,8,9,10,0,1,2,3,4,5,6,7,8,9,10,0,1,2,3,4,5,6,7,8,9,10,0,1,2,3,4,5,6,7,8,9,10,0,1,2,3,4,5,6,7,8,9,10,0,1,2,3,4,5,6,7,8,9,10,0,1,2,3,4,5,6,7,8,9,10,0,1,2,3,4,5,6,7,8,9,10,0,1,2,3,4,5,6,7,8,9,10,0,1,2,3,4,5,6,7,8,9,10,0,1,2,3,4,5,6,7,8,9,10,0,1,2,3,4,5,6,7,8,9,10,0,1,2,3,4,5,6,7,8,9,10,0,1,2,3,4,5,6,7,8,9,10,0,1,2,3,4,5,6,7,8,9,10,0,1,2,3,4,5,6,7,8,9,10,0,1,2,3,4,5,6,7,8,9,10,0,1,2,3,4,5,6,7,8,9,10,0,1,2,3,4,5,6,7,8,9,10,0,1,2,3,4,5,6,7,8,9,10,0,1,2,3,4,5,6,7,8,9,10,0,1,2,3,4,5,6,7,8,9,10,0,1,2,3,4,5,6,7,8,9,10,0,1,2,3,4,5,6,7,8,9,10,0,1,2,3,4,5,6,7,8,9,10,0,1,2,3,4,5,6,7,8,9,10,0,1,2,3,4,5,6,7,8,9,10,0,1,2,3,4,5,6,7,8,9,10,0,1,2,3,4,5,6,7,8,9,10,0,1,2,3,4,5,6,7,8,9,10,0,1,2,3,4,5,6,7,8,9,10,0,1,2,3,4,5,6,7,8,9,10,0,1,2,3,4,5,6,7,8,9,10,0,1,2,3,4,5,6,7,8,9,10,0,1,2,3,4,5,6,7,8,9,10,0,1,2,3,4,5,6,7,8,9,10,0,1,2,3,4,5,6,7,8,9,10,0,1,2,3,4,5,6,7,8,9,10,0,1,2,3,4,5,6,7,8,9,10,0,1,2,3,4,5,6,7,8,9,10,0,1,2,3,4,5,6,7,8,9,10,0,1,2,3,4,5,6,7,8,9,10,0,1,2,3,4,5,6,7,8,9,10,0,1,2,3,4,5,6,7,8,9,10,0,1,2,3,4,5,6,7,8,9,10,0,1,2,3,4,5,6,7,8,9,10,0,1,2,3,4,5,6,7,8,9,10,0,1,2,3,4,5,6,7,8,9,10,0,1,2,3,4,5,6,7,8,9,10,0,1,2,3,4,5,6,7,8,9,10,0,1,2,3,4,5,6,7,8,9,10,0,1,2,3,4,5,6,7,8,9,10,0,1,2,3,4,5,6,7,8,9,10,0,1,2,3,4,5,6,7,8,9,10,0,1,2,3,4,5,6,7,8,9,10,0,1,2,3,4,5,6,7,8,9,10,0,1,2,3,4,5,6,7,8,9,10,0,1,2,3,4,5,6,7,8,9,10,0,1,2,3,4,5,6,7,8,9,10,0,1,2,3,4,5,6,7,8,9,10,0,1,2,3,4,5,6,7,8,9,10,0,1,2,3,4,5,6,7,8,9,10,0,1,2,3,4,5,6,7,8,9,10,0,1,2,3,4,5,6,7,8,9,10,0,1,2,3,4,5,6,7,8,9,10,0,1,2,3,4,5,6,7,8,9,10,0,1,2,3,4,5,6,7,8,9,10,0,1,2,3,4,5,6,7,8,9,10,0,1,2,3,4,5,6,7,8,9,10,0,1,2,3,4,5,6,7,8,9,10,0,1,2,3,4,5,6,7,8,9,10,0,1,2,3,4,5,6,7,8,9,10,0,1,2,3,4,5,6,7,8,9,10,0,1,2,3,4,5,6,7,8,9,10,0,1,2,3,4,5,6,7,8,9,10,0,1,2,3,4,5,6,7,8,9,10,0,1,2,3,4,5,6,7,8,9,10,0,1,2,3,4,5,6,7,8,9,10,0,1,2,3,4,5,6,7,8,9,10,0,1,2,3,4,5,6,7,8,9,10,0,1,2,3,4,5,6,7,8,9,10,0,1,2,3,4,5,6,7,8,9,10,0,1,2,3,4,5,6,7,8,9,10,0,1,2,3,4,5,6,7,8,9,10,0,1,2,3,4,5,6,7,8,9,10,0,1,2,3,4,5,6,7,8,9,10,0,1,2,3,4,5,6,7,8,9,10,0,1,2,3,4,5,6,7,8,9,10,0,1,2,3,4,5,6,7,8,9,10,0,1,2,3,4,5,6,7,8,9,10,0,1,2,3,4,5,6,7,8,9,10,0,1,2,3,4,5,6,7,8,9,10,0,1,2,3,4,5,6,7,8,9,10,0,1,2,3,4,5,6,7,8,9,10,0,1,2,3,4,5,6,7,8,9,10,0,1,2,3,4,5,6,7,8,9,10,0,1,2,3,4,5,6,7,8,9,10,0,1,2,3,4,5,6,7,8,9,10,0,1,2,3,4,5,6,7,8,9,10,0,1,2,3,4,5,6,7,8,9,10,0,1,2,3,4,5,6,7,8,9,10,0,1,2,3,4,5,6,7,8,9,10,0,1,2,3,4,5,6,7,8,9,10,0,1,2,3,4,5,6,7,8,9,10,0,1,2,3,4,5,6,7,8,9,10,0,1,2,3,4,5,6,7,8,9,10,0,1,2,3,4,5,6,7,8,9,10,0,1,2,3,4,5,6,7,8,9,10,0,1,2,3,4,5,6,7,8,9,10,0,1,2,3,4,5,6,7,8,9,10,0,1,2,3,4,5,6,7,8,9,10,0,1,2,3,4,5,6,7,8,9,10,0,1,2,3,4,5,6,7,8,9,10,0,1,2,3,4,5,6,7,8,9,10,0,1,2,3,4,5,6,7,8,9,10,0,1,2,3,4,5,6,7,8,9,10,0,1,2,3,4,5,6,7,8,9,10,0,1,2,3,4,5,6,7,8,9,10,0,1,2,3,4,5,6,7,8,9,10,0,1,2,3,4,5,6,7,8,9,10,0,1,2,3,4,5,6,7,8,9,10,0,1,2,3,4,5,6,7,8,9,10,0,1,2,3,4,5,6,7,8,9,10,0,1,2,3,4,5,6,7,8,9,10,0,1,2,3,4,5,6,7,8,9,10,0,1,2,3,4,5,6,7,8,9,10,0,1,2,3,4,5,6,7,8,9,10,0,1,2,3,4,5,6,7,8,9,10,0,1,2,3,4,5,6,7,8,9,10,0,1,2,3,4,5,6,7,8,9,10,0,1,2,3,4,5,6,7,8,9,10,0,1,2,3,4,5,6,7,8,9,10,0,1,2,3,4,5,6,7,8,9,10,0,1,2,3,4,5,6,7,8,9,10,0,1,2,3,4,5,6,7,8,9,10,0,1,2,3,4,5,6,7,8,9,10,0,1,2,3,4,5,6,7,8,9,10,0,1,2,3,4,5,6,7,8,9,10,0,1,2,3,4,5,6,7,8,9,10,0,1,2,3,4,5,6,7,8,9,10,0,1,2,3,4,5,6,7,8,9,10,0,1,2,3,4,5,6,7,8,9,10,0,1,2,3,4,5,6,7,8,9,10,0,1,2,3,4,5,6,7,8,9,10,0,1,2,3,4,5,6,7,8,9,10,0,1,2,3,4,5,6,7,8,9,10,0,1,2,3,4,5,6,7,8,9,10,0,1,2,3,4,5,6,7,8,9,10,0,1,2,3,4,5,6,7,8,9,10,0,1,2,3,4,5,6,7,8,9,10,0,1,2,3,4,5,6,7,8,9,10,0,1,2,3,4,5,6,7,8,9,10,0,1,2,3,4,5,6,7,8,9,10,0,1,2,3,4,5,6,7,8,9,10,0,1,2,3,4,5,6,7,8,9,10,0,1,2,3,4,5,6,7,8,9,10,0,1,2,3,4,5,6,7,8,9,10,0,1,2,3,4,5,6,7,8,9,10,0,1,2,3,4,5,6,7,8,9,10,0,1,2,3,4,5,6,7,8,9,10,0,1,2,3,4,5,6,7,8,9,10,0,1,2,3,4,5,6,7,8,9,10,0,1,2,3,4,5,6,7,8,9,10,0,1,2,3,4,5,6,7,8,9,10,0,1,2,3,4,5,6,7,8,9,10,0,1,2,3,4,5,6,7,8,9,10,0,1,2,3,4,5,6,7,8,9,10,0,1,2,3,4,5,6,7,8,9,10],"trees":[{"base_weights":[-5.4203016E-1],"categories":[],"categories_nodes":[],"categories_segments":[],"categories_sizes":[],"default_left":[0],"id":0,"left_children":[-1],"loss_changes":[0E0],"parents":[2147483647],"right_children":[-1],"split_conditions":[-5.4203015E-2],"split_indices":[0],"split_type":[0],"sum_hessian":[2.3796314E5],"tree_param":{"num_deleted":"0","num_feature":"2","num_nodes":"1","size_leaf_vector":"1"}},{"base_weights":[-4.2850396E-1],"categories":[],"categories_nodes":[],"categories_segments":[],"categories_sizes":[],"default_left":[0],"id":1,"left_children":[-1],"loss_changes":[0E0],"parents":[2147483647],"right_children":[-1],"split_conditions":[-4.2850398E-2],"split_indices":[0],"split_type":[0],"sum_hessian":[2.3801123E5],"tree_param":{"num_deleted":"0","num_feature":"2","num_nodes":"1","size_leaf_vector":"1"}},{"base_weights":[-3.2498264E-1],"categories":[],"categories_nodes":[],"categories_segments":[],"categories_sizes":[],"default_left":[0],"id":2,"left_children":[-1],"loss_changes":[0E0],"parents":[2147483647],"right_children":[-1],"split_conditions":[-3.2498267E-2],"split_indices":[0],"split_type":[0],"sum_hessian":[2.3796083E5],"tree_param":{"num_deleted":"0","num_feature":"2","num_nodes":"1","size_leaf_vector":"1"}},{"base_weights":[-1.185145E-1,-1.5396225E-1,-1.1823446E-2,-1.8483568E-2,-1.3609836E-2],"categories":[],"categories_nodes":[],"categories_segments":[],"categories_sizes":[],"default_left":[0,0,0,0,0],"id":3,"left_children":[1,3,-1,-1,-1],"loss_changes":[2.3444824E0,3.6969376E0,0E0,0E0,0E0],"parents":[2147483647,0,0,1,1],"right_children":[2,4,-1,-1,-1],"split_conditions":[-8.174972E0,3E0,-1.1823446E-2,-1.8483568E-2,-1.3609836E-2],"split_indices":[0,1,0,0,0],"split_type":[0,0,0,0,0],"sum_hessian":[2.380152E5,1.8613223E3,2.3615388E5,1.8133884E3,4.7933884E1],"tree_param":{"num_deleted":"0","num_feature":"2","num_nodes":"5","size_leaf_vector":"1"}},{"base_weights":[-1.8778823E-2,-3.8989365E-1,1.0990562E-2,-5.286774E-1,-2.6497743E-1,-1.3202281E-1,1.221264E-2,-5.403946E-1,-4.338294E-1,-2.883853E-1,-1.8945156E-2,-1.5676577E-1,-5.9905085E-3,1.170827E-3,1.6754548E-3,-5.4988164E-2,-5.2449323E-2,-4.4194978E-2,-3.9682742E-2,-3.1804617E-2,-2.433601E-2,-1.8945156E-2,-1.1732273E-2],"categories":[],"categories_nodes":[],"categories_segments":[],"categories_sizes":[],"default_left":[0,0,0,0,0,0,0,0,0,0,0,0,0,0,0,0,0,0,0,0,0,0,0],"id":4,"left_children":[1,3,5,7,9,11,13,15,17,19,-1,21,-1,-1,-1,-1,-1,-1,-1,-1,-1,-1,-1],"loss_changes":[2.630204E3,3.063518E2,3.8520798E1,9.0720215E0,3.6354492E1,7.117279E0,5.004082E-1,8.354492E-1,4.5083618E-1,1.213092E1,0E0,2.671112E0,0E0,0E0,0E0,0E0,0E0,0E0,0E0,0E0,0E0,0E0,0E0],"parents":[2147483647,0,0,1,1,2,2,3,3,4,4,5,5,6,6,7,7,8,8,9,9,11,11],"right_children":[2,4,6,8,10,12,14,16,18,20,-1,22,-1,-1,-1,-1,-1,-1,-1,-1,-1,-1,-1],"split_conditions":[-6.4296308E0,-7.451767E0,-6.2279005E0,-7.554501E0,4E0,4E0,1E0,-7.866358E0,4E0,-6.836168E0,-1.8945156E-2,-6.3259583E0,-5.9905085E-3,1.170827E-3,1.6754548E-3,-5.4988164E-2,-5.2449323E-2,-4.4194978E-2,-3.9682742E-2,-3.1804617E-2,-2.433601E-2,-1.8945156E-2,-1.1732273E-2],"split_indices":[0,0,0,0,1,1,1,0,1,0,0,0,0,0,0,0,0,0,0,0,0,0,0],"split_type":[0,0,0,0,0,0,0,0,0,0,0,0,0,0,0,0,0,0,0,0,0,0,0],"sum_hessian":[2.3807223E5,1.7678182E4,2.2039405E5,8.372728E3,9.305454E3,1.8664463E3,2.185276E5,7.4479336E3,9.247934E2,9.140496E3,1.6495868E2,1.7932231E3,7.322314E1,1.9668925E5,2.1838348E4,4.643802E3,2.804132E3,9.2033057E2,4.46281E0,5.506777E3,3.633719E3,9.054545E2,8.8776855E2],"tree_param":{"num_deleted":"0","num_feature":"2","num_nodes":"23","size_leaf_vector":"1"}},{"base_weights":[-1.1494732E-1,-5.069653E-1,-3.579798E-2,-5.384577E-1,-3.6926317E-1,-2.0852502E-1,-3.4166754E-3,-5.4775757E-1,-4.8248243E-1,-3.8658774E-1,-2.7138162E-2,-2.3269512E-1,-1.2134588E-2,-5.4989852E-2,-5.2815456E-2,-4.892802E-2,-4.5386042E-2,-4.358079E-2,-3.3697598E-2,-2.7138162E-2,-1.793703E-2],"categories":[],"categories_nodes":[],"categories_segments":[],"categories_sizes":[],"default_left":[0,0,0,0,0,0,0,0,0,0,0,0,0,0,0,0,0,0,0,0,0],"id":5,"left_children":[1,3,5,7,9,11,-1,13,15,17,-1,19,-1,-1,-1,-1,-1,-1,-1,-1,-1],"loss_changes":[7.3846387E3,1.7317773E2,5.5786545E1,1.6672852E1,2.6758423E1,8.474327E0,0E0,8.8183594E-1,1.8065186E0,1.791272E1,0E0,4.844124E0,0E0,0E0,0E0,0E0,0E0,0E0,0E0,0E0,0E0],"parents":[2147483647,0,0,1,1,2,2,3,3,4,4,5,5,7,7,8,8,9,9,11,11],"right_children":[2,4,6,8,10,12,-1,14,16,18,-1,20,-1,-1,-1,-1,-1,-1,-1,-1,-1],"split_conditions":[-4.1311393E0,-4.867533E0,-3.9524214E0,-5.344271E0,5E0,5E0,-3.4166754E-3,-5.6343365E0,5E0,-4.4956512E0,-2.7138162E-2,-4.0424495E0,-1.2134588E-2,-5.4989852E-2,-5.2815456E-2,-4.892802E-2,-4.5386042E-2,-4.358079E-2,-3.3697598E-2,-2.7138162E-2,-1.793703E-2],"split_indices":[0,0,0,0,1,1,0,0,1,0,0,0,0,0,0,0,0,0,0,0,0],"split_type":[0,0,0,0,0,0,0,0,0,0,0,0,0,0,0,0,0,0,0,0,0],"sum_hessian":[2.37999E5,3.9979504E4,1.980195E5,3.2535701E4,7.4438013E3,1.8514049E3,1.961681E5,2.7892727E4,4.642975E3,7.3947104E3,4.9090908E1,1.8191735E3,3.2231403E1,2.5121982E4,2.7707437E3,4.6358677E3,7.107438E0,3.708099E3,3.6866116E3,9.175206E2,9.016529E2],"tree_param":{"num_deleted":"0","num_feature":"2","num_nodes":"21","size_leaf_vector":"1"}},{"base_weights":[1.7284782E-1,-5.1444227E-1,4.0204796E-1,-5.4628533E-1,-3.4253955E-1,2.1377576E-3,4.041528E-1,-5.4878926E-1,-4.809733E-1,-3.6151838E-1,-5.6197154E-3,-2.8700624E-3,2.0314528E-2,3.354766E-1,4.0451437E-2,-5.4979462E-2,-5.2341707E-2,-5.0623883E-2,-4.554663E-2,-4.0211014E-2,-2.6514992E-2,3.1645462E-2,3.699955E-2],"categories":[],"categories_nodes":[],"categories_segments":[],"categories_sizes":[],"default_left":[0,0,0,0,0,0,0,0,0,0,0,0,0,0,0,0,0,0,0,0,0,0,0],"id":6,"left_children":[1,3,5,7,9,11,13,15,17,19,-1,-1,-1,21,-1,-1,-1,-1,-1,-1,-1,-1,-1],"loss_changes":[3.749397E4,3.2564648E2,1.5024414E2,7.948242E0,9.687866E1,1.1194115E1,4.279297E0,9.472656E-1,9.69574E-1,3.5975708E1,0E0,0E0,0E0,1.3537292E0,0E0,0E0,0E0,0E0,0E0,0E0,0E0,0E0,0E0],"parents":[2147483647,0,0,1,1,2,2,3,3,4,4,5,5,6,6,7,7,8,8,9,9,13,13],"right_children":[2,4,6,8,10,12,14,16,18,20,-1,-1,-1,22,-1,-1,-1,-1,-1,-1,-1,-1,-1],"split_conditions":[-2.2432795E0,-3.1718857E0,-2.1512682E0,-3.3413353E0,6E0,6E0,-2.0603862E0,-3.5127814E0,-3.2567148E0,-2.5246854E0,-5.6197154E-3,-2.8700624E-3,2.0314528E-2,6E0,4.0451437E-2,-5.4979462E-2,-5.2341707E-2,-5.0623883E-2,-4.554663E-2,-4.0211014E-2,-2.6514992E-2,3.1645462E-2,3.699955E-2],"split_indices":[0,0,0,0,1,1,0,0,0,0,0,0,0,1,0,0,0,0,0,0,0,0,0],"split_type":[0,0,0,0,0,0,0,0,0,0,0,0,0,0,0,0,0,0,0,0,0,0,0],"sum_hessian":[2.3801388E5,5.9523305E4,1.7849058E5,5.0218676E4,9.304628E3,9.345454E2,1.7755603E5,4.8357355E4,1.8613223E3,9.222975E3,8.165289E1,9.112396E2,2.3305784E1,9.3471075E2,1.7662131E5,4.649438E4,1.8629752E3,9.256198E2,9.3570245E2,6.4872725E3,2.7357024E3,9.0793384E2,2.677686E1],"tree_param":{"num_deleted":"0","num_feature":"2","num_nodes":"23","size_leaf_vector":"1"}},{"base_weights":[6.864398E-1,-5.1544666E-1,1.3385047E0,-5.3485584E-1,-9.706584E-2,7.7012956E-1,1.3419533E-1,-5.459924E-1,-4.0895703E-1,-2.6359174E-1,6.810976E-2,7.4209E-2,1.0560415E-1,-5.487574E-2,-5.04978E-2,-4.2222995E-2,-3.1596087E-2,-2.8744116E-2,-9.774099E-3,4.855243E-3,4.1152902E-2],"categories":[],"categories_nodes":[],"categories_segments":[],"categories_sizes":[],"default_left":[0,0,0,0,0,0,0,0,0,0,0,0,0,0,0,0,0,0,0,0,0],"id":7,"left_children":[1,3,5,7,9,11,-1,13,15,17,19,-1,-1,-1,-1,-1,-1,-1,-1,-1,-1],"loss_changes":[1.8653072E5,6.7973047E2,3.01375E2,1.1194336E2,1.0213596E2,1.2604797E1,0E0,8.060547E0,1.6783081E1,1.4996689E1,2.2171984E1,0E0,0E0,0E0,0E0,0E0,0E0,0E0,0E0,0E0,0E0],"parents":[2147483647,0,0,1,1,2,2,3,3,4,4,5,5,7,7,8,8,9,9,10,10],"right_children":[2,4,6,8,10,12,-1,14,16,18,20,-1,-1,-1,-1,-1,-1,-1,-1,-1,-1],"split_conditions":[-9.564315E-2,-3.9325902E-1,-2.1958934E-2,-9.446557E-1,-2.436992E-1,7E0,1.3419533E-1,-1.3572004E0,7E0,7E0,7E0,7.4209E-2,1.0560415E-1,-5.487574E-2,-5.04978E-2,-4.2222995E-2,-3.1596087E-2,-2.8744116E-2,-9.774099E-3,4.855243E-3,4.1152902E-2],"split_indices":[0,0,0,0,0,1,0,0,1,1,1,0,0,0,0,0,0,0,0,0,0],"split_type":[0,0,0,0,0,0,0,0,0,0,0,0,0,0,0,0,0,0,0,0,0],"sum_hessian":[2.380086E5,8.371157E4,1.5429702E5,8E4,3.71157E3,9.319008E2,1.5336512E5,7.349554E4,6.504463E3,1.8479338E3,1.8636364E3,9.119008E2,2E1,6.884215E4,4.653388E3,6.4758677E3,2.8595041E1,1.8292561E3,1.8677685E1,1.8376859E3,2.5950413E1],"tree_param":{"num_deleted":"0","num_feature":"2","num_nodes":"21","size_leaf_vector":"1"}},{"base_weights":[6.322441E-1,-4.9157467E-1,1.7721577E0,-5.30349E-1,-2.5868665E-2,1.0039344E0,1.7844622E-1,-5.4661924E-1,-3.7047777E-1,-1.6809839E-1,3.1750357E-1,7.902786E-1,1.2185245E0,-5.4916956E-2,-4.9395096E-2,-3.868183E-2,-2.7810885E-2,-1.9437369E-2,7.470259E-3,2.2781936E-2,5.205089E-2,7.6924555E-2,1.0044016E-1,1.1937644E-1,1.3941984E-1],"categories":[],"categories_nodes":[],"categories_segments":[],"categories_sizes":[],"default_left":[0,0,0,0,0,0,0,0,0,0,0,0,0,0,0,0,0,0,0,0,0,0,0,0,0],"id":8,"left_children":[1,3,5,7,9,11,-1,13,15,17,19,21,23,-1,-1,-1,-1,-1,-1,-1,-1,-1,-1,-1,-1],"loss_changes":[3.0495556E5,2.1645645E3,1.1153125E3,2.8763477E2,4.5006326E2,8.455798E1,0E0,1.3214844E1,3.272693E1,7.668553E1,4.9023743E1,5.784851E0,5.1849365E0,0E0,0E0,0E0,0E0,0E0,0E0,0E0,0E0,0E0,0E0,0E0,0E0],"parents":[2147483647,0,0,1,1,2,2,3,3,4,4,5,5,7,7,8,8,9,9,10,10,11,11,12,12],"right_children":[2,4,6,8,10,12,-1,14,16,18,20,22,24,-1,-1,-1,-1,-1,-1,-1,-1,-1,-1,-1,-1],"split_conditions":[2.248408E0,1.7371116E0,2.3451042E0,1.1073334E0,2.1049192E0,2.296362E0,1.7844622E-1,7.9425776E-1,8E0,8E0,2.204662E0,8E0,8E0,-5.4916956E-2,-4.9395096E-2,-3.868183E-2,-2.7810885E-2,-1.9437369E-2,7.470259E-3,2.2781936E-2,5.205089E-2,7.6924555E-2,1.0044016E-1,1.1937644E-1,1.3941984E-1],"split_indices":[0,0,0,0,0,0,0,0,1,1,0,1,1,0,0,0,0,0,0,0,0,0,0,0,0],"split_type":[0,0,0,0,0,0,0,0,0,0,0,0,0,0,0,0,0,0,0,0,0,0,0,0,0],"sum_hessian":[2.3804842E5,1.1987074E5,1.1817769E5,1.1065735E5,9.213389E3,1.8642975E3,1.1631338E5,1.0043372E5,1.0223636E4,6.5152065E3,2.698182E3,9.3652893E2,9.2776855E2,9.578612E4,4.647603E3,1.0156694E4,6.694215E1,6.363967E3,1.5123967E2,1.8728926E3,8.2528925E2,8.991735E2,3.735537E1,8.8991736E2,3.785124E1],"tree_param":{"num_deleted":"0","num_feature":"2","num_nodes":"25","size_leaf_vector":"1"}},{"base_weights":[6.011407E-1,-4.0589592E-1,4.1926413E0,-4.9526584E-1,8.79291E-1,2.8179905E0,4.5296254E0,-5.396005E-1,-1.7919892E-1,4.7192115E-1,1.3533959E0,2.2829251E0,3.2638307E0,4.022113E0,4.592714E0,-5.481868E-2,-4.3979056E-2,-2.825661E-2,-1.8409375E-3,3.3838734E-2,6.495833E-2,1.00628056E-1,1.5257762E-1,1.9868807E-1,2.4818209E-1,3.0330187E-1,3.494008E-1,3.8572797E-1,4.1306573E-1,4.416674E-1,4.6068954E-1],"categories":[],"categories_nodes":[],"categories_segments":[],"categories_sizes":[],"default_left":[0,0,0,0,0,0,0,0,0,0,0,0,0,0,0,0,0,0,0,0,0,0,0,0,0,0,0,0,0,0,0],"id":9,"left_children":[1,3,5,7,9,11,13,15,17,19,21,23,25,27,29,-1,-1,-1,-1,-1,-1,-1,-1,-1,-1,-1,-1,-1,-1,-1,-1],"loss_changes":[8.610608E5,2.1356824E4,2.4138438E4,2.4360234E3,2.3342988E3,2.4418125E3,1.322125E3,1.3041797E2,3.5546442E2,1.5407959E2,3.3274316E2,2.7003906E2,2.868203E2,6.703906E1,7.2625E1,0E0,0E0,0E0,0E0,0E0,0E0,0E0,0E0,0E0,0E0,0E0,0E0,0E0,0E0,0E0,0E0],"parents":[2147483647,0,0,1,1,2,2,3,3,4,4,5,5,6,6,7,7,8,8,9,9,10,10,11,11,12,12,13,13,14,14],"right_children":[2,4,6,8,10,12,14,16,18,20,22,24,26,28,30,-1,-1,-1,-1,-1,-1,-1,-1,-1,-1,-1,-1,-1,-1,-1,-1],"split_conditions":[4.5713773E0,4.2993326E0,4.7553906E0,3.6603644E0,4.453533E0,4.6607637E0,4.8246174E0,3.2013469E0,4.073882E0,4.3892374E0,4.4940634E0,4.608487E0,4.709928E0,4.7838936E0,4.8620534E0,-5.481868E-2,-4.3979056E-2,-2.825661E-2,-1.8409375E-3,3.3838734E-2,6.495833E-2,1.00628056E-1,1.5257762E-1,1.9868807E-1,2.4818209E-1,3.0330187E-1,3.494008E-1,3.8572797E-1,4.1306573E-1,4.416674E-1,4.6068954E-1],"split_indices":[0,0,0,0,0,0,0,0,0,0,0,0,0,0,0,0,0,0,0,0,0,0,0,0,0,0,0,0,0,0,0],"split_type":[0,0,0,0,0,0,0,0,0,0,0,0,0,0,0,0,0,0,0,0,0,0,0,0,0,0,0,0,0,0,0],"sum_hessian":[2.3807289E5,1.8593784E5,5.213504E4,1.7384925E5,1.2088595E4,1.0266115E4,4.1868926E4,1.5246264E5,2.1386611E4,6.502975E3,5.5856196E3,4.6689253E3,5.59719E3,4.636364E3,3.7232562E4,1.4038166E5,1.2080991E4,1.3017355E4,8.369256E3,3.7142148E3,2.7887603E3,1.8557024E3,3.7299172E3,1.8806611E3,2.7882644E3,2.801818E3,2.7953718E3,1.8553718E3,2.7809917E3,2.7991736E3,3.4433387E4],"tree_param":{"num_deleted":"0","num_feature":"2","num_nodes":"31","size_leaf_vector":"1"}},{"base_weights":[-5.4452384E-1,-5.450777E-1,3.249704E0,-5.493959E-1,-5.186863E-1,1.352313E-1,3.4685686E0,-5.499509E-2,-5.3879745E-2,-5.2691188E-2,-5.145542E-2,2.4104409E-1,3.844582E-1],"categories":[],"categories_nodes":[],"categories_segments":[],"categories_sizes":[],"default_left":[0,0,0,0,0,0,0,0,0,0,0,0,0],"id":10,"left_children":[1,3,5,7,9,-1,11,-1,-1,-1,-1,-1,-1],"loss_changes":[5.0196094E2,2.684375E1,1.9191956E1,9.0625E-1,8.6621094E-1,0E0,4.129486E0,0E0,0E0,0E0,0E0,0E0,0E0],"parents":[2147483647,0,0,1,1,2,2,3,3,4,4,6,6],"right_children":[2,4,6,8,10,-1,12,-1,-1,-1,-1,-1,-1],"split_conditions":[1E1,4.873706E0,4.7254353E0,4.7254353E0,4.9886317E0,1.352313E-1,4.965008E0,-5.499509E-2,-5.3879745E-2,-5.2691188E-2,-5.145542E-2,2.4104409E-1,3.844582E-1],"split_indices":[1,0,0,0,0,0,0,0,0,0,0,0,0],"split_type":[0,0,0,0,0,0,0,0,0,0,0,0,0],"sum_hessian":[2.380385E5,2.3800462E5,3.3884296E1,2.0452033E5,3.3484297E4,2.1487603E0,3.1735537E1,1.9429603E5,1.0224297E4,1.115405E4,2.2330248E4,1.0082644E1,2.1652893E1],"tree_param":{"num_deleted":"0","num_feature":"2","num_nodes":"13","size_leaf_vector":"1"}},{"base_weights":[-5.3865254E-1],"categories":[],"categories_nodes":[],"categories_segments":[],"categories_sizes":[],"default_left":[0],"id":11,"left_children":[-1],"loss_changes":[0E0],"parents":[2147483647],"right_children":[-1],"split_conditions":[-5.3865254E-2],"split_indices":[0],"split_type":[0],"sum_hessian":[2.260862E5],"tree_param":{"num_deleted":"0","num_feature":"2","num_nodes":"1","size_leaf_vector":"1"}},{"base_weights":[-4.2060483E-1],"categories":[],"categories_nodes":[],"categories_segments":[],"categories_sizes":[],"default_left":[0],"id":12,"left_children":[-1],"loss_changes":[0E0],"parents":[2147483647],"right_children":[-1],"split_conditions":[-4.2060483E-2],"split_indices":[0],"split_type":[0],"sum_hessian":[2.284772E5],"tree_param":{"num_deleted":"0","num_feature":"2","num_nodes":"1","size_leaf_vector":"1"}},{"base_weights":[-3.1594154E-1],"categories":[],"categories_nodes":[],"categories_segments":[],"categories_sizes":[],"default_left":[0],"id":13,"left_children":[-1],"loss_changes":[0E0],"parents":[2147483647],"right_children":[-1],"split_conditions":[-3.1594153E-2],"split_indices":[0],"split_type":[0],"sum_hessian":[2.3055092E5],"tree_param":{"num_deleted":"0","num_feature":"2","num_nodes":"1","size_leaf_vector":"1"}},{"base_weights":[-1.115651E-1,-1.6284332E-1,-1.1114335E-2,-1.9082539E-2,-1.3699333E-2],"categories":[],"categories_nodes":[],"categories_segments":[],"categories_sizes":[],"default_left":[0,0,0,0,0],"id":14,"left_children":[1,3,-1,-1,-1],"loss_changes":[5.0637207E0,4.1108704E0,0E0,0E0,0E0],"parents":[2147483647,0,0,1,1],"right_children":[2,4,-1,-1,-1],"split_conditions":[-8.174972E0,3E0,-1.1114335E-2,-1.9082539E-2,-1.3699333E-2],"split_indices":[0,1,0,0,0],"split_type":[0,0,0,0,0],"sum_hessian":[2.3498628E5,1.9138243E3,2.3307245E5,1.8655848E3,4.823942E1],"tree_param":{"num_deleted":"0","num_feature":"2","num_nodes":"5","size_leaf_vector":"1"}},{"base_weights":[-1.7496219E-2,-3.7984154E-1,1.3596793E-2,-5.2706397E-1,-2.620661E-1,-1.0104426E-1,1.4100488E-2,-5.387705E-1,-4.3316132E-1,-2.8572094E-1,-1.8312236E-2,-1.2426856E-2,-4.347189E-3,1.3543948E-3,1.9097895E-3,-5.4949638E-2,-5.2085247E-2,-4.412154E-2,-3.9456505E-2,-3.2643106E-2,-2.515451E-2],"categories":[],"categories_nodes":[],"categories_segments":[],"categories_sizes":[],"default_left":[0,0,0,0,0,0,0,0,0,0,0,0,0,0,0,0,0,0,0,0,0],"id":15,"left_children":[1,3,5,7,9,11,13,15,17,19,-1,-1,-1,-1,-1,-1,-1,-1,-1,-1,-1],"loss_changes":[2.6707683E3,3.2469873E2,1.260825E1,8.918457E0,4.246295E1,2.8109407E0,6.0430145E-1,1.1352539E0,4.70932E-1,1.4109619E1,0E0,0E0,0E0,0E0,0E0,0E0,0E0,0E0,0E0,0E0,0E0],"parents":[2147483647,0,0,1,1,2,2,3,3,4,4,5,5,6,6,7,7,8,8,9,9],"right_children":[2,4,6,8,10,12,14,16,18,20,-1,-1,-1,-1,-1,-1,-1,-1,-1,-1,-1],"split_conditions":[-6.3259583E0,-7.451767E0,-6.2279005E0,-7.554501E0,4E0,4E0,1E0,-7.866358E0,4E0,-6.9373035E0,-1.8312236E-2,-1.2426856E-2,-4.347189E-3,1.3543948E-3,1.9097895E-3,-5.4949638E-2,-5.2085247E-2,-4.412154E-2,-3.9456505E-2,-3.2643106E-2,-2.515451E-2],"split_indices":[0,0,0,0,1,1,1,0,1,0,0,0,0,0,0,0,0,0,0,0,0],"split_type":[0,0,0,0,0,0,0,0,0,0,0,0,0,0,0,0,0,0,0,0,0],"sum_hessian":[2.3705444E5,1.8733273E4,2.1832117E5,8.324256E3,1.0409018E4,9.5416254E2,2.1736702E5,7.397321E3,9.269351E2,1.0199276E4,2.097414E2,9.148543E2,3.930821E1,1.9558878E5,2.1778223E4,4.6087974E3,2.7885234E3,9.22113E2,4.822149E0,4.6507617E3,5.5485146E3],"tree_param":{"num_deleted":"0","num_feature":"2","num_nodes":"21","size_leaf_vector":"1"}},{"base_weights":[-1.0899103E-1,-5.0612724E-1,-2.8136717E-2,-5.378308E-1,-3.6837927E-1,-2.1323568E-1,-2.634267E-2,-5.472463E-1,-4.8126414E-1,-3.851484E-1,-2.6713198E-2,-2.3866138E-1,-1.1978918E-2,-3.6670316E-2,-2.6290044E-3,-5.4937262E-2,-5.2776534E-2,-4.8831835E-2,-4.5310505E-2,-4.306939E-2,-3.3963785E-2,-2.6713198E-2,-1.922141E-2,-5.7800873E-3,-3.148018E-3],"categories":[],"categories_nodes":[],"categories_segments":[],"categories_sizes":[],"default_left":[0,0,0,0,0,0,0,0,0,0,0,0,0,0,0,0,0,0,0,0,0,0,0,0,0],"id":16,"left_children":[1,3,5,7,9,11,13,15,17,19,-1,21,-1,23,-1,-1,-1,-1,-1,-1,-1,-1,-1,-1,-1],"loss_changes":[7.5413574E3,1.7329688E2,6.4793335E1,1.6936523E1,2.6570984E1,9.627998E0,1.0406494E-1,8.564453E-1,1.8496094E0,1.5163086E1,0E0,3.6057053E0,0E0,6.366136E-1,0E0,0E0,0E0,0E0,0E0,0E0,0E0,0E0,0E0,0E0,0E0],"parents":[2147483647,0,0,1,1,2,2,3,3,4,4,5,5,6,6,7,7,8,8,9,9,11,11,13,13],"right_children":[2,4,6,8,10,12,14,16,18,20,-1,22,-1,24,-1,-1,-1,-1,-1,-1,-1,-1,-1,-1,-1],"split_conditions":[-4.1311393E0,-4.867533E0,-3.9524214E0,-5.344271E0,5E0,5E0,-3.8629947E0,-5.6343365E0,5E0,-4.4956512E0,-2.6713198E-2,-4.0424495E0,-1.1978918E-2,5E0,-2.6290044E-3,-5.4937262E-2,-5.2776534E-2,-4.8831835E-2,-4.5310505E-2,-4.306939E-2,-3.3963785E-2,-2.6713198E-2,-1.922141E-2,-5.7800873E-3,-3.148018E-3],"split_indices":[0,0,0,0,1,1,0,0,1,0,0,0,0,1,0,0,0,0,0,0,0,0,0,0,0],"split_type":[0,0,0,0,0,0,0,0,0,0,0,0,0,0,0,0,0,0,0,0,0,0,0,0,0],"sum_hessian":[2.3485828E5,3.9726477E4,1.9513181E5,3.2291484E4,7.434993E3,1.8720021E3,1.9325981E5,2.7676158E4,4.615325E3,7.384832E3,5.0161083E1,1.8388273E3,3.3174892E1,9.7627893E2,1.9228353E5,2.4928033E4,2.7481245E3,4.6082417E3,7.0833154E0,3.6867708E3,3.6980613E3,9.189869E2,9.198404E2,9.5735754E2,1.8921387E1],"tree_param":{"num_deleted":"0","num_feature":"2","num_nodes":"25","size_leaf_vector":"1"}},{"base_weights":[1.618994E-1,-5.138923E-1,3.807752E-1,-5.396654E-1,-3.058861E-1,-1.1599024E-2,3.8283655E-1,-5.4720396E-1,-4.406952E-1,-3.270173E-1,-6.655854E-3,-4.2236424E-3,1.8561875E-2,2.7840647E-1,3.8340893E-2,-5.4912653E-2,-5.1489335E-2,-4.501131E-2,-4.2277575E-2,-3.6297016E-2,-2.3673385E-2,2.5726352E-2,3.309077E-2],"categories":[],"categories_nodes":[],"categories_segments":[],"categories_sizes":[],"default_left":[0,0,0,0,0,0,0,0,0,0,0,0,0,0,0,0,0,0,0,0,0,0,0],"id":17,"left_children":[1,3,5,7,9,11,13,15,17,19,-1,-1,-1,21,-1,-1,-1,-1,-1,-1,-1,-1,-1],"loss_changes":[3.5660137E4,3.1602734E2,1.4729297E2,3.8911133E1,6.369153E1,1.10694895E1,1.0720703E1,2.7441406E0,1.399292E0,2.0788574E1,0E0,0E0,0E0,2.3798752E0,0E0,0E0,0E0,0E0,0E0,0E0,0E0,0E0,0E0],"parents":[2147483647,0,0,1,1,2,2,3,3,4,4,5,5,6,6,7,7,8,8,9,9,13,13],"right_children":[2,4,6,8,10,12,14,16,18,20,-1,-1,-1,22,-1,-1,-1,-1,-1,-1,-1,-1,-1],"split_conditions":[-2.2432795E0,-2.9123516E0,-2.1512682E0,-3.2567148E0,6E0,6E0,-2.0603862E0,-3.5127814E0,6E0,-2.4316292E0,-6.655854E-3,-4.2236424E-3,1.8561875E-2,6E0,3.8340893E-2,-5.4912653E-2,-5.1489335E-2,-4.501131E-2,-4.2277575E-2,-3.6297016E-2,-2.3673385E-2,2.5726352E-2,3.309077E-2],"split_indices":[0,0,0,0,1,1,0,0,1,0,0,0,0,1,0,0,0,0,0,0,0,0,0],"split_type":[0,0,0,0,0,0,0,0,0,0,0,0,0,0,0,0,0,0,0,0,0,0,0],"sum_hessian":[2.4108386E5,5.89796E4,1.8210427E5,5.2475957E4,6.5036426E3,9.5166016E2,1.8115261E5,4.875755E4,3.7184094E3,6.429936E3,7.3706375E1,9.265692E2,2.5090935E1,9.901476E2,1.8016245E5,4.6004266E4,2.7532854E3,3.7088057E3,9.603733E0,4.5964917E3,1.8334445E3,9.6173486E2,2.8412731E1],"tree_param":{"num_deleted":"0","num_feature":"2","num_nodes":"23","size_leaf_vector":"1"}},{"base_weights":[6.110378E-1,-5.1403105E-1,1.1580269E0,-5.338346E-1,-9.9100865E-2,6.816396E-1,1.1609169E-1,-5.4519945E-1,-4.054728E-1,-2.572044E-1,5.3096246E-2,6.558751E-2,9.212782E-2,-5.4796226E-2,-5.040976E-2,-4.196575E-2,-3.1646773E-2,-2.8251246E-2,-1.0205409E-2,3.207945E-3,3.2199796E-2],"categories":[],"categories_nodes":[],"categories_segments":[],"categories_sizes":[],"default_left":[0,0,0,0,0,0,0,0,0,0,0,0,0,0,0,0,0,0,0,0,0],"id":18,"left_children":[1,3,5,7,9,11,-1,13,15,17,19,-1,-1,-1,-1,-1,-1,-1,-1,-1,-1],"loss_changes":[1.5543175E5,6.788867E2,2.3315625E2,1.1482422E2,9.061214E1,1.0975616E1,0E0,7.9492188E0,1.707312E1,1.5037857E1,2.004447E1,0E0,0E0,0E0,0E0,0E0,0E0,0E0,0E0,0E0,0E0],"parents":[2147483647,0,0,1,1,2,2,3,3,4,4,5,5,7,7,8,8,9,9,10,10],"right_children":[2,4,6,8,10,12,-1,14,16,18,20,-1,-1,-1,-1,-1,-1,-1,-1,-1,-1],"split_conditions":[-9.564315E-2,-3.9325902E-1,-2.1958934E-2,-9.446557E-1,-2.436992E-1,7E0,1.1609169E-1,-1.3572004E0,7E0,7E0,7E0,6.558751E-2,9.212782E-2,-5.4796226E-2,-5.040976E-2,-4.196575E-2,-3.1646773E-2,-2.8251246E-2,-1.0205409E-2,3.207945E-3,3.2199796E-2],"split_indices":[0,0,0,0,0,1,0,0,1,1,1,0,0,0,0,0,0,0,0,0,0],"split_type":[0,0,0,0,0,0,0,0,0,0,0,0,0,0,0,0,0,0,0,0,0],"sum_hessian":[2.5256812E5,8.262397E4,1.6994416E5,7.88599E4,3.764068E3,1.026156E3,1.68918E5,7.244273E4,6.4171733E3,1.845872E3,1.9181962E3,1.00427844E3,2.1877615E1,6.786844E4,4.574285E3,6.386728E3,3.0445219E1,1.826271E3,1.9601013E1,1.8897372E3,2.8459017E1],"tree_param":{"num_deleted":"0","num_feature":"2","num_nodes":"21","size_leaf_vector":"1"}},{"base_weights":[5.635595E-1,-4.8901942E-1,1.4890528E0,-5.2831286E-1,-2.6887856E-2,8.6651874E-1,1.498604E-1,-5.4531235E-1,-3.6039147E-1,-1.617625E-1,2.857383E-1,7.027655E-1,1.0246831E0,-5.480915E-2,-4.8701607E-2,-3.774942E-2,-2.7760034E-2,-1.8885722E-2,6.1987895E-3,2.0345178E-2,4.7012396E-2,6.9049545E-2,8.6372435E-2,1.0033541E-1,1.18256144E-1],"categories":[],"categories_nodes":[],"categories_segments":[],"categories_sizes":[],"default_left":[0,0,0,0,0,0,0,0,0,0,0,0,0,0,0,0,0,0,0,0,0,0,0,0,0],"id":19,"left_children":[1,3,5,7,9,11,-1,13,15,17,19,21,23,-1,-1,-1,-1,-1,-1,-1,-1,-1,-1,-1,-1],"loss_changes":[2.451985E5,2.1384805E3,7.950625E2,3.0963672E2,3.8921817E2,5.176001E1,0E0,1.5697266E1,3.044873E1,7.330481E1,4.2116226E1,2.1272583E0,4.5759277E0,0E0,0E0,0E0,0E0,0E0,0E0,0E0,0E0,0E0,0E0,0E0,0E0],"parents":[2147483647,0,0,1,1,2,2,3,3,4,4,5,5,7,7,8,8,9,9,10,10,11,11,12,12],"right_children":[2,4,6,8,10,12,-1,14,16,18,20,22,24,-1,-1,-1,-1,-1,-1,-1,-1,-1,-1,-1,-1],"split_conditions":[2.248408E0,1.7371116E0,2.3451042E0,1.1073334E0,2.1049192E0,2.296362E0,1.498604E-1,7.9425776E-1,8E0,8E0,2.204662E0,8E0,8E0,-5.480915E-2,-4.8701607E-2,-3.774942E-2,-2.7760034E-2,-1.8885722E-2,6.1987895E-3,2.0345178E-2,4.7012396E-2,6.9049545E-2,8.6372435E-2,1.0033541E-1,1.18256144E-1],"split_indices":[0,0,0,0,0,0,0,0,1,1,0,1,1,0,0,0,0,0,0,0,0,0,0,0,0],"split_type":[0,0,0,0,0,0,0,0,0,0,0,0,0,0,0,0,0,0,0,0,0,0,0,0,0],"sum_hessian":[2.5170212E5,1.17765695E5,1.3393642E5,1.0853703E5,9.228663E3,2.0252631E3,1.3191116E5,9.8557336E4,9.979694E3,6.4475244E3,2.781139E3,9.9772577E2,1.0275372E3,9.406466E4,4.492683E3,9.913765E3,6.5930504E1,6.294749E3,1.527752E2,1.9244224E3,8.567165E2,9.5700305E2,4.0722702E1,9.833004E2,4.4236824E1],"tree_param":{"num_deleted":"0","num_feature":"2","num_nodes":"25","size_leaf_vector":"1"}},{"base_weights":[5.2722913E-1,-4.220871E-1,2.8492692E0,-5.044151E-1,5.2186805E-1,1.9517392E0,3.0298975E0,-5.413539E-1,-2.4627288E-1,2.7519926E-1,9.8050565E-1,1.6540835E0,2.2812128E0,2.729894E0,3.0713594E0,-5.471725E-2,-4.6047304E-2,-2.6879419E-2,8.726478E-4,1.3415483E-2,4.788497E-2,8.4775284E-2,1.16653994E-1,1.5396555E-1,1.8713328E-1,2.1282037E-1,2.37886E-1,2.6328206E-1,2.8229153E-1,2.9836637E-1,3.0833307E-1],"categories":[],"categories_nodes":[],"categories_segments":[],"categories_sizes":[],"default_left":[0,0,0,0,0,0,0,0,0,0,0,0,0,0,0,0,0,0,0,0,0,0,0,0,0,0,0,0,0,0,0],"id":20,"left_children":[1,3,5,7,9,11,13,15,17,19,21,23,25,27,29,-1,-1,-1,-1,-1,-1,-1,-1,-1,-1,-1,-1,-1,-1,-1,-1],"loss_changes":[5.5705144E5,1.3940066E4,1.18825625E4,1.5730742E3,1.6276638E3,1.2013672E3,7.510625E2,6.766797E1,2.2680994E2,2.6874878E2,1.23288574E2,1.5770508E2,8.204297E1,5.9585938E1,4.703125E1,0E0,0E0,0E0,0E0,0E0,0E0,0E0,0E0,0E0,0E0,0E0,0E0,0E0,0E0,0E0,0E0],"parents":[2147483647,0,0,1,1,2,2,3,3,4,4,5,5,6,6,7,7,8,8,9,9,10,10,11,11,12,12,13,13,14,14],"right_children":[2,4,6,8,10,12,14,16,18,20,22,24,26,28,30,-1,-1,-1,-1,-1,-1,-1,-1,-1,-1,-1,-1,-1,-1,-1,-1],"split_conditions":[4.534021E0,4.202878E0,4.7254353E0,3.5266674E0,4.4324946E0,4.643552E0,4.811171E0,3.1242838E0,9E0,4.3450437E0,4.4940634E0,4.608487E0,4.677512E0,4.769684E0,4.873706E0,-5.471725E-2,-4.6047304E-2,-2.6879419E-2,8.726478E-4,1.3415483E-2,4.788497E-2,8.4775284E-2,1.16653994E-1,1.5396555E-1,1.8713328E-1,2.1282037E-1,2.37886E-1,2.6328206E-1,2.8229153E-1,2.9836637E-1,3.0833307E-1],"split_indices":[0,0,0,0,0,0,0,0,1,0,0,0,0,0,0,0,0,0,0,0,0,0,0,0,0,0,0,0,0,0,0],"split_type":[0,0,0,0,0,0,0,0,0,0,0,0,0,0,0,0,0,0,0,0,0,0,0,0,0,0,0,0,0,0,0],"sum_hessian":[2.5270389E5,1.7937223E5,7.3331664E4,1.649835E5,1.4388735E4,1.2287523E4,6.104414E4,1.4432961E5,2.0653883E4,9.3575625E3,5.0311724E3,6.458633E3,5.82889E3,7.420305E3,5.3623836E4,1.3463786E5,9.691757E3,2.0382455E4,2.7142737E2,5.5295557E3,3.828007E3,2.9392786E3,2.0918936E3,4.2357153E3,2.2229175E3,2.279615E3,3.5492754E3,3.6454119E3,3.7748933E3,6.4710166E3,4.715282E4],"tree_param":{"num_deleted":"0","num_feature":"2","num_nodes":"31","size_leaf_vector":"1"}},{"base_weights":[-5.412827E-1,-5.418582E-1,2.510365E0,-5.475011E-1,-5.127439E-1,9.842534E-2,2.674231E0,-5.4866094E-2,-5.4578375E-2,-5.2540567E-2,-5.0617015E-1,1.8292423E-1,2.7921113E-1,-5.0859164E-2,-4.9849845E-2],"categories":[],"categories_nodes":[],"categories_segments":[],"categories_sizes":[],"default_left":[0,0,0,0,0,0,0,0,0,0,0,0,0,0,0],"id":21,"left_children":[1,3,5,7,9,-1,11,-1,-1,-1,13,-1,-1,-1,-1],"loss_changes":[3.9821875E2,3.6835938E1,1.44930725E1,8.59375E-2,2.7890625E0,0E0,3.322754E-1,0E0,0E0,0E0,1.9628906E-1,0E0,0E0,0E0,0E0],"parents":[2147483647,0,0,1,1,2,2,3,3,4,4,6,6,10,10],"right_children":[2,4,6,8,10,-1,12,-1,-1,-1,14,-1,-1,-1,-1],"split_conditions":[1E1,4.769684E0,4.7254353E0,2.0008488E0,4.9471803E0,9.842534E-2,4.873706E0,-5.4866094E-2,-5.4578375E-2,-5.2540567E-2,5.081448E0,1.8292423E-1,2.7921113E-1,-5.0859164E-2,-4.9849845E-2],"split_indices":[1,0,0,0,0,0,0,0,0,0,0,0,0,0,0],"split_type":[0,0,0,0,0,0,0,0,0,0,0,0,0,0,0],"sum_hessian":[2.2597438E5,2.259326E5,4.178517E1,1.892372E5,3.6695395E4,2.4811735E0,3.9303997E1,1.127599E5,7.6477305E4,1.2513772E4,2.4181621E4,5.296834E0,3.4007164E1,1.833044E4,5.8511807E3],"tree_param":{"num_deleted":"0","num_feature":"2","num_nodes":"15","size_leaf_vector":"1"}},{"base_weights":[-5.357461E-1],"categories":[],"categories_nodes":[],"categories_segments":[],"categories_sizes":[],"default_left":[0],"id":22,"left_children":[-1],"loss_changes":[0E0],"parents":[2147483647],"right_children":[-1],"split_conditions":[-5.357461E-2],"split_indices":[0],"split_type":[0],"sum_hessian":[2.149836E5],"tree_param":{"num_deleted":"0","num_feature":"2","num_nodes":"1","size_leaf_vector":"1"}},{"base_weights":[-4.1310155E-1],"categories":[],"categories_nodes":[],"categories_segments":[],"categories_sizes":[],"default_left":[0],"id":23,"left_children":[-1],"loss_changes":[0E0],"parents":[2147483647],"right_children":[-1],"split_conditions":[-4.1310158E-2],"split_indices":[0],"split_type":[0],"sum_hessian":[2.1960914E5],"tree_param":{"num_deleted":"0","num_feature":"2","num_nodes":"1","size_leaf_vector":"1"}},{"base_weights":[-3.072905E-1],"categories":[],"categories_nodes":[],"categories_segments":[],"categories_sizes":[],"default_left":[0],"id":24,"left_children":[-1],"loss_changes":[0E0],"parents":[2147483647],"right_children":[-1],"split_conditions":[-3.072905E-2],"split_indices":[0],"split_type":[0],"sum_hessian":[2.237942E5],"tree_param":{"num_deleted":"0","num_feature":"2","num_nodes":"1","size_leaf_vector":"1"}},{"base_weights":[-1.0682519E-1,-1.6841121E-1,-1.0629753E-2,-1.9676283E-2,-1.3735438E-2],"categories":[],"categories_nodes":[],"categories_segments":[],"categories_sizes":[],"default_left":[0,0,0,0,0],"id":25,"left_children":[1,3,-1,-1,-1],"loss_changes":[7.526367E0,4.8559494E0,0E0,0E0,0E0],"parents":[2147483647,0,0,1,1],"right_children":[2,4,-1,-1,-1],"split_conditions":[-8.174972E0,3E0,-1.0629753E-2,-1.9676283E-2,-1.3735438E-2],"split_indices":[0,1,0,0,0],"split_type":[0,0,0,0,0],"sum_hessian":[2.3215781E5,1.9694996E3,2.3018831E5,1.9187262E3,5.07734E1],"tree_param":{"num_deleted":"0","num_feature":"2","num_nodes":"5","size_leaf_vector":"1"}},{"base_weights":[-1.4885686E-2,-3.8180336E-1,1.6901756E-2,-5.2794576E-1,-2.6734418E-1,-1.2150843E-1,1.7526979E-2,-5.3902906E-1,-4.3872553E-1,-2.9021183E-1,-1.824508E-2,-1.4014969E-2,-5.1990724E-3,1.4802457E-3,1.7602323E-2,-5.490938E-2,-5.2216288E-2,-4.468977E-2,-3.9764497E-2,-3.4126412E-2,-2.6082266E-2,-2.1764038E-3,9.5412845E-4,1.7411009E-3,1.9321869E-3],"categories":[],"categories_nodes":[],"categories_segments":[],"categories_sizes":[],"default_left":[0,0,0,0,0,0,0,0,0,0,0,0,0,0,0,0,0,0,0,0,0,0,0,0,0],"id":26,"left_children":[1,3,5,7,9,11,13,15,17,19,-1,-1,-1,21,23,-1,-1,-1,-1,-1,-1,-1,-1,-1,-1],"loss_changes":[2.7556682E3,3.149475E2,1.8817997E1,7.9438477E0,4.4065735E1,2.5568752E0,2.616577E-1,9.616699E-1,5.092926E-1,1.54470215E1,0E0,0E0,0E0,8.7972474E-1,7.054138E-2,0E0,0E0,0E0,0E0,0E0,0E0,0E0,0E0,0E0,0E0],"parents":[2147483647,0,0,1,1,2,2,3,3,4,4,5,5,6,6,7,7,8,8,9,9,13,13,14,14],"right_children":[2,4,6,8,10,12,14,16,18,20,-1,-1,-1,22,24,-1,-1,-1,-1,-1,-1,-1,-1,-1,-1],"split_conditions":[-6.3259583E0,-7.451767E0,-6.2279005E0,-7.554501E0,4E0,4E0,-6.1272216E0,-7.866358E0,4E0,-7.0371685E0,-1.824508E-2,-1.4014969E-2,-5.1990724E-3,4E0,1E0,-5.490938E-2,-5.2216288E-2,-4.468977E-2,-3.9764497E-2,-3.4126412E-2,-2.6082266E-2,-2.1764038E-3,9.5412845E-4,1.7411009E-3,1.9321869E-3],"split_indices":[0,0,0,0,1,1,0,0,1,0,0,0,0,1,1,0,0,0,0,0,0,0,0,0,0],"split_type":[0,0,0,0,0,0,0,0,0,0,0,0,0,0,0,0,0,0,0,0,0,0,0,0,0],"sum_hessian":[2.3626525E5,1.883577E4,2.1742948E5,8.2713E3,1.056447E4,9.768821E2,2.164526E5,7.3528564E3,9.184431E2,1.0353691E4,2.1077805E2,9.363904E2,4.049171E1,1.0116339E3,2.1544097E5,4.5851597E3,2.7676963E3,9.137605E2,4.6826057E0,3.778829E3,6.5748623E3,9.638924E2,4.7741463E1,1.9388116E5,2.15598E4],"tree_param":{"num_deleted":"0","num_feature":"2","num_nodes":"25","size_leaf_vector":"1"}},{"base_weights":[-1.02615416E-1,-4.9876517E-1,-1.9167531E-2,-5.3703535E-1,-3.5337883E-1,-1.7055933E-1,-1.840381E-2,-5.466769E-1,-4.7908372E-1,-3.7125185E-1,-2.5896637E-2,-1.951602E-2,-9.448158E-3,-4.8721876E-2,-1.8244208E-3,-5.4882895E-2,-5.2700806E-2,-4.864199E-2,-4.452071E-2,-4.2806033E-2,-3.2639343E-2,-7.2943717E-3,-3.3483044E-3],"categories":[],"categories_nodes":[],"categories_segments":[],"categories_sizes":[],"default_left":[0,0,0,0,0,0,0,0,0,0,0,0,0,0,0,0,0,0,0,0,0,0,0],"id":27,"left_children":[1,3,5,7,9,11,13,15,17,19,-1,-1,-1,21,-1,-1,-1,-1,-1,-1,-1,-1,-1],"loss_changes":[7.6780156E3,2.2466113E2,2.217868E1,1.7613281E1,3.025476E1,3.9706535E0,9.2279816E-1,8.7109375E-1,2.307373E0,2.1166016E1,0E0,0E0,0E0,1.2907724E0,0E0,0E0,0E0,0E0,0E0,0E0,0E0,0E0,0E0],"parents":[2147483647,0,0,1,1,2,2,3,3,4,4,5,5,6,6,7,7,8,8,9,9,13,13],"right_children":[2,4,6,8,10,12,14,16,18,20,-1,-1,-1,22,-1,-1,-1,-1,-1,-1,-1,-1,-1],"split_conditions":[-4.0424495E0,-4.867533E0,-3.9524214E0,-5.344271E0,5E0,5E0,-3.8629947E0,-5.6343365E0,5E0,-4.4956512E0,-2.5896637E-2,-1.951602E-2,-9.448158E-3,5E0,-1.8244208E-3,-5.4882895E-2,-5.2700806E-2,-4.864199E-2,-4.452071E-2,-4.2806033E-2,-3.2639343E-2,-7.2943717E-3,-3.3483044E-3],"split_indices":[0,0,0,0,1,1,0,0,1,0,0,0,0,1,0,0,0,0,0,0,0,0,0],"split_type":[0,0,0,0,0,0,0,0,0,0,0,0,0,0,0,0,0,0,0,0,0,0,0],"sum_hessian":[2.3225922E5,4.041122E4,1.91848E5,3.1988232E4,8.422989E3,9.6183685E2,1.9088617E5,2.7418195E4,4.5700356E3,8.359613E3,6.3375957E1,9.413972E2,2.0439651E1,9.980228E2,1.8988814E5,2.4689764E4,2.7284316E3,4.5626523E3,7.3835125E0,3.6847395E3,4.6748735E3,9.7764307E2,2.0379766E1],"tree_param":{"num_deleted":"0","num_feature":"2","num_nodes":"23","size_leaf_vector":"1"}},{"base_weights":[1.5292574E-1,-5.1313573E-1,3.626461E-1,-5.448492E-1,-3.4528342E-1,-3.142997E-2,3.6472365E-1,-5.480296E-1,-4.9064282E-1,-3.6295176E-1,-7.5244815E-3,-6.105003E-3,1.6664684E-2,2.5619307E-1,3.6533933E-2,-5.485056E-2,-5.2346557E-2,-5.095775E-2,-4.5271434E-2,-3.9275907E-2,-2.4414388E-2,2.3550566E-2,3.107662E-2],"categories":[],"categories_nodes":[],"categories_segments":[],"categories_sizes":[],"default_left":[0,0,0,0,0,0,0,0,0,0,0,0,0,0,0,0,0,0,0,0,0,0,0],"id":28,"left_children":[1,3,5,7,9,11,13,15,17,19,-1,-1,-1,21,-1,-1,-1,-1,-1,-1,-1,-1,-1],"loss_changes":[3.4091434E4,3.1091797E2,1.5197656E2,8.203125E0,8.463037E1,1.0883016E1,1.2244141E1,2.5585938E-1,1.732544E0,3.2507812E1,0E0,0E0,0E0,2.5357132E0,0E0,0E0,0E0,0E0,0E0,0E0,0E0,0E0,0E0],"parents":[2147483647,0,0,1,1,2,2,3,3,4,4,5,5,6,6,7,7,8,8,9,9,13,13],"right_children":[2,4,6,8,10,12,14,16,18,20,-1,-1,-1,22,-1,-1,-1,-1,-1,-1,-1,-1,-1],"split_conditions":[-2.2432795E0,-3.1718857E0,-2.1512682E0,-3.4275072E0,6E0,6E0,-2.0603862E0,-3.5127814E0,-3.2567148E0,-2.4316292E0,-7.5244815E-3,-6.105003E-3,1.6664684E-2,6E0,3.6533933E-2,-5.485056E-2,-5.2346557E-2,-5.095775E-2,-4.5271434E-2,-3.9275907E-2,-2.4414388E-2,2.3550566E-2,3.107662E-2],"split_indices":[0,0,0,0,1,1,0,0,0,0,0,0,0,1,0,0,0,0,0,0,0,0,0],"split_type":[0,0,0,0,0,0,0,0,0,0,0,0,0,0,0,0,0,0,0,0,0,0,0],"sum_hessian":[2.4405414E5,5.8442426E4,1.8561172E5,4.915331E4,9.28912E3,9.7333234E2,1.8463838E5,4.6420645E4,2.7326616E3,9.205608E3,8.351185E1,9.467738E2,2.6558533E1,1.0438668E3,1.8359452E5,4.551721E4,9.0343506E2,1.8144265E3,9.1823517E2,7.357424E3,1.8481841E3,1.0131208E3,3.0746082E1],"tree_param":{"num_deleted":"0","num_feature":"2","num_nodes":"23","size_leaf_vector":"1"}},{"base_weights":[5.48467E-1,-5.1286864E-1,1.0180315E0,-5.327642E-1,-1.0810015E-1,5.9655124E-1,1.0205542E-1,-5.444372E-1,-4.013728E-1,-2.5747463E-1,3.279579E-2,5.7015955E-2,8.085527E-2,-5.4712426E-2,-5.0406862E-2,-4.1525993E-2,-3.204322E-2,-2.8261203E-2,-1.1233943E-2,1.3789361E-3,2.5258143E-2],"categories":[],"categories_nodes":[],"categories_segments":[],"categories_sizes":[],"default_left":[0,0,0,0,0,0,0,0,0,0,0,0,0,0,0,0,0,0,0,0,0],"id":29,"left_children":[1,3,5,7,9,11,-1,13,15,17,19,-1,-1,-1,-1,-1,-1,-1,-1,-1,-1],"loss_changes":[1.3257992E5,6.570625E2,1.955E2,1.1906445E2,8.049213E1,1.1066589E1,0E0,7.4804688E0,1.5140381E1,1.4130119E1,1.5438758E1,0E0,0E0,0E0,0E0,0E0,0E0,0E0,0E0,0E0,0E0],"parents":[2147483647,0,0,1,1,2,2,3,3,4,4,5,5,7,7,8,8,9,9,10,10],"right_children":[2,4,6,8,10,12,-1,14,16,18,20,-1,-1,-1,-1,-1,-1,-1,-1,-1,-1],"split_conditions":[-9.564315E-2,-3.9325902E-1,-2.1958934E-2,-9.446557E-1,-2.436992E-1,7E0,1.0205542E-1,-1.3572004E0,7E0,7E0,7E0,5.7015955E-2,8.085527E-2,-5.4712426E-2,-5.0406862E-2,-4.1525993E-2,-3.204322E-2,-2.8261203E-2,-1.1233943E-2,1.3789361E-3,2.5258143E-2],"split_indices":[0,0,0,0,0,1,0,0,1,1,1,0,0,0,0,0,0,0,0,0,0],"split_type":[0,0,0,0,0,0,0,0,0,0,0,0,0,0,0,0,0,0,0,0,0],"sum_hessian":[2.660274E5,8.1597086E4,1.8443031E5,7.777395E4,3.8231328E3,1.0987191E3,1.833316E5,7.142526E4,6.3486953E3,1.8553296E3,1.9678031E3,1.0749366E3,2.3782501E1,6.695594E4,4.469316E3,6.3202134E3,2.8482065E1,1.8354893E3,1.9840393E1,1.9387372E3,2.9065874E1],"tree_param":{"num_deleted":"0","num_feature":"2","num_nodes":"21","size_leaf_vector":"1"}},{"base_weights":[5.092436E-1,-4.944473E-1,1.2811431E0,-5.345673E-1,-1.4634849E-1,6.7533845E-1,1.293946E-1,-5.4552513E-1,-4.027264E-1,-2.342962E-1,1.2965828E-1,5.436279E-1,9.049838E-1,-5.477518E-2,-5.1261235E-2,-4.157744E-2,-3.404579E-2,-2.5899056E-2,-5.231896E-3,1.07435165E-2,3.933479E-2,4.395263E-2,6.3048385E-2,8.836825E-2,9.846423E-2],"categories":[],"categories_nodes":[],"categories_segments":[],"categories_sizes":[],"default_left":[0,0,0,0,0,0,0,0,0,0,0,0,0,0,0,0,0,0,0,0,0,0,0,0,0],"id":30,"left_children":[1,3,5,7,9,11,-1,13,15,17,19,21,23,-1,-1,-1,-1,-1,-1,-1,-1,-1,-1,-1,-1],"loss_changes":[2.0427938E5,1.6007617E3,1.155125E3,1.4826562E2,2.8761267E2,9.287427E1,0E0,6.671875E0,1.387561E1,7.9322876E1,2.6720158E1,1.748291E1,2.8464966E0,0E0,0E0,0E0,0E0,0E0,0E0,0E0,0E0,0E0,0E0,0E0,0E0],"parents":[2147483647,0,0,1,1,2,2,3,3,4,4,5,5,7,7,8,8,9,9,10,10,11,11,12,12],"right_children":[2,4,6,8,10,12,-1,14,16,18,20,22,24,-1,-1,-1,-1,-1,-1,-1,-1,-1,-1,-1,-1],"split_conditions":[2.204662E0,1.5171231E0,2.3451042E0,9.841558E-1,2.053755E0,2.296362E0,1.293946E-1,5.3313005E-1,8E0,8E0,8E0,2.248408E0,8E0,-5.477518E-2,-5.1261235E-2,-4.157744E-2,-3.404579E-2,-2.5899056E-2,-5.231896E-3,1.07435165E-2,3.933479E-2,4.395263E-2,6.3048385E-2,8.836825E-2,9.846423E-2],"split_indices":[0,0,0,0,0,0,0,0,1,1,1,0,1,0,0,0,0,0,0,0,0,0,0,0,0],"split_type":[0,0,0,0,0,0,0,0,0,0,0,0,0,0,0,0,0,0,0,0,0,0,0,0,0],"sum_hessian":[2.6367003E5,1.1462499E5,1.4904505E5,1.0277873E5,1.1846263E4,3.0858242E3,1.4595922E5,9.4889E4,7.8897314E3,8.98379E3,2.8624731E3,1.963213E3,1.1226113E3,8.8861516E4,6.02748E3,7.8590806E3,3.0650923E1,8.822121E3,1.6166888E2,2.7633953E3,9.907794E1,8.9571216E2,1.067501E3,1.0728804E3,4.9730843E1],"tree_param":{"num_deleted":"0","num_feature":"2","num_nodes":"25","size_leaf_vector":"1"}},{"base_weights":[4.760839E-1,-4.4472638E-1,2.1958687E0,-5.1586926E-1,2.1212603E-1,1.417921E0,2.3422546E0,-5.4110336E-1,-3.015689E-1,9.237593E-3,5.007795E-1,1.1824628E0,1.7063743E0,2.082743E0,2.3816087E0,-5.455333E-2,-4.6392918E-2,-3.2224987E-2,-1.5187162E-2,-1.6186697E-3,2.5500854E-2,3.8033377E-2,6.52945E-2,1.03344694E-1,1.3702677E-1,1.5764567E-1,1.7871322E-1,1.9733271E-1,2.1610577E-1,2.2910574E-1,2.3908365E-1],"categories":[],"categories_nodes":[],"categories_segments":[],"categories_sizes":[],"default_left":[0,0,0,0,0,0,0,0,0,0,0,0,0,0,0,0,0,0,0,0,0,0,0,0,0,0,0,0,0,0,0],"id":31,"left_children":[1,3,5,7,9,11,13,15,17,19,21,23,25,27,29,-1,-1,-1,-1,-1,-1,-1,-1,-1,-1,-1,-1,-1,-1,-1,-1],"loss_changes":[4.1689294E5,8.012336E3,1.04510625E4,8.3640234E2,9.81312E2,9.855879E2,7.840625E2,4.70625E1,1.033551E2,1.1065721E2,1.265105E2,2.2273145E2,6.572266E1,8.298047E1,5.046875E1,0E0,0E0,0E0,0E0,0E0,0E0,0E0,0E0,0E0,0E0,0E0,0E0,0E0,0E0,0E0,0E0],"parents":[2147483647,0,0,1,1,2,2,3,3,4,4,5,5,6,6,7,7,8,8,9,9,10,10,11,11,12,12,13,13,14,14],"right_children":[2,4,6,8,10,12,14,16,18,20,22,24,26,28,30,-1,-1,-1,-1,-1,-1,-1,-1,-1,-1,-1,-1,-1,-1,-1,-1],"split_conditions":[4.474037E0,4.0473833E0,4.69382E0,3.457681E0,4.3224287E0,4.608487E0,4.797382E0,3.1242838E0,9E0,9E0,4.4111295E0,4.5533566E0,4.643552E0,4.7407527E0,4.850053E0,-5.455333E-2,-4.6392918E-2,-3.2224987E-2,-1.5187162E-2,-1.6186697E-3,2.5500854E-2,3.8033377E-2,6.52945E-2,1.03344694E-1,1.3702677E-1,1.5764567E-1,1.7871322E-1,1.9733271E-1,2.1610577E-1,2.2910574E-1,2.3908365E-1],"split_indices":[0,0,0,0,0,0,0,0,1,1,0,0,0,0,0,0,0,0,0,0,0,0,0,0,0,0,0,0,0,0,0],"split_type":[0,0,0,0,0,0,0,0,0,0,0,0,0,0,0,0,0,0,0,0,0,0,0,0,0,0,0,0,0,0,0],"sum_hessian":[2.6325556E5,1.7145538E5,9.1800195E4,1.5470019E5,1.6755184E4,1.4540009E4,7.726019E4,1.3840175E5,1.6298443E4,9.839934E3,6.9152495E3,8.0081953E3,6.5318135E3,1.018054E4,6.707965E4,1.3088268E5,7.5190664E3,1.6142889E4,1.5555519E2,9.586733E3,2.531999E2,3.8618906E3,3.053359E3,4.468843E3,3.5393525E3,2.5116973E3,4.0201162E3,4.257905E3,5.9226353E3,6.226769E3,6.0852883E4],"tree_param":{"num_deleted":"0","num_feature":"2","num_nodes":"31","size_leaf_vector":"1"}},{"base_weights":[-5.3838193E-1,-5.390108E-1,2.1533895E0,-5.453521E-1,-5.0412256E-1,8.0718935E-2,2.2900212E0,-5.4732133E-2,-5.4218715E-1,-5.186054E-2,-4.9662027E-1,1.6739038E-1,2.485256E-1,-5.4265093E-2,-5.3183597E-2,-4.9927935E-2,-4.8817728E-2],"categories":[],"categories_nodes":[],"categories_segments":[],"categories_sizes":[],"default_left":[0,0,0,0,0,0,0,0,0,0,0,0,0,0,0,0,0],"id":32,"left_children":[1,3,5,7,9,-1,11,-1,13,-1,15,-1,-1,-1,-1,-1,-1],"loss_changes":[3.6471094E2,4.723828E1,1.273027E1,8.359375E-1,3.3320312E0,0E0,1.5652924E0,0E0,4.6875E-2,0E0,2.4609375E-1,0E0,0E0,0E0,0E0,0E0,0E0],"parents":[2147483647,0,0,1,1,2,2,3,3,4,4,6,6,8,8,10,10],"right_children":[2,4,6,8,10,-1,12,-1,14,-1,16,-1,-1,-1,-1,-1,-1],"split_conditions":[1E1,4.769684E0,4.7254353E0,2.1049192E0,4.9471803E0,8.0718935E-2,4.965008E0,-5.4732133E-2,4.709928E0,-5.186054E-2,5.081448E0,1.6739038E-1,2.485256E-1,-5.4265093E-2,-5.3183597E-2,-4.9927935E-2,-4.8817728E-2],"split_indices":[1,0,0,0,0,0,0,0,0,0,0,0,0,0,0,0,0],"split_type":[0,0,0,0,0,0,0,0,0,0,0,0,0,0,0,0,0],"sum_hessian":[2.1477961E5,2.1473025E5,4.93656E1,1.816914E5,3.303885E4,2.76801E0,4.659759E1,1.1189619E5,6.979521E4,1.1251075E4,2.1787777E4,1.3516457E1,3.3081135E1,6.675296E4,3.0422446E3,1.6525111E4,5.262666E3],"tree_param":{"num_deleted":"0","num_feature":"2","num_nodes":"17","size_leaf_vector":"1"}},{"base_weights":[-5.330197E-1],"categories":[],"categories_nodes":[],"categories_segments":[],"categories_sizes":[],"default_left":[0],"id":33,"left_children":[-1],"loss_changes":[0E0],"parents":[2147483647],"right_children":[-1],"split_conditions":[-5.330197E-2],"split_indices":[0],"split_type":[0],"sum_hessian":[2.046596E5],"tree_param":{"num_deleted":"0","num_feature":"2","num_nodes":"1","size_leaf_vector":"1"}},{"base_weights":[-4.070416E-1],"categories":[],"categories_nodes":[],"categories_segments":[],"categories_sizes":[],"default_left":[0],"id":34,"left_children":[-1],"loss_changes":[0E0],"parents":[2147483647],"right_children":[-1],"split_conditions":[-4.070416E-2],"split_indices":[0],"split_type":[0],"sum_hessian":[2.1142084E5],"tree_param":{"num_deleted":"0","num_feature":"2","num_nodes":"1","size_leaf_vector":"1"}},{"base_weights":[-2.99164E-1],"categories":[],"categories_nodes":[],"categories_segments":[],"categories_sizes":[],"default_left":[0],"id":35,"left_children":[-1],"loss_changes":[0E0],"parents":[2147483647],"right_children":[-1],"split_conditions":[-2.99164E-2],"split_indices":[0],"split_type":[0],"sum_hessian":[2.1745836E5],"tree_param":{"num_deleted":"0","num_feature":"2","num_nodes":"1","size_leaf_vector":"1"}},{"base_weights":[-1.0143488E-1,-1.8334791E-1,-1.0070869E-2,-2.1293892E-2,-1.420283E-2],"categories":[],"categories_nodes":[],"categories_segments":[],"categories_sizes":[],"default_left":[0,0,0,0,0],"id":36,"left_children":[1,3,-1,-1,-1],"loss_changes":[1.3657715E1,6.4180145E0,0E0,0E0,0E0],"parents":[2147483647,0,0,1,1],"right_children":[2,4,-1,-1,-1],"split_conditions":[-8.174972E0,3E0,-1.0070869E-2,-2.1293892E-2,-1.420283E-2],"split_indices":[0,1,0,0,0],"split_type":[0,0,0,0,0],"sum_hessian":[2.29917E5,2.0181858E3,2.2789881E5,1.9649773E3,5.3208496E1],"tree_param":{"num_deleted":"0","num_feature":"2","num_nodes":"5","size_leaf_vector":"1"}},{"base_weights":[-1.4513453E-2,-3.8181818E-1,1.7612332E-2,-5.271159E-1,-2.7057135E-1,-1.2689255E-1,1.8286936E-2,-5.391107E-1,-4.3253726E-1,-2.934918E-1,-1.8210292E-2,-1.498612E-2,-5.4302807E-3,-2.5200598E-2,1.8499037E-2,-5.4867525E-2,-5.230664E-2,-4.3949928E-2,-3.9884362E-2,-3.339099E-2,-2.5979236E-2,-4.7423183E-3,-3.3507805E-4,1.8002536E-3,2.2957076E-3],"categories":[],"categories_nodes":[],"categories_segments":[],"categories_sizes":[],"default_left":[0,0,0,0,0,0,0,0,0,0,0,0,0,0,0,0,0,0,0,0,0,0,0,0,0],"id":37,"left_children":[1,3,5,7,9,11,13,15,17,19,-1,-1,-1,21,23,-1,-1,-1,-1,-1,-1,-1,-1,-1,-1],"loss_changes":[2.7809553E3,3.062461E2,2.1129005E1,9.090332E0,4.6496643E1,3.5081654E0,1.9901657E0,8.3154297E-1,3.1459045E-1,1.4246948E1,0E0,0E0,0E0,1.4403155E0,4.7473907E-1,0E0,0E0,0E0,0E0,0E0,0E0,0E0,0E0,0E0,0E0],"parents":[2147483647,0,0,1,1,2,2,3,3,4,4,5,5,6,6,7,7,8,8,9,9,13,13,14,14],"right_children":[2,4,6,8,10,12,14,16,18,20,-1,-1,-1,22,24,-1,-1,-1,-1,-1,-1,-1,-1,-1,-1],"split_conditions":[-6.3259583E0,-7.451767E0,-6.2279005E0,-7.554501E0,4E0,4E0,-6.1272216E0,-7.866358E0,4E0,-6.9373035E0,-1.8210292E-2,-1.498612E-2,-5.4302807E-3,4E0,1E0,-5.4867525E-2,-5.230664E-2,-4.3949928E-2,-3.9884362E-2,-3.339099E-2,-2.5979236E-2,-4.7423183E-3,-3.3507805E-4,1.8002536E-3,2.2957076E-3],"split_indices":[0,0,0,0,1,1,0,0,1,0,0,0,0,1,1,0,0,0,0,0,0,0,0,0,0],"split_type":[0,0,0,0,0,0,0,0,0,0,0,0,0,0,0,0,0,0,0,0,0,0,0,0,0],"sum_hessian":[2.3567358E5,1.8954107E4,2.1671947E5,8.217554E3,1.0736554E4,1.00615875E3,2.1571331E5,7.2884976E3,9.2905664E2,1.0522424E4,2.141295E2,9.646896E2,4.1469196E1,1.0464196E3,2.1466689E5,4.545554E3,2.742943E3,9.2435034E2,4.706336E0,4.7802383E3,5.7421855E3,9.979722E2,4.8447353E1,1.9315931E5,2.1507574E4],"tree_param":{"num_deleted":"0","num_feature":"2","num_nodes":"25","size_leaf_vector":"1"}},{"base_weights":[-9.737905E-2,-4.9914393E-1,-1.2369815E-2,-5.3641444E-1,-3.589747E-1,-1.925059E-1,-1.1423996E-2,-5.460536E-1,-4.787209E-1,-3.767462E-1,-2.5575688E-2,-2.1518394E-2,-1.0196495E-2,-6.632125E-2,-1.112648E-3,-5.482697E-2,-5.2575547E-2,-4.8544437E-2,-4.476946E-2,-4.3094765E-2,-3.340015E-2,-9.139935E-3,-3.8723864E-3],"categories":[],"categories_nodes":[],"categories_segments":[],"categories_sizes":[],"default_left":[0,0,0,0,0,0,0,0,0,0,0,0,0,0,0,0,0,0,0,0,0,0,0],"id":38,"left_children":[1,3,5,7,9,11,13,15,17,19,-1,-1,-1,21,-1,-1,-1,-1,-1,-1,-1,-1,-1],"loss_changes":[7.849952E3,2.095E2,3.2318806E1,1.7370117E1,3.2614258E1,4.2835083E0,3.0814857E0,9.326172E-1,1.8925781E0,1.9249756E1,0E0,0E0,0E0,1.9891329E0,0E0,0E0,0E0,0E0,0E0,0E0,0E0,0E0,0E0],"parents":[2147483647,0,0,1,1,2,2,3,3,4,4,5,5,6,6,7,7,8,8,9,9,13,13],"right_children":[2,4,6,8,10,12,14,16,18,20,-1,-1,-1,22,-1,-1,-1,-1,-1,-1,-1,-1,-1],"split_conditions":[-4.0424495E0,-4.867533E0,-3.9524214E0,-5.344271E0,5E0,5E0,-3.8629947E0,-5.6343365E0,5E0,-4.4956512E0,-2.5575688E-2,-2.1518394E-2,-1.0196495E-2,5E0,-1.112648E-3,-5.482697E-2,-5.2575547E-2,-4.8544437E-2,-4.476946E-2,-4.3094765E-2,-3.340015E-2,-9.139935E-3,-3.8723864E-3],"split_indices":[0,0,0,0,1,1,0,0,1,0,0,0,0,1,0,0,0,0,0,0,0,0,0],"split_type":[0,0,0,0,0,0,0,0,0,0,0,0,0,0,0,0,0,0,0,0,0,0,0],"sum_hessian":[2.2984088E5,4.013809E4,1.897028E5,3.1705012E4,8.433078E3,9.897898E2,1.88713E5,2.7158957E4,4.5460547E3,8.369832E3,6.3246998E1,9.676019E2,2.2187849E1,1.01601996E3,1.8769698E5,2.4462229E4,2.6967285E3,4.5393535E3,6.7010846E0,3.6863562E3,4.6834756E3,9.955786E2,2.0441385E1],"tree_param":{"num_deleted":"0","num_feature":"2","num_nodes":"23","size_leaf_vector":"1"}},{"base_weights":[1.4399473E-1,-5.120521E-1,3.4461424E-1,-5.440956E-1,-3.4485024E-1,-5.5665758E-2,3.4675005E-1,-5.473611E-1,-4.8832062E-1,-3.6237386E-1,-8.371894E-3,-8.366843E-3,1.4554215E-2,1.906076E-1,3.4765273E-2,-5.4780275E-2,-5.2453805E-2,-5.0698962E-2,-4.511462E-2,-4.015958E-2,-2.7195245E-2,1.7299179E-2,2.6913017E-2],"categories":[],"categories_nodes":[],"categories_segments":[],"categories_sizes":[],"default_left":[0,0,0,0,0,0,0,0,0,0,0,0,0,0,0,0,0,0,0,0,0,0,0],"id":39,"left_children":[1,3,5,7,9,11,13,15,17,19,-1,-1,-1,21,-1,-1,-1,-1,-1,-1,-1,-1,-1],"loss_changes":[3.2501629E4,3.0965332E2,1.6169531E2,8.571289E0,8.153088E1,1.0663523E1,2.6447266E1,1.7382812E-1,1.640564E0,3.2590088E1,0E0,0E0,0E0,2.9728127E0,0E0,0E0,0E0,0E0,0E0,0E0,0E0,0E0,0E0],"parents":[2147483647,0,0,1,1,2,2,3,3,4,4,5,5,6,6,7,7,8,8,9,9,13,13],"right_children":[2,4,6,8,10,12,14,16,18,20,-1,-1,-1,22,-1,-1,-1,-1,-1,-1,-1,-1,-1],"split_conditions":[-2.2432795E0,-3.1718857E0,-2.1512682E0,-3.4275072E0,6E0,6E0,-2.0603862E0,-3.5127814E0,-3.2567148E0,-2.5246854E0,-8.371894E-3,-8.366843E-3,1.4554215E-2,6E0,3.4765273E-2,-5.4780275E-2,-5.2453805E-2,-5.0698962E-2,-4.511462E-2,-4.015958E-2,-2.7195245E-2,1.7299179E-2,2.6913017E-2],"split_indices":[0,0,0,0,1,1,0,0,0,0,0,0,0,1,0,0,0,0,0,0,0,0,0],"split_type":[0,0,0,0,0,0,0,0,0,0,0,0,0,0,0,0,0,0,0,0,0,0,0],"sum_hessian":[2.4694088E5,5.78298E4,1.8911108E5,4.852749E4,9.3023125E3,1.0035697E3,1.881075E5,4.5835113E4,2.6923752E3,9.219089E3,8.322377E1,9.7647974E2,2.7089987E1,1.0824633E3,1.8702505E5,4.494237E4,8.927422E2,1.7838752E3,9.084999E2,6.4275728E3,2.791516E3,1.051265E3,3.1198214E1],"tree_param":{"num_deleted":"0","num_feature":"2","num_nodes":"23","size_leaf_vector":"1"}},{"base_weights":[4.9696073E-1,-5.1173365E-1,9.0804636E-1,-5.382803E-1,-2.1054769E-1,5.1825535E-1,9.103623E-2,-5.458713E-1,-4.66521E-1,-3.161208E-1,2.7257841E-2,4.9885444E-2,7.1430884E-2,-5.4699082E-2,-5.2957255E-2,-4.7400557E-2,-3.74414E-2,-3.376266E-2,-1.4443149E-2,-6.011413E-3,1.1342867E-2],"categories":[],"categories_nodes":[],"categories_segments":[],"categories_sizes":[],"default_left":[0,0,0,0,0,0,0,0,0,0,0,0,0,0,0,0,0,0,0,0,0],"id":40,"left_children":[1,3,5,7,9,11,-1,13,15,17,19,-1,-1,-1,-1,-1,-1,-1,-1,-1,-1],"loss_changes":[1.1522669E5,6.4319727E2,1.7771875E2,4.0021484E1,1.6367117E2,7.632019E0,0E0,9.296875E-1,9.884888E0,3.4021973E1,1.5103661E1,0E0,0E0,0E0,0E0,0E0,0E0,0E0,0E0,0E0,0E0],"parents":[2147483647,0,0,1,1,2,2,3,3,4,4,5,5,7,7,8,8,9,9,10,10],"right_children":[2,4,6,8,10,12,-1,14,16,18,20,-1,-1,-1,-1,-1,-1,-1,-1,-1,-1],"split_conditions":[-9.564315E-2,-6.245803E-1,-2.1958934E-2,-1.272512E0,-2.436992E-1,7E0,9.103623E-2,-1.7004718E0,7E0,7E0,-1.694743E-1,4.9885444E-2,7.1430884E-2,-5.4699082E-2,-5.2957255E-2,-4.7400557E-2,-3.74414E-2,-3.376266E-2,-1.4443149E-2,-6.011413E-3,1.1342867E-2],"split_indices":[0,0,0,0,0,1,0,0,1,1,0,0,0,0,0,0,0,0,0,0,0],"split_type":[0,0,0,0,0,0,0,0,0,0,0,0,0,0,0,0,0,0,0,0,0],"sum_hessian":[2.778804E5,8.045792E4,1.974225E5,7.3940016E4,6.517899E3,1.1673882E3,1.9625511E5,6.686061E4,7.0794106E3,4.5137173E3,2.0041818E3,1.1418462E3,2.5541945E1,6.2532996E4,4.3276113E3,7.0658906E3,1.3519914E1,4.476613E3,3.710438E1,9.9530524E2,1.0088765E3],"tree_param":{"num_deleted":"0","num_feature":"2","num_nodes":"21","size_leaf_vector":"1"}},{"base_weights":[4.635117E-1,-4.922011E-1,1.1281755E0,-5.347892E-1,-1.5377371E-1,5.944642E-1,1.13913536E-1,-5.443371E-1,-4.0457913E-1,-2.3720291E-1,1.2429651E-1,4.7634643E-1,7.957568E-1,-5.4670077E-2,-5.0864812E-2,-4.1700512E-2,-3.4428146E-2,-2.6210278E-2,-5.6453203E-3,5.5767344E-3,2.3441693E-2,3.9551143E-2,5.429637E-2,7.768028E-2,8.667998E-2],"categories":[],"categories_nodes":[],"categories_segments":[],"categories_sizes":[],"default_left":[0,0,0,0,0,0,0,0,0,0,0,0,0,0,0,0,0,0,0,0,0,0,0,0,0],"id":41,"left_children":[1,3,5,7,9,11,-1,13,15,17,19,21,23,-1,-1,-1,-1,-1,-1,-1,-1,-1,-1,-1,-1],"loss_changes":[1.7406262E5,1.6199277E3,9.447031E2,1.23896484E2,2.9152417E2,7.699182E1,0E0,7.5703125E0,1.1030762E1,8.589734E1,2.1875122E1,1.084198E1,2.4836426E0,0E0,0E0,0E0,0E0,0E0,0E0,0E0,0E0,0E0,0E0,0E0,0E0],"parents":[2147483647,0,0,1,1,2,2,3,3,4,4,5,5,7,7,8,8,9,9,10,10,11,11,12,12],"right_children":[2,4,6,8,10,12,-1,14,16,18,20,22,24,-1,-1,-1,-1,-1,-1,-1,-1,-1,-1,-1,-1],"split_conditions":[2.204662E0,1.4600352E0,2.3451042E0,9.841558E-1,2.053755E0,2.296362E0,1.13913536E-1,5.3313005E-1,8E0,8E0,2.1488194E0,2.248408E0,8E0,-5.4670077E-2,-5.0864812E-2,-4.1700512E-2,-3.4428146E-2,-2.6210278E-2,-5.6453203E-3,5.5767344E-3,2.3441693E-2,3.9551143E-2,5.429637E-2,7.768028E-2,8.667998E-2],"split_indices":[0,0,0,0,0,0,0,0,1,1,0,0,1,0,0,0,0,0,0,0,0,0,0,0,0],"split_type":[0,0,0,0,0,0,0,0,0,0,0,0,0,0,0,0,0,0,0,0,0,0,0,0,0],"sum_hessian":[2.7401428E5,1.1239829E5,1.61616E5,9.983442E4,1.2563869E4,3.2531191E3,1.5836288E5,9.3011055E4,6.823363E3,9.66441E3,2.8994587E3,2.0522395E3,1.2008795E3,8.72201E4,5.7909585E3,6.79859E3,2.4772661E1,9.496689E3,1.6772012E2,1.7881681E3,1.1112908E3,9.3031274E2,1.1219268E3,1.1473555E3,5.3524082E1],"tree_param":{"num_deleted":"0","num_feature":"2","num_nodes":"25","size_leaf_vector":"1"}},{"base_weights":[4.3689558E-1,-4.4754735E-1,1.8255275E0,-5.1344013E-1,1.8184063E-1,1.1679134E0,1.9385226E0,-5.3949666E-1,-2.8919825E-1,2.4460156E-2,4.3529868E-1,8.8568324E-1,1.3390497E0,1.6898875E0,1.968407E0,-5.4454815E-2,-4.663493E-2,-3.1048967E-2,-1.6579976E-2,-2.7116167E-4,2.2987943E-2,3.3898007E-2,5.2647013E-2,7.560664E-2,9.6393034E-2,1.23340905E-1,1.4659718E-1,1.6334699E-1,1.7429678E-1,1.873611E-1,1.9799559E-1],"categories":[],"categories_nodes":[],"categories_segments":[],"categories_sizes":[],"default_left":[0,0,0,0,0,0,0,0,0,0,0,0,0,0,0,0,0,0,0,0,0,0,0,0,0,0,0,0,0,0,0],"id":42,"left_children":[1,3,5,7,9,11,13,15,17,19,21,23,25,27,29,-1,-1,-1,-1,-1,-1,-1,-1,-1,-1,-1,-1,-1,-1,-1,-1],"loss_changes":[3.3281938E5,6.865754E3,7.8326875E3,8.7546484E2,6.258552E2,7.4569336E2,6.6525E2,4.935547E1,8.5928955E1,1.0139862E2,5.260132E1,5.8501953E1,1.27234375E2,2.6089844E1,8.415625E1,0E0,0E0,0E0,0E0,0E0,0E0,0E0,0E0,0E0,0E0,0E0,0E0,0E0,0E0,0E0,0E0],"parents":[2147483647,0,0,1,1,2,2,3,3,4,4,5,5,6,6,7,7,8,8,9,9,10,10,11,11,12,12,13,13,14,14],"right_children":[2,4,6,8,10,12,14,16,18,20,22,24,26,28,30,-1,-1,-1,-1,-1,-1,-1,-1,-1,-1,-1,-1,-1,-1,-1,-1],"split_conditions":[4.453533E0,4.0473833E0,4.677512E0,3.457681E0,4.3224287E0,4.5533566E0,4.769684E0,3.044912E0,9E0,9E0,4.3892374E0,4.4940634E0,4.6263223E0,4.7254353E0,4.837405E0,-5.4454815E-2,-4.663493E-2,-3.1048967E-2,-1.6579976E-2,-2.7116167E-4,2.2987943E-2,3.3898007E-2,5.2647013E-2,7.560664E-2,9.6393034E-2,1.23340905E-1,1.4659718E-1,1.6334699E-1,1.7429678E-1,1.873611E-1,1.9799559E-1],"split_indices":[0,0,0,0,0,0,0,0,1,1,0,0,0,0,0,0,0,0,0,0,0,0,0,0,0,0,0,0,0,0,0],"split_type":[0,0,0,0,0,0,0,0,0,0,0,0,0,0,0,0,0,0,0,0,0,0,0,0,0,0,0,0,0,0,0],"sum_hessian":[2.7098728E5,1.655478E5,1.05439484E5,1.4985875E5,1.5689044E4,1.5462335E4,8.997715E4,1.342569E5,1.5601845E4,9.679697E3,6.0093467E3,5.839037E3,9.623298E3,9.660502E3,8.031665E4,1.2557822E5,8.678692E3,1.5453548E4,1.4829713E2,9.425281E3,2.5441516E2,2.9244802E3,3.0848665E3,2.2020264E3,3.6370107E3,5.257802E3,4.365496E3,4.698438E3,4.962064E3,8.739901E3,7.157675E4],"tree_param":{"num_deleted":"0","num_feature":"2","num_nodes":"31","size_leaf_vector":"1"}},{"base_weights":[-5.358115E-1,-5.364668E-1,1.911837E0,-5.4338074E-1,-4.9604157E-1,6.8768516E-2,2.0079587E0,-5.471406E-2,-5.401509E-1,-5.0976056E-1,-4.8736197E-1,1.6486199E-1,2.2594693E-1,-5.40617E-2,-5.2792158E-2,-5.147424E-2,-5.0245803E-2,-4.9021747E-2,-4.7912113E-2],"categories":[],"categories_nodes":[],"categories_segments":[],"categories_sizes":[],"default_left":[0,0,0,0,0,0,0,0,0,0,0,0,0,0,0,0,0,0,0],"id":43,"left_children":[1,3,5,7,9,-1,11,-1,13,15,17,-1,-1,-1,-1,-1,-1,-1,-1],"loss_changes":[3.2902734E2,5.6875E1,8.701126E0,1.8320312E0,3.3085938E0,0E0,1.0204315E0,0E0,2.5E-1,1.6186523E-1,1.9580078E-1,0E0,0E0,0E0,0E0,0E0,0E0,0E0,0E0],"parents":[2147483647,0,0,1,1,2,2,3,3,4,4,6,6,8,8,9,9,10,10],"right_children":[2,4,6,8,10,-1,12,-1,14,16,18,-1,-1,-1,-1,-1,-1,-1,-1],"split_conditions":[1E1,4.769684E0,4.7254353E0,-2.1958934E-2,4.965008E0,6.8768516E-2,5.0210123E0,-5.471406E-2,4.69382E0,4.896554E0,5.081448E0,1.6486199E-1,2.2594693E-1,-5.40617E-2,-5.2792158E-2,-5.147424E-2,-5.0245803E-2,-4.9021747E-2,-4.7912113E-2],"split_indices":[1,0,0,0,0,0,0,0,0,0,0,0,0,0,0,0,0,0,0],"split_type":[0,0,0,0,0,0,0,0,0,0,0,0,0,0,0,0,0,0,0],"sum_hessian":[2.0450395E5,2.0445E5,5.3954346E1,1.7457927E5,2.9870725E4,2.447549E0,5.1506798E1,8.0592555E4,9.398671E4,1.1552726E4,1.8318E4,2.4317997E1,2.71888E1,9.0494516E4,3.4921934E3,6.8262974E3,4.726428E3,1.3560668E4,4.757332E3],"tree_param":{"num_deleted":"0","num_feature":"2","num_nodes":"19","size_leaf_vector":"1"}},{"base_weights":[-5.306809E-1],"categories":[],"categories_nodes":[],"categories_segments":[],"categories_sizes":[],"default_left":[0],"id":44,"left_children":[-1],"loss_changes":[0E0],"parents":[2147483647],"right_children":[-1],"split_conditions":[-5.306809E-2],"split_indices":[0],"split_type":[0],"sum_hessian":[1.9497227E5],"tree_param":{"num_deleted":"0","num_feature":"2","num_nodes":"1","size_leaf_vector":"1"}},{"base_weights":[-4.0016395E-1],"categories":[],"categories_nodes":[],"categories_segments":[],"categories_sizes":[],"default_left":[0],"id":45,"left_children":[-1],"loss_changes":[0E0],"parents":[2147483647],"right_children":[-1],"split_conditions":[-4.0016394E-2],"split_indices":[0],"split_type":[0],"sum_hessian":[2.0377666E5],"tree_param":{"num_deleted":"0","num_feature":"2","num_nodes":"1","size_leaf_vector":"1"}},{"base_weights":[-2.9131374E-1,-2.9154925E-2,-2.8918272E-2],"categories":[],"categories_nodes":[],"categories_segments":[],"categories_sizes":[],"default_left":[0,0,0],"id":46,"left_children":[1,-1,-1],"loss_changes":[2.1484375E-2,0E0,0E0],"parents":[2147483647,0,0],"right_children":[2,-1,-1],"split_conditions":[1E0,-2.9154925E-2,-2.8918272E-2],"split_indices":[1,0,0],"split_type":[0,0,0],"sum_hessian":[2.1173466E5,1.9054095E5,2.1193703E4],"tree_param":{"num_deleted":"0","num_feature":"2","num_nodes":"3","size_leaf_vector":"1"}},{"base_weights":[-9.678858E-2,-1.8941753E-1,-9.593975E-3,-2.194049E-2,-1.4267864E-2],"categories":[],"categories_nodes":[],"categories_segments":[],"categories_sizes":[],"default_left":[0,0,0,0,0],"id":47,"left_children":[1,3,-1,-1,-1],"loss_changes":[1.7897217E1,7.3062515E0,0E0,0E0,0E0],"parents":[2147483647,0,0,1,1],"right_children":[2,4,-1,-1,-1],"split_conditions":[-8.174972E0,3E0,-9.593975E-3,-2.194049E-2,-1.4267864E-2],"split_indices":[0,1,0,0,0],"split_type":[0,0,0,0,0],"sum_hessian":[2.2785442E5,2.067035E3,2.2578738E5,2.010965E3,5.6069958E1],"tree_param":{"num_deleted":"0","num_feature":"2","num_nodes":"5","size_leaf_vector":"1"}},{"base_weights":[-1.2225822E-2,-3.831672E-1,2.0421138E-2,-5.2597743E-1,-2.75221E-1,-1.436503E-1,2.1211065E-2,-5.3826636E-1,-4.2973495E-1,-2.9739732E-1,-1.8137304E-2,-1.5982598E-2,-6.1219614E-3,-4.5303818E-2,2.1548657E-2,-5.4824423E-2,-5.2159406E-2,-4.377776E-2,-4.005992E-2,-3.477181E-2,-2.687285E-2,-6.1219614E-3,-1.187758E-3,2.135542E-3,2.3284447E-3],"categories":[],"categories_nodes":[],"categories_segments":[],"categories_sizes":[],"default_left":[0,0,0,0,0,0,0,0,0,0,0,0,0,0,0,0,0,0,0,0,0,0,0,0,0],"id":48,"left_children":[1,3,5,7,9,11,13,15,17,19,-1,-1,-1,21,23,-1,-1,-1,-1,-1,-1,-1,-1,-1,-1],"loss_changes":[2.8498704E3,2.933147E2,2.8035698E1,9.458984E0,4.744055E1,2.6116257E0,4.8345795E0,9.2211914E-1,3.3091736E-1,1.5229004E1,0E0,0E0,0E0,1.639472E0,7.134247E-2,0E0,0E0,0E0,0E0,0E0,0E0,0E0,0E0,0E0,0E0],"parents":[2147483647,0,0,1,1,2,2,3,3,4,4,5,5,6,6,7,7,8,8,9,9,13,13,14,14],"right_children":[2,4,6,8,10,12,14,16,18,20,-1,-1,-1,22,24,-1,-1,-1,-1,-1,-1,-1,-1,-1,-1],"split_conditions":[-6.3259583E0,-7.451767E0,-6.2279005E0,-7.554501E0,4E0,4E0,-6.1272216E0,-7.866358E0,4E0,-7.0371685E0,-1.8137304E-2,-1.5982598E-2,-6.1219614E-3,4E0,1E0,-5.4824423E-2,-5.2159406E-2,-4.377776E-2,-4.005992E-2,-3.477181E-2,-2.687285E-2,-6.1219614E-3,-1.187758E-3,2.135542E-3,2.3284447E-3],"split_indices":[0,0,0,0,1,1,0,0,1,0,0,0,0,1,1,0,0,0,0,0,0,0,0,0,0],"split_type":[0,0,0,0,0,0,0,0,0,0,0,0,0,0,0,0,0,0,0,0,0,0,0,0,0],"sum_hessian":[2.3532823E5,1.903524E4,2.16293E5,8.192667E3,1.0842572E4,1.0354923E3,2.152575E5,7.2609443E3,9.317227E2,1.0620113E4,2.2245898E2,9.923081E2,4.318425E1,1.0863374E3,2.1417117E5,4.5224966E3,2.7384475E3,9.2733264E2,4.3901086E0,3.850468E3,6.7696455E3,1.0374807E3,4.885678E1,1.9272862E5,2.1442547E4],"tree_param":{"num_deleted":"0","num_feature":"2","num_nodes":"25","size_leaf_vector":"1"}},{"base_weights":[-9.2963524E-2,-4.9841854E-1,-6.892284E-3,-5.357739E-1,-3.5932297E-1,-1.9320492E-1,-5.8961837E-3,-5.454892E-1,-4.7786546E-1,-3.7706026E-1,-2.5265543E-2,-2.1678295E-2,-9.955055E-3,-7.731401E-2,-5.495047E-4,-5.477382E-2,-5.247735E-2,-4.8462443E-2,-4.4754844E-2,-4.2074163E-2,-3.233997E-2,-9.9302E-3,-4.140453E-3],"categories":[],"categories_nodes":[],"categories_segments":[],"categories_sizes":[],"default_left":[0,0,0,0,0,0,0,0,0,0,0,0,0,0,0,0,0,0,0,0,0,0,0],"id":49,"left_children":[1,3,5,7,9,11,13,15,17,19,-1,-1,-1,21,-1,-1,-1,-1,-1,-1,-1,-1,-1],"loss_changes":[7.942685E3,2.0689062E2,3.484146E1,1.7414062E1,3.353784E1,4.652252E0,5.3495436E0,9.6533203E-1,1.8498535E0,1.9497437E1,0E0,0E0,0E0,2.075964E0,0E0,0E0,0E0,0E0,0E0,0E0,0E0,0E0,0E0],"parents":[2147483647,0,0,1,1,2,2,3,3,4,4,5,5,6,6,7,7,8,8,9,9,13,13],"right_children":[2,4,6,8,10,12,14,16,18,20,-1,-1,-1,22,-1,-1,-1,-1,-1,-1,-1,-1,-1],"split_conditions":[-4.0424495E0,-4.867533E0,-3.9524214E0,-5.344271E0,5E0,5E0,-3.8629947E0,-5.6343365E0,5E0,-4.40243E0,-2.5265543E-2,-2.1678295E-2,-9.955055E-3,5E0,-5.495047E-4,-5.477382E-2,-5.247735E-2,-4.8462443E-2,-4.4754844E-2,-4.2074163E-2,-3.233997E-2,-9.9302E-3,-4.140453E-3],"split_indices":[0,0,0,0,1,1,0,0,1,0,0,0,0,1,0,0,0,0,0,0,0,0,0],"split_type":[0,0,0,0,0,0,0,0,0,0,0,0,0,0,0,0,0,0,0,0,0,0,0],"sum_hessian":[2.2759612E5,3.9853555E4,1.8774256E5,3.1414154E4,8.439399E3,9.9738153E2,1.8674519E5,2.6893768E4,4.5203857E3,8.375291E3,6.410874E1,9.7540186E2,2.1979687E1,1.0419738E3,1.857032E5,2.4236998E4,2.656769E3,4.5135537E3,6.8323627E0,4.613179E3,3.7621118E3,1.02002203E3,2.195175E1],"tree_param":{"num_deleted":"0","num_feature":"2","num_nodes":"23","size_leaf_vector":"1"}},{"base_weights":[1.3489513E-1,-5.1105E-1,3.274419E-1,-5.432951E-1,-3.4385827E-1,5.0776344E-2,3.305761E-2,-5.466601E-1,-4.8558444E-1,-3.6241814E-1,-9.180404E-3,-5.3930707E-2,1.4558187E-1,-5.4711033E-2,-5.2338745E-2,-5.0444957E-2,-4.4799533E-2,-4.0023297E-2,-2.7583411E-2,-7.856102E-3,4.5825583E-3,1.3083594E-2,1.906762E-2],"categories":[],"categories_nodes":[],"categories_segments":[],"categories_sizes":[],"default_left":[0,0,0,0,0,0,0,0,0,0,0,0,0,0,0,0,0,0,0,0,0,0,0],"id":50,"left_children":[1,3,5,7,9,11,-1,13,15,17,-1,19,21,-1,-1,-1,-1,-1,-1,-1,-1,-1,-1],"loss_changes":[3.102367E4,3.0861133E2,1.6660742E2,9.061523E0,8.3387695E1,2.1386633E1,0E0,1.875E-1,1.6564331E0,2.9931274E1,0E0,5.210466E0,1.5981178E0,0E0,0E0,0E0,0E0,0E0,0E0,0E0,0E0,0E0,0E0],"parents":[2147483647,0,0,1,1,2,2,3,3,4,4,5,5,7,7,8,8,9,9,11,11,12,12],"right_children":[2,4,6,8,10,12,-1,14,16,18,-1,20,22,-1,-1,-1,-1,-1,-1,-1,-1,-1,-1],"split_conditions":[-2.2432795E0,-3.1718857E0,-2.0603862E0,-3.4275072E0,6E0,-2.1512682E0,3.305761E-2,-3.5127814E0,-3.2567148E0,-2.5246854E0,-9.180404E-3,6E0,6E0,-5.4711033E-2,-5.2338745E-2,-5.0444957E-2,-4.4799533E-2,-4.0023297E-2,-2.7583411E-2,-7.856102E-3,4.5825583E-3,1.3083594E-2,1.906762E-2],"split_indices":[0,0,0,0,1,0,0,0,0,0,0,1,1,0,0,0,0,0,0,0,0,0,0],"split_type":[0,0,0,0,0,0,0,0,0,0,0,0,0,0,0,0,0,0,0,0,0,0,0],"sum_hessian":[2.4943488E5,5.72785E4,1.9215638E5,4.8015785E4,9.262716E3,2.152641E3,1.9000373E5,4.536231E4,2.653475E3,9.174396E3,8.8320015E1,1.0231092E3,1.129532E3,4.4479336E4,8.8297473E2,1.7585028E3,8.949723E2,6.3830356E3,2.7913604E3,9.945906E2,2.8518648E1,1.0974553E3,3.20766E1],"tree_param":{"num_deleted":"0","num_feature":"2","num_nodes":"23","size_leaf_vector":"1"}},{"base_weights":[4.533316E-1,-5.1055294E-1,8.187054E-1,-5.373191E-1,-2.113654E-1,4.5378807E-1,8.208772E-2,-5.4506236E-1,-4.633582E-1,-3.1261724E-1,1.2021069E-2,4.3397993E-2,6.3733265E-2,-5.4617E-2,-5.2876692E-2,-4.710254E-2,-3.7434228E-2,-3.337331E-2,-1.5029809E-2,-7.747095E-3,9.950342E-3],"categories":[],"categories_nodes":[],"categories_segments":[],"categories_sizes":[],"default_left":[0,0,0,0,0,0,0,0,0,0,0,0,0,0,0,0,0,0,0,0,0],"id":51,"left_children":[1,3,5,7,9,11,-1,13,15,17,19,-1,-1,-1,-1,-1,-1,-1,-1,-1,-1],"loss_changes":[1.0162145E5,6.3504297E2,1.6540625E2,4.1441406E1,1.4735486E2,7.935852E0,0E0,9.042969E-1,9.564819E0,3.1415436E1,1.5922734E1,0E0,0E0,0E0,0E0,0E0,0E0,0E0,0E0,0E0,0E0],"parents":[2147483647,0,0,1,1,2,2,3,3,4,4,5,5,7,7,8,8,9,9,10,10],"right_children":[2,4,6,8,10,12,-1,14,16,18,20,-1,-1,-1,-1,-1,-1,-1,-1,-1,-1],"split_conditions":[-9.564315E-2,-6.245803E-1,-2.1958934E-2,-1.272512E0,-2.436992E-1,7E0,8.208772E-2,-1.7004718E0,7E0,7E0,-1.694743E-1,4.3397993E-2,6.3733265E-2,-5.4617E-2,-5.2876692E-2,-4.710254E-2,-3.7434228E-2,-3.337331E-2,-1.5029809E-2,-7.747095E-3,9.950342E-3],"split_indices":[0,0,0,0,0,1,0,0,1,1,0,0,0,0,0,0,0,0,0,0,0],"split_type":[0,0,0,0,0,0,0,0,0,0,0,0,0,0,0,0,0,0,0,0,0],"sum_hessian":[2.8854903E5,7.931349E4,2.0923555E5,7.2799805E4,6.5136885E3,1.2390957E3,2.0799645E5,6.589473E4,6.9050815E3,4.4818516E3,2.0318372E3,1.2110043E3,2.8091492E1,6.1670367E4,4.224356E3,6.891401E3,1.3680414E1,4.4434897E3,3.836181E1,1.0044386E3,1.0273986E3],"tree_param":{"num_deleted":"0","num_feature":"2","num_nodes":"21","size_leaf_vector":"1"}},{"base_weights":[4.2532507E-1,-4.8949862E-1,1.0078416E0,-5.3330946E-1,-1.4494792E-1,5.374679E-1,1.0172687E0,-5.4318243E-1,-3.965914E-1,-2.4546072E-1,8.1279196E-2,4.3509707E-1,7.102482E-1,9.6579885E-1,1.01771034E-1,-5.4564632E-2,-5.0526213E-2,-4.0976785E-2,-3.3912867E-2,-2.7062971E-2,-8.209077E-3,1.4047669E-3,2.393426E-2,3.554019E-2,5.0062638E-2,6.975819E-2,7.773683E-2,9.4826736E-2,9.917546E-2],"categories":[],"categories_nodes":[],"categories_segments":[],"categories_sizes":[],"default_left":[0,0,0,0,0,0,0,0,0,0,0,0,0,0,0,0,0,0,0,0,0,0,0,0,0,0,0,0,0],"id":52,"left_children":[1,3,5,7,9,11,13,15,17,19,21,23,25,27,-1,-1,-1,-1,-1,-1,-1,-1,-1,-1,-1,-1,-1,-1,-1],"loss_changes":[1.5090484E5,1.6628828E3,7.666719E2,1.3170898E2,2.8264185E2,5.9854065E1,2.859375E0,8.238281E0,1.0883423E1,7.133057E1,4.0636185E1,1.0990143E1,1.3988037E0,6.687012E-1,0E0,0E0,0E0,0E0,0E0,0E0,0E0,0E0,0E0,0E0,0E0,0E0,0E0,0E0,0E0],"parents":[2147483647,0,0,1,1,2,2,3,3,4,4,5,5,6,6,7,7,8,8,9,9,10,10,11,11,12,12,13,13],"right_children":[2,4,6,8,10,12,14,16,18,20,22,24,26,28,-1,-1,-1,-1,-1,-1,-1,-1,-1,-1,-1,-1,-1,-1,-1],"split_conditions":[2.204662E0,1.4600352E0,2.3451042E0,9.841558E-1,2.0008488E0,2.296362E0,2.3924294E0,5.3313005E-1,8E0,8E0,2.1488194E0,2.248408E0,8E0,8E0,1.01771034E-1,-5.4564632E-2,-5.0526213E-2,-4.0976785E-2,-3.3912867E-2,-2.7062971E-2,-8.209077E-3,1.4047669E-3,2.393426E-2,3.554019E-2,5.0062638E-2,6.975819E-2,7.773683E-2,9.4826736E-2,9.917546E-2],"split_indices":[0,0,0,0,0,0,0,0,1,1,0,0,1,1,0,0,0,0,0,0,0,0,0,0,0,0,0,0,0],"split_type":[0,0,0,0,0,0,0,0,0,0,0,0,0,0,0,0,0,0,0,0,0,0,0,0,0,0,0,0,0],"sum_hessian":[2.8317478E5,1.1016474E5,1.7301005E5,9.773664E4,1.24281045E4,3.400419E3,1.6960962E5,9.1151234E4,6.585402E3,8.604871E3,3.8232332E3,2.1374915E3,1.2629275E3,1.4614646E3,1.6814817E5,8.557746E4,5.5737764E3,6.5615845E3,2.3817722E1,8.467404E3,1.3746725E2,2.6830845E3,1.1401486E3,9.6739374E2,1.1700978E3,1.208113E3,5.481444E1,1.3936295E3,6.7835E1],"tree_param":{"num_deleted":"0","num_feature":"2","num_nodes":"29","size_leaf_vector":"1"}},{"base_weights":[4.057383E-1,-4.4314867E-1,1.5826838E0,-5.1607776E-1,1.342435E-1,1.0433261E0,1.672645E0,-5.377405E-1,-2.9226366E-1,-4.3372188E-2,3.6278257E-1,8.112358E-1,1.1805114E0,1.4963964E0,1.7024856E0,-5.4304607E-2,-4.587255E-2,-3.1449392E-2,-1.9091714E-2,-6.9199577E-3,1.5970519E-2,2.47199E-2,4.668631E-2,7.348331E-2,9.1766395E-2,1.0911143E-1,1.2871253E-1,1.4333735E-1,1.5552485E-1,1.6392614E-1,1.7071667E-1],"categories":[],"categories_nodes":[],"categories_segments":[],"categories_sizes":[],"default_left":[0,0,0,0,0,0,0,0,0,0,0,0,0,0,0,0,0,0,0,0,0,0,0,0,0,0,0,0,0,0,0],"id":53,"left_children":[1,3,5,7,9,11,13,15,17,19,21,23,25,27,29,-1,-1,-1,-1,-1,-1,-1,-1,-1,-1,-1,-1,-1,-1,-1,-1],"loss_changes":[2.7651056E5,6.7707305E3,5.6253125E3,6.92E2,7.319851E2,5.2696484E2,5.2021875E2,5.43125E1,6.130664E1,1.01049164E2,9.475122E1,4.943872E1,9.7896484E1,5.118164E1,2.2359375E1,0E0,0E0,0E0,0E0,0E0,0E0,0E0,0E0,0E0,0E0,0E0,0E0,0E0,0E0,0E0,0E0],"parents":[2147483647,0,0,1,1,2,2,3,3,4,4,5,5,6,6,7,7,8,8,9,9,10,10,11,11,12,12,13,13,14,14],"right_children":[2,4,6,8,10,12,14,16,18,20,22,24,26,28,30,-1,-1,-1,-1,-1,-1,-1,-1,-1,-1,-1,-1,-1,-1,-1,-1],"split_conditions":[4.453533E0,3.9643104E0,4.677512E0,3.457681E0,4.2762775E0,4.5533566E0,4.797382E0,3.044912E0,9E0,9E0,4.3672743E0,4.514389E0,4.6263223E0,4.7407527E0,4.837405E0,-5.4304607E-2,-4.587255E-2,-3.1449392E-2,-1.9091714E-2,-6.9199577E-3,1.5970519E-2,2.47199E-2,4.668631E-2,7.348331E-2,9.1766395E-2,1.0911143E-1,1.2871253E-1,1.4333735E-1,1.5552485E-1,1.6392614E-1,1.7071667E-1],"split_indices":[0,0,0,0,0,0,0,0,1,1,0,0,0,0,0,0,0,0,0,0,0,0,0,0,0,0,0,0,0,0,0],"split_type":[0,0,0,0,0,0,0,0,0,0,0,0,0,0,0,0,0,0,0,0,0,0,0,0,0,0,0,0,0,0,0],"sum_hessian":[2.767597E5,1.6078911E5,1.1597057E5,1.427578E5,1.8031305E4,1.6579805E4,9.9390766E4,1.3015847E5,1.2599338E4,1.0146483E4,7.8848203E3,6.161933E3,1.0417871E4,1.4398653E4,8.499211E4,1.219633E5,8.195172E3,1.2490625E4,1.0871328E2,9.914782E3,2.3170103E2,3.7375593E3,4.147261E3,3.5915388E3,2.5703945E3,5.6725835E3,4.7452876E3,6.965191E3,7.433463E3,5.8831387E3,7.910898E4],"tree_param":{"num_deleted":"0","num_feature":"2","num_nodes":"31","size_leaf_vector":"1"}},{"base_weights":[-5.3359437E-1,-5.3424156E-1,1.6780641E0,-5.41567E-1,-4.8867244E-1,5.719113E-2,1.7493242E-1,-5.462243E-2,-5.374716E-1,-5.053151E-1,-4.8004252E-1,-5.380845E-2,-5.2571595E-2,-5.0941717E-2,-4.9689643E-2,-4.831546E-2,-4.7017124E-2],"categories":[],"categories_nodes":[],"categories_segments":[],"categories_sizes":[],"default_left":[0,0,0,0,0,0,0,0,0,0,0,0,0,0,0,0,0],"id":54,"left_children":[1,3,5,7,9,-1,-1,-1,11,13,15,-1,-1,-1,-1,-1,-1],"loss_changes":[2.7952734E2,6.469922E1,6.5345764E0,2.9023438E0,3.6289062E0,0E0,0E0,0E0,3.5742188E-1,6.3964844E-2,3.1933594E-1,0E0,0E0,0E0,0E0,0E0,0E0],"parents":[2147483647,0,0,1,1,2,2,3,3,4,4,8,8,9,9,10,10],"right_children":[2,4,6,8,10,-1,-1,-1,12,14,16,-1,-1,-1,-1,-1,-1],"split_conditions":[1E1,4.769684E0,4.709928E0,-9.564315E-2,4.9471803E0,5.719113E-2,1.7493242E-1,-5.462243E-2,4.6607637E0,4.896554E0,5.081448E0,-5.380845E-2,-5.2571595E-2,-5.0941717E-2,-4.9689643E-2,-4.831546E-2,-4.7017124E-2],"split_indices":[1,0,0,0,0,0,0,0,0,0,0,0,0,0,0,0,0],"split_type":[0,0,0,0,0,0,0,0,0,0,0,0,0,0,0,0,0],"sum_hessian":[1.9466145E5,1.9460527E5,5.6187576E1,1.6764458E5,2.6960686E4,1.7631822E0,5.4424393E1,7.8379734E4,8.926484E4,9.186715E3,1.7773973E4,8.479863E4,4.466211E3,6.1369575E3,3.0497568E3,1.3477097E4,4.2968755E3],"tree_param":{"num_deleted":"0","num_feature":"2","num_nodes":"17","size_leaf_vector":"1"}},{"base_weights":[-5.283223E-1],"categories":[],"categories_nodes":[],"categories_segments":[],"categories_sizes":[],"default_left":[0],"id":55,"left_children":[-1],"loss_changes":[0E0],"parents":[2147483647],"right_children":[-1],"split_conditions":[-5.2832227E-2],"split_indices":[0],"split_type":[0],"sum_hessian":[1.8590153E5],"tree_param":{"num_deleted":"0","num_feature":"2","num_nodes":"1","size_leaf_vector":"1"}},{"base_weights":[-3.94004E-1],"categories":[],"categories_nodes":[],"categories_segments":[],"categories_sizes":[],"default_left":[0],"id":56,"left_children":[-1],"loss_changes":[0E0],"parents":[2147483647],"right_children":[-1],"split_conditions":[-3.94004E-2],"split_indices":[0],"split_type":[0],"sum_hessian":[1.9664008E5],"tree_param":{"num_deleted":"0","num_feature":"2","num_nodes":"1","size_leaf_vector":"1"}},{"base_weights":[-2.8384492E-1],"categories":[],"categories_nodes":[],"categories_segments":[],"categories_sizes":[],"default_left":[0],"id":57,"left_children":[-1],"loss_changes":[0E0],"parents":[2147483647],"right_children":[-1],"split_conditions":[-2.8384492E-2],"split_indices":[0],"split_type":[0],"sum_hessian":[2.0643566E5],"tree_param":{"num_deleted":"0","num_feature":"2","num_nodes":"1","size_leaf_vector":"1"}},{"base_weights":[-9.368699E-2,-1.9968182E-1,-9.2681065E-2,-2.2678003E-2,-1.4618143E-2,-1.1486635E-1,-9.257273E-3,-1.3920329E-2,-1.0371954E-2],"categories":[],"categories_nodes":[],"categories_segments":[],"categories_sizes":[],"default_left":[0,0,0,0,0,0,0,0,0],"id":58,"left_children":[1,3,5,-1,-1,7,-1,-1,-1],"loss_changes":[2.407373E1,7.3349075E0,5.274658E-1,0E0,0E0,1.1842937E0,0E0,0E0,0E0],"parents":[2147483647,0,0,1,1,2,2,5,5],"right_children":[2,4,6,-1,-1,8,-1,-1,-1],"split_conditions":[-8.174972E0,3E0,-8.07283E0,-2.2678003E-2,-1.4618143E-2,3E0,-9.257273E-3,-1.3920329E-2,-1.0371954E-2],"split_indices":[0,1,0,0,0,1,0,0,0],"split_type":[0,0,0,0,0,0,0,0,0],"sum_hessian":[2.2595722E5,2.1223809E3,2.2383484E5,2.0670012E3,5.5379574E1,1.0826318E3,2.2275222E5,1.0550717E3,2.7560217E1],"tree_param":{"num_deleted":"0","num_feature":"2","num_nodes":"9","size_leaf_vector":"1"}},{"base_weights":[-1.2655566E-2,-3.84463E-1,2.0339053E-2,-5.2598786E-1,-2.797125E-1,-1.0989893E-1,2.1653662E-2,-5.375209E-1,-4.358693E-1,-3.011916E-1,-1.82062E-2,-1.2940775E-1,-4.4122636E-3,2.1071848E-2,2.6881953E-3,-5.4779787E-2,-5.204722E-2,-4.429025E-2,-4.0285017E-2,-3.498226E-2,-2.7366636E-2,-1.7524991E-2,-8.67652E-3,1.3910685E-3,2.110937E-3],"categories":[],"categories_nodes":[],"categories_segments":[],"categories_sizes":[],"default_left":[0,0,0,0,0,0,0,0,0,0,0,0,0,0,0,0,0,0,0,0,0,0,0,0,0],"id":59,"left_children":[1,3,5,7,9,11,13,15,17,19,-1,21,-1,23,-1,-1,-1,-1,-1,-1,-1,-1,-1,-1,-1],"loss_changes":[2.8838308E3,2.839048E2,3.696975E1,8.235107E0,4.8065186E1,5.669857E0,6.496811E-1,9.7998047E-1,3.0874634E-1,1.434613E1,0E0,4.1127777E0,0E0,5.1376343E-2,0E0,0E0,0E0,0E0,0E0,0E0,0E0,0E0,0E0,0E0,0E0],"parents":[2147483647,0,0,1,1,2,2,3,3,4,4,5,5,6,6,7,7,8,8,9,9,11,11,13,13],"right_children":[2,4,6,8,10,12,14,16,18,20,-1,22,-1,24,-1,-1,-1,-1,-1,-1,-1,-1,-1,-1,-1],"split_conditions":[-6.3259583E0,-7.451767E0,-6.1272216E0,-7.554501E0,4E0,4E0,1E0,-7.866358E0,4E0,-7.0371685E0,-1.82062E-2,-6.2279005E0,-4.4122636E-3,-6.027767E0,2.6881953E-3,-5.4779787E-2,-5.204722E-2,-4.429025E-2,-4.0285017E-2,-3.498226E-2,-2.7366636E-2,-1.7524991E-2,-8.67652E-3,1.3910685E-3,2.110937E-3],"split_indices":[0,0,0,0,1,1,1,0,1,0,0,0,0,0,0,0,0,0,0,0,0,0,0,0,0],"split_type":[0,0,0,0,0,0,0,0,0,0,0,0,0,0,0,0,0,0,0,0,0,0,0,0,0],"sum_hessian":[2.3507452E5,1.9159594E4,2.1591492E5,8.147611E3,1.1011982E4,2.1568179E3,2.1375811E5,7.218808E3,9.28803E2,1.0787859E4,2.2412321E2,2.0623176E3,9.450028E1,1.9235728E5,2.1400826E4,4.48445E3,2.7343574E3,9.2456494E2,4.238037E0,3.8948386E3,6.8930205E3,1.00445105E3,1.0578666E3,1.00456433E3,1.9135272E5],"tree_param":{"num_deleted":"0","num_feature":"2","num_nodes":"25","size_leaf_vector":"1"}},{"base_weights":[-8.9579746E-2,-4.9695805E-1,-2.9534842E-3,-5.3482556E-1,-3.573259E-1,-1.4603348E-1,-1.3389417E-3,-5.448722E-1,-4.7521377E-1,-3.760577E-1,-2.4995577E-2,-1.6918904E-1,-7.3686214E-3,-1.3932331E-4,-8.504935E-5,-5.471099E-2,-5.243453E-2,-4.824476E-2,-4.4607576E-2,-4.314479E-2,-3.3328407E-2,-2.2765307E-2,-1.2143763E-2],"categories":[],"categories_nodes":[],"categories_segments":[],"categories_sizes":[],"default_left":[0,0,0,0,0,0,0,0,0,0,0,0,0,0,0,0,0,0,0,0,0,0,0],"id":60,"left_children":[1,3,5,7,9,11,13,15,17,19,-1,21,-1,-1,-1,-1,-1,-1,-1,-1,-1,-1,-1],"loss_changes":[7.9626167E3,2.090166E2,4.2983727E1,1.8381836E1,3.580835E1,7.644638E0,4.8781037E-3,9.3603516E-1,1.9225464E0,1.9704834E1,0E0,6.4652023E0,0E0,0E0,0E0,0E0,0E0,0E0,0E0,0E0,0E0,0E0,0E0],"parents":[2147483647,0,0,1,1,2,2,3,3,4,4,5,5,6,6,7,7,8,8,9,9,11,11],"right_children":[2,4,6,8,10,12,14,16,18,20,-1,22,-1,-1,-1,-1,-1,-1,-1,-1,-1,-1,-1],"split_conditions":[-4.0424495E0,-4.867533E0,-3.8629947E0,-5.344271E0,5E0,5E0,1E0,-5.6343365E0,5E0,-4.4956512E0,-2.4995577E-2,-3.9524214E0,-7.3686214E-3,-1.3932331E-4,-8.504935E-5,-5.471099E-2,-5.243453E-2,-4.824476E-2,-4.4607576E-2,-4.314479E-2,-3.3328407E-2,-2.2765307E-2,-1.2143763E-2],"split_indices":[0,0,0,0,1,1,1,0,1,0,0,0,0,0,0,0,0,0,0,0,0,0,0],"split_type":[0,0,0,0,0,0,0,0,0,0,0,0,0,0,0,0,0,0,0,0,0,0,0],"sum_hessian":[2.2563502E5,3.956544E4,1.8606958E5,3.1122379E4,8.443061E3,2.0752188E3,1.8399436E5,2.6626717E4,4.495663E3,8.376535E3,6.65255E1,2.0292251E3,4.599364E1,1.6558739E5,1.8406977E4,2.398622E4,2.6404966E3,4.488543E3,7.1198936E0,3.6460093E3,4.730526E3,9.8371356E2,1.0455115E3],"tree_param":{"num_deleted":"0","num_feature":"2","num_nodes":"23","size_leaf_vector":"1"}},{"base_weights":[1.2751018E-1,-5.104872E-1,3.127163E-1,-5.427433E-1,-3.4484795E-1,3.5476595E-2,3.1588122E-2,-5.4594165E-1,-4.881077E-1,-3.634307E-1,-9.888545E-3,-7.9433024E-2,1.3805369E-1,-5.4640155E-2,-5.2209027E-2,-5.0595492E-2,-4.5293577E-2,-4.2452063E-2,-3.0369148E-2,-9.888545E-3,2.931033E-3,1.188651E-2,1.7567892E-2],"categories":[],"categories_nodes":[],"categories_segments":[],"categories_sizes":[],"default_left":[0,0,0,0,0,0,0,0,0,0,0,0,0,0,0,0,0,0,0,0,0,0,0],"id":61,"left_children":[1,3,5,7,9,11,-1,13,15,17,-1,19,21,-1,-1,-1,-1,-1,-1,-1,-1,-1,-1],"loss_changes":[2.9755268E4,3.0251172E2,1.7123633E2,8.021484E0,8.134863E1,2.5989048E1,0E0,2.0605469E-1,1.4228516E0,3.325525E1,0E0,5.731929E0,1.9736557E0,0E0,0E0,0E0,0E0,0E0,0E0,0E0,0E0,0E0,0E0],"parents":[2147483647,0,0,1,1,2,2,3,3,4,4,5,5,7,7,8,8,9,9,11,11,12,12],"right_children":[2,4,6,8,10,12,-1,14,16,18,-1,20,22,-1,-1,-1,-1,-1,-1,-1,-1,-1,-1],"split_conditions":[-2.2432795E0,-3.1718857E0,-2.0603862E0,-3.4275072E0,6E0,-2.1512682E0,3.1588122E-2,-3.5127814E0,-3.2567148E0,-2.7169728E0,-9.888545E-3,6E0,6E0,-5.4640155E-2,-5.2209027E-2,-5.0595492E-2,-4.5293577E-2,-4.2452063E-2,-3.0369148E-2,-9.888545E-3,2.931033E-3,1.188651E-2,1.7567892E-2],"split_indices":[0,0,0,0,1,0,0,0,0,0,0,1,1,0,0,0,0,0,0,0,0,0,0],"split_type":[0,0,0,0,0,0,0,0,0,0,0,0,0,0,0,0,0,0,0,0,0,0,0],"sum_hessian":[2.5181733E5,5.665402E4,1.9516331E5,4.741774E4,9.236278E3,2.2029426E3,1.9296036E5,4.4786934E4,2.630806E3,9.146657E3,8.96213E1,1.0391191E3,1.1638235E3,4.3918246E4,8.6868677E2,1.7363496E3,8.944563E2,4.519187E3,4.62747E3,1.01057227E3,2.8546852E1,1.1308849E3,3.2938587E1],"tree_param":{"num_deleted":"0","num_feature":"2","num_nodes":"23","size_leaf_vector":"1"}},{"base_weights":[4.1608664E-1,-5.088396E-1,7.4490017E-1,-5.2966E-1,-1.1240388E-1,3.7724677E-1,7.470604E-2,-5.415689E-1,-3.954277E-1,-2.548458E-1,1.1342453E-2,3.5897866E-2,5.6215357E-2,-5.4456484E-2,-4.9576312E-2,-4.104562E-2,-3.2103192E-2,-2.8041368E-2,-1.2175168E-2,-7.443841E-3,9.416494E-3],"categories":[],"categories_nodes":[],"categories_segments":[],"categories_sizes":[],"default_left":[0,0,0,0,0,0,0,0,0,0,0,0,0,0,0,0,0,0,0,0,0],"id":62,"left_children":[1,3,5,7,9,11,-1,13,15,17,19,-1,-1,-1,-1,-1,-1,-1,-1,-1,-1],"loss_changes":[9.0633E4,6.450547E2,1.7432812E2,1.1848633E2,6.876835E1,7.6003723E0,0E0,9.091797E0,1.4572693E1,1.2994568E1,1.4845401E1,0E0,0E0,0E0,0E0,0E0,0E0,0E0,0E0,0E0,0E0],"parents":[2147483647,0,0,1,1,2,2,3,3,4,4,5,5,7,7,8,8,9,9,10,10],"right_children":[2,4,6,8,10,12,-1,14,16,18,20,-1,-1,-1,-1,-1,-1,-1,-1,-1,-1],"split_conditions":[-9.564315E-2,-3.9325902E-1,-2.1958934E-2,-9.446557E-1,-2.436992E-1,7E0,7.470604E-2,-1.3572004E0,7E0,7E0,-1.694743E-1,3.5897866E-2,5.6215357E-2,-5.4456484E-2,-4.9576312E-2,-4.104562E-2,-3.2103192E-2,-2.8041368E-2,-1.2175168E-2,-7.443841E-3,9.416494E-3],"split_indices":[0,0,0,0,0,1,0,0,1,1,0,0,0,0,0,0,0,0,0,0,0],"split_type":[0,0,0,0,0,0,0,0,0,0,0,0,0,0,0,0,0,0,0,0,0],"sum_hessian":[2.980069E5,7.8156984E4,2.1984994E5,7.4256766E4,3.9002175E3,1.2852273E3,2.185647E5,6.820285E4,6.0539175E3,1.8126514E3,2.0875662E3,1.2561006E3,2.9126732E1,6.400561E4,4.1972393E3,6.0250107E3,2.8907185E1,1.7920068E3,2.0644577E1,1.0255182E3,1.062048E3],"tree_param":{"num_deleted":"0","num_feature":"2","num_nodes":"21","size_leaf_vector":"1"}},{"base_weights":[3.9410147E-1,-4.8735723E-1,9.13043E-1,-5.354012E-1,-1.6284898E-1,4.872421E-1,9.2146504E-1,-5.4329115E-1,-4.2553166E-1,-2.5277236E-1,7.173997E-2,3.932433E-1,6.4126325E-1,8.6213547E-1,9.21978E-2,-5.4465003E-2,-5.1309504E-2,-4.3685503E-2,-3.4912508E-2,-2.7786663E-2,-9.05162E-3,-2.8868986E-3,1.6159361E-2,3.7741855E-2,5.1725328E-2,6.250083E-2,7.043536E-2,8.465161E-2,8.9205675E-2],"categories":[],"categories_nodes":[],"categories_segments":[],"categories_sizes":[],"default_left":[0,0,0,0,0,0,0,0,0,0,0,0,0,0,0,0,0,0,0,0,0,0,0,0,0,0,0,0,0],"id":63,"left_children":[1,3,5,7,9,11,13,15,17,19,21,23,25,27,-1,-1,-1,-1,-1,-1,-1,-1,-1,-1,-1,-1,-1,-1,-1],"loss_changes":[1.3312917E5,1.6813652E3,6.5646875E2,8.1203125E1,2.934431E2,5.121936E1,4.6875E0,3.3203125E0,1.1462891E1,8.308063E1,3.4855938E1,7.266083E0,2.229309E0,8.841553E-1,0E0,0E0,0E0,0E0,0E0,0E0,0E0,0E0,0E0,0E0,0E0,0E0,0E0,0E0,0E0],"parents":[2147483647,0,0,1,1,2,2,3,3,4,4,5,5,6,6,7,7,8,8,9,9,10,10,11,11,12,12,13,13],"right_children":[2,4,6,8,10,12,14,16,18,20,22,24,26,28,-1,-1,-1,-1,-1,-1,-1,-1,-1,-1,-1,-1,-1,-1,-1],"split_conditions":[2.204662E0,1.3447409E0,2.3451042E0,8.5938793E-1,2.0008488E0,2.296362E0,2.3924294E0,5.3313005E-1,8E0,8E0,2.1049192E0,8E0,8E0,8E0,9.21978E-2,-5.4465003E-2,-5.1309504E-2,-4.3685503E-2,-3.4912508E-2,-2.7786663E-2,-9.05162E-3,-2.8868986E-3,1.6159361E-2,3.7741855E-2,5.1725328E-2,6.250083E-2,7.043536E-2,8.465161E-2,8.9205675E-2],"split_indices":[0,0,0,0,0,0,0,0,1,1,0,1,1,1,0,0,0,0,0,0,0,0,0,0,0,0,0,0,0],"split_type":[0,0,0,0,0,0,0,0,0,0,0,0,0,0,0,0,0,0,0,0,0,0,0,0,0,0,0,0,0],"sum_hessian":[2.9103812E5,1.0784904E5,1.8318911E5,9.394036E4,1.390868E4,3.554199E3,1.796349E5,8.764263E4,6.2977285E3,1.0054485E4,3.854194E3,2.209375E3,1.344824E3,1.5539471E3,1.7808095E5,8.385214E4,3.7904856E3,6.2819004E3,1.58285885E1,9.908352E3,1.4613388E2,1.8185952E3,2.0355989E3,2.1226746E3,8.6700424E1,1.2827832E3,6.204076E1,1.480164E3,7.378319E1],"tree_param":{"num_deleted":"0","num_feature":"2","num_nodes":"29","size_leaf_vector":"1"}},{"base_weights":[3.7943575E-1,-4.5287734E-1,1.3891991E0,-5.2125156E-1,3.9840326E-2,8.649723E-1,1.4758049E0,-5.371668E-1,-3.1584954E-1,-1.160579E-1,2.3157616E-1,6.538251E-1,1.0078194E0,1.2852122E0,1.502061E0,-5.417474E-2,-4.5997024E-2,-3.3792276E-2,-2.4070561E-2,-1.4314569E-2,5.775913E-3,2.0694735E-2,4.6816092E-2,5.4729808E-2,7.454527E-2,9.341223E-2,1.09480895E-1,1.22251414E-1,1.3288675E-1,1.4178519E-1,1.5099981E-1],"categories":[],"categories_nodes":[],"categories_segments":[],"categories_sizes":[],"default_left":[0,0,0,0,0,0,0,0,0,0,0,0,0,0,0,0,0,0,0,0,0,0,0,0,0,0,0,0,0,0,0],"id":64,"left_children":[1,3,5,7,9,11,13,15,17,19,21,23,25,27,29,-1,-1,-1,-1,-1,-1,-1,-1,-1,-1,-1,-1,-1,-1,-1,-1],"loss_changes":[2.362489E5,5.191209E3,5.765172E3,4.4216797E2,5.613341E2,5.4256836E2,5.4359375E2,4.4164062E1,3.6360962E1,9.707312E1,8.312552E1,7.055908E1,6.7833984E1,3.451953E1,6.1875E1,0E0,0E0,0E0,0E0,0E0,0E0,0E0,0E0,0E0,0E0,0E0,0E0,0E0,0E0,0E0,0E0],"parents":[2147483647,0,0,1,1,2,2,3,3,4,4,5,5,6,6,7,7,8,8,9,9,10,10,11,11,12,12,13,13,14,14],"right_children":[2,4,6,8,10,12,14,16,18,20,22,24,26,28,30,-1,-1,-1,-1,-1,-1,-1,-1,-1,-1,-1,-1,-1,-1,-1,-1],"split_conditions":[4.4111295E0,3.8473346E0,4.6607637E0,3.4229567E0,4.202878E0,4.534021E0,4.769684E0,3.044912E0,9E0,9E0,9E0,4.474037E0,4.608487E0,4.709928E0,4.8246174E0,-5.417474E-2,-4.5997024E-2,-3.3792276E-2,-2.4070561E-2,-1.4314569E-2,5.775913E-3,2.0694735E-2,4.6816092E-2,5.4729808E-2,7.454527E-2,9.341223E-2,1.09480895E-1,1.22251414E-1,1.3288675E-1,1.4178519E-1,1.5099981E-1],"split_indices":[0,0,0,0,0,0,0,0,1,1,1,0,0,0,0,0,0,0,0,0,0,0,0,0,0,0,0,0,0,0,0],"split_type":[0,0,0,0,0,0,0,0,0,0,0,0,0,0,0,0,0,0,0,0,0,0,0,0,0,0,0,0,0,0,0],"sum_hessian":[2.8109997E5,1.540897E5,1.27010266E5,1.353124E5,1.8777299E4,1.8009475E4,1.0900079E5,1.2558039E5,9.732012E3,1.0356743E4,8.420556E3,7.269602E3,1.0739872E4,1.3203912E4,9.5796875E4,1.1854056E5,7.0398237E3,9.667364E3,6.464668E1,1.0157088E4,1.9965517E2,8.128831E3,2.917244E2,3.3647205E3,3.9048816E3,5.820505E3,4.9193677E3,5.431779E3,7.772133E3,8.266945E3,8.752993E4],"tree_param":{"num_deleted":"0","num_feature":"2","num_nodes":"31","size_leaf_vector":"1"}},{"base_weights":[-5.314851E-1,-5.321732E-1,1.460979E0,-5.398835E-1,-4.8139787E-1,4.644029E-2,1.5385054E-1,-5.452711E-2,-5.3494346E-1,-4.984867E-1,-4.7061995E-1,-5.355228E-2,-5.1857002E-2,-5.0423026E-2,-4.9002685E-2,-4.784844E-2,-4.6596196E-2],"categories":[],"categories_nodes":[],"categories_segments":[],"categories_sizes":[],"default_left":[0,0,0,0,0,0,0,0,0,0,0,0,0,0,0,0,0],"id":65,"left_children":[1,3,5,7,9,-1,-1,-1,11,13,15,-1,-1,-1,-1,-1,-1],"loss_changes":[2.5508594E2,7.233984E1,7.370178E0,4.0039062E0,4.269043E0,0E0,0E0,0E0,5.1953125E-1,2.1191406E-1,3.2714844E-1,0E0,0E0,0E0,0E0,0E0,0E0],"parents":[2147483647,0,0,1,1,2,2,3,3,4,4,8,8,9,9,10,10],"right_children":[2,4,6,8,10,-1,-1,-1,12,14,16,-1,-1,-1,-1,-1,-1],"split_conditions":[1E1,4.769684E0,4.709928E0,-9.564315E-2,4.965008E0,4.644029E-2,1.5385054E-1,-5.452711E-2,4.69382E0,4.896554E0,5.031993E0,-5.355228E-2,-5.1857002E-2,-5.0423026E-2,-4.9002685E-2,-4.784844E-2,-4.6596196E-2],"split_indices":[1,0,0,0,0,0,0,0,0,0,0,0,0,0,0,0,0],"split_type":[0,0,0,0,0,0,0,0,0,0,0,0,0,0,0,0,0],"sum_hessian":[1.854927E5,1.854294E5,6.3305386E1,1.6097547E5,2.4453926E4,2.3726087E0,6.0932777E1,7.694704E4,8.402844E4,9.44045E3,1.5013476E4,8.112632E4,2.9021118E3,5.588051E3,3.8524E3,5.546748E3,9.466728E3],"tree_param":{"num_deleted":"0","num_feature":"2","num_nodes":"17","size_leaf_vector":"1"}},{"base_weights":[-5.263876E-1],"categories":[],"categories_nodes":[],"categories_segments":[],"categories_sizes":[],"default_left":[0],"id":66,"left_children":[-1],"loss_changes":[0E0],"parents":[2147483647],"right_children":[-1],"split_conditions":[-5.2638758E-2],"split_indices":[0],"split_type":[0],"sum_hessian":[1.7731528E5],"tree_param":{"num_deleted":"0","num_feature":"2","num_nodes":"1","size_leaf_vector":"1"}},{"base_weights":[-3.8720512E-1],"categories":[],"categories_nodes":[],"categories_segments":[],"categories_sizes":[],"default_left":[0],"id":67,"left_children":[-1],"loss_changes":[0E0],"parents":[2147483647],"right_children":[-1],"split_conditions":[-3.8720515E-2],"split_indices":[0],"split_type":[0],"sum_hessian":[1.9002306E5],"tree_param":{"num_deleted":"0","num_feature":"2","num_nodes":"1","size_leaf_vector":"1"}},{"base_weights":[-2.777092E-1],"categories":[],"categories_nodes":[],"categories_segments":[],"categories_sizes":[],"default_left":[0],"id":68,"left_children":[-1],"loss_changes":[0E0],"parents":[2147483647],"right_children":[-1],"split_conditions":[-2.777092E-2],"split_indices":[0],"split_type":[0],"sum_hessian":[2.0141142E5],"tree_param":{"num_deleted":"0","num_feature":"2","num_nodes":"1","size_leaf_vector":"1"}},{"base_weights":[-9.091784E-2,-2.0929208E-1,-8.9771874E-2,-2.3764445E-2,-1.4953198E-2,-1.2879549E-1,-8.95711E-3,-1.4953198E-2,-1.09183295E-2],"categories":[],"categories_nodes":[],"categories_segments":[],"categories_sizes":[],"default_left":[0,0,0,0,0,0,0,0,0],"id":69,"left_children":[1,3,5,-1,-1,7,-1,-1,-1],"loss_changes":[3.0435547E1,8.544914E0,1.7304688E0,0E0,0E0,1.875658E0,0E0,0E0,0E0],"parents":[2147483647,0,0,1,1,2,2,5,5],"right_children":[2,4,6,-1,-1,8,-1,-1,-1],"split_conditions":[-8.174972E0,3E0,-8.07283E0,-2.3764445E-2,-1.4953198E-2,3E0,-8.95711E-3,-1.4953198E-2,-1.09183295E-2],"split_indices":[0,1,0,0,0,1,0,0,0],"split_type":[0,0,0,0,0,0,0,0,0],"sum_hessian":[2.2450055E5,2.150791E3,2.2234977E5,2.0922886E3,5.8502327E1,1.1347933E3,2.2121497E5,1.103571E3,3.122223E1],"tree_param":{"num_deleted":"0","num_feature":"2","num_nodes":"9","size_leaf_vector":"1"}},{"base_weights":[-1.3497001E-2,-3.8664168E-1,1.9701194E-2,-5.2566147E-1,-2.8570932E-1,-1.1794347E-1,2.1125278E-2,-5.37128E-1,-4.3717375E-1,-3.0741113E-1,-1.8347025E-2,-1.3802746E-1,-4.84091E-3,-8.9258095E-3,2.1289252E-2,-5.4734446E-2,-5.2019455E-2,-4.4419654E-2,-4.056854E-2,-3.493546E-2,-2.8386706E-2,-1.8347025E-2,-9.321828E-3,-2.240793E-3,6.181721E-4,2.1189777E-3,2.21821E-3],"categories":[],"categories_nodes":[],"categories_segments":[],"categories_sizes":[],"default_left":[0,0,0,0,0,0,0,0,0,0,0,0,0,0,0,0,0,0,0,0,0,0,0,0,0,0,0],"id":70,"left_children":[1,3,5,7,9,11,13,15,17,19,-1,21,-1,23,25,-1,-1,-1,-1,-1,-1,-1,-1,-1,-1,-1,-1],"loss_changes":[2.9108408E3,2.6922363E2,4.2299225E1,7.9572754E0,5.099585E1,6.2778416E0,1.0525894E0,9.511719E-1,2.8707886E-1,1.065686E1,0E0,4.8706627E0,0E0,6.3909614E-1,1.839447E-2,0E0,0E0,0E0,0E0,0E0,0E0,0E0,0E0,0E0,0E0,0E0,0E0],"parents":[2147483647,0,0,1,1,2,2,3,3,4,4,5,5,6,6,7,7,8,8,9,9,11,11,13,13,14,14],"right_children":[2,4,6,8,10,12,14,16,18,20,-1,22,-1,24,26,-1,-1,-1,-1,-1,-1,-1,-1,-1,-1,-1,-1],"split_conditions":[-6.3259583E0,-7.451767E0,-6.1272216E0,-7.554501E0,4E0,4E0,-6.027767E0,-7.866358E0,4E0,-7.0371685E0,-1.8347025E-2,-6.2279005E0,-4.84091E-3,4E0,1E0,-5.4734446E-2,-5.2019455E-2,-4.4419654E-2,-4.056854E-2,-3.493546E-2,-2.8386706E-2,-1.8347025E-2,-9.321828E-3,-2.240793E-3,6.181721E-4,2.1189777E-3,2.21821E-3],"split_indices":[0,0,0,0,1,1,0,0,1,0,0,0,0,1,1,0,0,0,0,0,0,0,0,0,0,0,0],"split_type":[0,0,0,0,0,0,0,0,0,0,0,0,0,0,0,0,0,0,0,0,0,0,0,0,0,0,0],"sum_hessian":[2.3497612E5,1.919667E4,2.1577945E5,8.073027E3,1.1123643E4,2.2087744E3,2.1357069E5,7.1424204E3,9.306063E2,1.0890869E4,2.3277359E2,2.1112595E3,9.7514854E1,1.1587369E3,2.1241195E5,4.4352026E3,2.707218E3,9.263539E2,4.2524166E0,3.9105078E3,6.9803613E3,1.0277018E3,1.0835576E3,1.1047805E3,5.3956455E1,1.9114106E5,2.127089E4],"tree_param":{"num_deleted":"0","num_feature":"2","num_nodes":"27","size_leaf_vector":"1"}},{"base_weights":[-8.5202895E-2,-4.9611294E-1,2.2149077E-3,-5.33996E-1,-3.5810587E-1,-1.5397753E-1,4.019391E-4,-5.4416305E-1,-4.738069E-1,-3.7552214E-1,-2.4694903E-2,-1.7661121E-1,-7.4979067E-3,-5.4651137E-2,-5.2256275E-2,-4.8155464E-2,-4.4605095E-2,-4.1698683E-2,-3.2538835E-2,-2.2833144E-2,-1.2835057E-2],"categories":[],"categories_nodes":[],"categories_segments":[],"categories_sizes":[],"default_left":[0,0,0,0,0,0,0,0,0,0,0,0,0,0,0,0,0,0,0,0,0],"id":71,"left_children":[1,3,5,7,9,11,-1,13,15,17,-1,19,-1,-1,-1,-1,-1,-1,-1,-1,-1],"loss_changes":[8.032146E3,2.0488477E2,5.1968094E1,1.8575195E1,3.413501E1,8.137535E0,0E0,1.050293E0,1.9752808E0,1.7295776E1,0E0,5.1143417E0,0E0,0E0,0E0,0E0,0E0,0E0,0E0,0E0,0E0],"parents":[2147483647,0,0,1,1,2,2,3,3,4,4,5,5,7,7,8,8,9,9,11,11],"right_children":[2,4,6,8,10,12,-1,14,16,18,-1,20,-1,-1,-1,-1,-1,-1,-1,-1,-1],"split_conditions":[-4.0424495E0,-4.867533E0,-3.8629947E0,-5.344271E0,5E0,5E0,4.019391E-4,-5.6343365E0,5E0,-4.40243E0,-2.4694903E-2,-3.9524214E0,-7.4979067E-3,-5.4651137E-2,-5.2256275E-2,-4.8155464E-2,-4.4605095E-2,-4.1698683E-2,-3.2538835E-2,-2.2833144E-2,-1.2835057E-2],"split_indices":[0,0,0,0,1,1,0,0,1,0,0,0,0,0,0,0,0,0,0,0,0],"split_type":[0,0,0,0,0,0,0,0,0,0,0,0,0,0,0,0,0,0,0,0,0],"sum_hessian":[2.2360575E5,3.922461E4,1.8438114E5,3.0774195E4,8.450415E3,2.1048542E3,1.822763E5,2.6320191E4,4.4540044E3,8.384452E3,6.5962746E1,2.0597117E3,4.5142563E1,2.3717445E4,2.6027444E3,4.4467646E3,7.2397256E0,4.5849834E3,3.7994685E3,9.9241925E2,1.0672924E3],"tree_param":{"num_deleted":"0","num_feature":"2","num_nodes":"21","size_leaf_vector":"1"}},{"base_weights":[1.18604355E-1,-5.0863767E-1,2.958839E-1,-5.419244E-1,-3.3951768E-1,1.3847178E-2,2.9915687E-1,-5.4523677E-1,-4.852849E-1,-3.5819814E-1,-1.0637688E-2,-9.652058E-2,1.1104608E-1,2.9888583E-2,3.0157981E-2,-5.4570723E-2,-5.2055277E-2,-5.0212603E-2,-4.521203E-2,-4.1582953E-2,-3.023809E-2,-1.0637688E-2,7.2627515E-4,9.239214E-3,1.5650203E-2],"categories":[],"categories_nodes":[],"categories_segments":[],"categories_sizes":[],"default_left":[0,0,0,0,0,0,0,0,0,0,0,0,0,0,0,0,0,0,0,0,0,0,0,0,0],"id":72,"left_children":[1,3,5,7,9,11,13,15,17,19,-1,21,23,-1,-1,-1,-1,-1,-1,-1,-1,-1,-1,-1,-1],"loss_changes":[2.8243281E4,3.1488672E2,1.8279102E2,8.5078125E0,7.768701E1,2.4391571E1,3.90625E-2,2.2851562E-1,1.2210693E0,2.9201904E1,0E0,5.830414E0,2.30132E0,0E0,0E0,0E0,0E0,0E0,0E0,0E0,0E0,0E0,0E0,0E0,0E0],"parents":[2147483647,0,0,1,1,2,2,3,3,4,4,5,5,6,6,7,7,8,8,9,9,11,11,12,12],"right_children":[2,4,6,8,10,12,14,16,18,20,-1,22,24,-1,-1,-1,-1,-1,-1,-1,-1,-1,-1,-1,-1],"split_conditions":[-2.2432795E0,-3.1718857E0,-2.0603862E0,-3.4275072E0,6E0,-2.1512682E0,1E0,-3.5127814E0,-3.2567148E0,-2.7169728E0,-1.0637688E-2,6E0,6E0,2.9888583E-2,3.0157981E-2,-5.4570723E-2,-5.2055277E-2,-5.0212603E-2,-4.521203E-2,-4.1582953E-2,-3.023809E-2,-1.0637688E-2,7.2627515E-4,9.239214E-3,1.5650203E-2],"split_indices":[0,0,0,0,1,0,1,0,0,0,0,1,1,0,0,0,0,0,0,0,0,0,0,0,0],"split_type":[0,0,0,0,0,0,0,0,0,0,0,0,0,0,0,0,0,0,0,0,0,0,0,0,0],"sum_hessian":[2.5399042E5,5.596739E4,1.9802303E5,4.6761453E4,9.205936E3,2.2717166E3,1.9575131E5,4.4169734E4,2.5917183E3,9.115893E3,9.004287E1,1.0637982E3,1.2079185E3,1.7616755E5,1.9583775E4,4.3322902E4,8.468346E2,1.70949E3,8.8222833E2,4.481886E3,4.6340063E3,1.0330377E3,3.0760567E1,1.1726354E3,3.5283085E1],"tree_param":{"num_deleted":"0","num_feature":"2","num_nodes":"25","size_leaf_vector":"1"}},{"base_weights":[3.8385007E-1,-5.0768745E-1,6.825739E-1,-5.350367E-1,-2.117297E-1,3.5874215E-1,6.845032E-2,-5.432358E-1,-4.5615724E-1,-3.0585352E-1,-1.7116489E-2,3.3916455E-2,5.2162267E-2,-5.445039E-2,-5.241402E-2,-4.642808E-2,-3.733832E-2,-3.2806553E-2,-1.61485E-2,-8.075277E-3,4.329029E-3],"categories":[],"categories_nodes":[],"categories_segments":[],"categories_sizes":[],"default_left":[0,0,0,0,0,0,0,0,0,0,0,0,0,0,0,0,0,0,0,0,0],"id":73,"left_children":[1,3,5,7,9,11,-1,13,15,17,19,-1,-1,-1,-1,-1,-1,-1,-1,-1,-1],"loss_changes":[8.164075E4,6.226172E2,1.431875E2,4.530078E1,1.1923938E2,7.8512115E0,0E0,1.2578125E0,9.116211E0,2.9217834E1,8.165021E0,0E0,0E0,0E0,0E0,0E0,0E0,0E0,0E0,0E0,0E0],"parents":[2147483647,0,0,1,1,2,2,3,3,4,4,5,5,7,7,8,8,9,9,10,10],"right_children":[2,4,6,8,10,12,-1,14,16,18,20,-1,-1,-1,-1,-1,-1,-1,-1,-1,-1],"split_conditions":[-9.564315E-2,-6.245803E-1,-2.1958934E-2,-1.272512E0,-2.436992E-1,7E0,6.845032E-2,-1.7004718E0,7E0,7E0,-1.694743E-1,3.3916455E-2,5.2162267E-2,-5.445039E-2,-5.241402E-2,-4.642808E-2,-3.733832E-2,-3.2806553E-2,-1.61485E-2,-8.075277E-3,4.329029E-3],"split_indices":[0,0,0,0,0,1,0,0,1,1,0,0,0,0,0,0,0,0,0,0,0],"split_type":[0,0,0,0,0,0,0,0,0,0,0,0,0,0,0,0,0,0,0,0,0],"sum_hessian":[3.0654503E5,7.6934445E4,2.296106E5,7.042566E4,6.5087925E3,1.3609109E3,2.2824969E5,6.3789207E4,6.6364453E3,4.386641E3,2.1221511E3,1.3283347E3,3.2576084E1,5.9791125E4,3.9980842E3,6.6232725E3,1.3172442E1,4.348416E3,3.82253E1,1.0332861E3,1.088865E3],"tree_param":{"num_deleted":"0","num_feature":"2","num_nodes":"21","size_leaf_vector":"1"}},{"base_weights":[3.6574382E-1,-4.928572E-1,8.290706E-1,-5.3677464E-1,-2.1084791E-1,3.8900834E-1,8.404155E-1,-5.4214215E-1,-4.3524715E-1,-2.3583686E-1,1.6810672E-2,2.4550146E-1,5.0760835E-1,7.667086E-1,8.4105976E-2,-5.4361742E-2,-5.0873633E-2,-4.4605147E-2,-3.7381127E-2,-2.9702429E-2,-4.9710767E-3,2.3253081E-2,3.765549E-2,4.187117E-2,5.8736335E-2,7.506936E-2,8.038842E-2],"categories":[],"categories_nodes":[],"categories_segments":[],"categories_sizes":[],"default_left":[0,0,0,0,0,0,0,0,0,0,0,0,0,0,0,0,0,0,0,0,0,0,0,0,0,0,0],"id":74,"left_children":[1,3,5,7,9,11,13,15,17,19,-1,21,23,25,-1,-1,-1,-1,-1,-1,-1,-1,-1,-1,-1,-1,-1],"loss_changes":[1.18486516E5,1.2928066E3,9.6546875E2,4.8992188E1,2.3557446E2,8.26557E1,8.34375E0,3.9492188E0,6.366272E0,1.5743658E2,0E0,5.985031E0,1.8627686E1,1.5237427E0,0E0,0E0,0E0,0E0,